// Auto-generated model parameters

// Parameter shapes (for reference):
// layer_0_weight[64][36]
// layer_0_bias[64]

// layer_1_weight[64][64]
// layer_1_bias[64]

// layer_2_weight[10][64]
// layer_2_bias[10]

static const float layer_0_weight[64][36] = {
    { -0.39679098, 0.03687178, -0.13071850, -0.05336509, 0.04149375, -0.26841110, -0.11114947, 0.28730616, -0.21317652, 0.12362965, 0.30030480, -0.39888400, -0.30850342, 0.07899524, -0.16989861, 0.15533933, 0.00433681, -0.13722704, 0.26035631, -0.01954577, 0.04864798, -0.02698283, -0.08822000, -0.19679007, 0.32616663, 0.13144562, 0.06521362, -0.02542807, 0.02520363, -0.00613191, -0.36439630, 0.08077994, -0.03823684, 0.07003763, 0.12007505, -0.05992984 },
    { 0.00000021, -0.00001360, -0.00001564, -0.01147065, 0.00766219, 0.01986628, 0.00000952, -0.00000422, 0.06466539, -0.00000006, 0.06717642, -0.00007084, 0.00003218, -0.00000828, -0.05895217, -0.05885681, 0.03857702, -0.00004038, 0.12626331, -0.00266516, -0.08870682, 0.04913921, -0.17339253, 0.00000156, -0.11796086, 0.02529601, -0.03311355, -0.04430053, 0.03853103, 0.00000876, 0.00000070, -0.02382514, 0.06351390, 0.09933830, -0.09509645, 0.00000806 },
    { 0.00011843, -0.00004644, -0.00004274, -0.00009026, 0.00000979, -0.00011436, 0.00006607, -0.00001131, 0.00013177, 0.00010516, 0.00003753, 0.00004589, 0.00020792, 0.00007537, 0.00006665, 0.00005582, 0.00004733, 0.00014648, -0.00007566, -0.00005616, 0.00000443, 0.00000552, -0.00000288, 0.00005606, -0.00002000, -0.00000183, 0.00000289, -0.00000887, 0.00000045, -0.00012559, 0.00001156, 0.00001010, 0.00000423, 0.00000380, -0.00071154, 0.00004600 },
    { 0.09308802, -0.15601945, 0.54760396, -0.21394618, -0.25762618, 0.13191158, 0.53636527, -0.30868852, 0.27268019, -0.27684349, -0.44846156, 0.64130270, 0.28656727, -0.23366481, 0.20817024, 0.04814431, -0.09529722, 0.16761626, -0.13969454, 0.02013789, 0.09830843, 0.11527369, 0.00972809, -0.01981625, -0.22620113, 0.03668448, -0.05097143, -0.11889960, 0.05755887, 0.07663730, 0.19451466, 0.05871591, -0.13465354, -0.06350622, 0.00260569, 0.03182678 },
    { -0.00002398, -0.00000129, 0.00008005, -0.00000926, 0.00000550, -0.00001210, -0.00013798, 0.00003709, -0.00000811, -0.00000450, 0.00001140, -0.00002631, 0.00000103, -0.00006245, -0.00002192, -0.00001288, -0.00001987, -0.00002598, 0.00000496, -0.06075310, 0.00749770, -0.00000064, -0.03178373, -0.00001061, -0.03224882, 0.06966199, 0.00280617, 0.00565237, -0.03075111, -0.00006894, 0.00000074, 0.03302290, 0.00078748, -0.00000103, -0.01109093, 0.00000326 },
    { 0.40501001, 0.06085397, 0.13518441, 0.06239682, 0.10574114, 0.42050493, -0.30474374, -0.16790327, -0.10574184, -0.17896031, 0.03125819, 0.01103058, -0.36503452, -0.22862111, -0.23564492, -0.28685603, 0.04114598, -0.20484641, 0.12780911, 0.02498638, -0.04522770, 0.15187171, -0.05059876, 0.01397359, -0.04090816, -0.11987641, -0.05491243, 0.12894258, 0.10694305, -0.16624425, -0.42580688, 0.07195529, 0.18372698, -0.05530475, 0.02160520, -0.08272518 },
    { -0.09795379, -0.08863556, 0.33636370, 0.07212511, -0.28306368, -0.19771466, 0.00071521, -0.05982288, 0.22182962, -0.31112954, -0.25973678, 0.09626226, 0.69097900, 0.21037936, 0.32869148, -0.01334910, -0.13623686, 0.43153298, 0.30569002, -0.00599104, 0.14577107, 0.11920402, 0.01702869, 0.00411402, -0.06527141, 0.18729997, 0.12288422, -0.12332904, 0.02924617, -0.10824224, 0.29273316, 0.09522352, -0.06950517, -0.02971616, 0.06698884, 0.00055171 },
    { -0.12577282, -0.19824143, 0.06277481, -0.11932046, -0.24810870, -0.25837377, 0.04766495, 0.05373941, 0.09866209, 0.17102653, 0.18724400, 0.29775050, 0.29433861, -0.08546779, 0.26384082, -0.12921253, -0.08768896, 0.34266731, 0.25383779, 0.16878074, -0.11251402, -0.08453400, 0.09913395, 0.25534719, -0.43607268, 0.04827281, -0.06868719, -0.09553994, 0.09166153, 0.26919916, 0.01241300, 0.16964725, 0.00925023, -0.14777079, -0.10642789, -0.07838126 },
    { -0.55480742, 0.23753236, -0.31122446, -0.14483933, -0.15648496, -0.41784883, 0.07136958, -0.12788381, -0.03721085, -0.02085072, -0.14747751, 0.20646684, 0.58825111, -0.11127838, 0.26168466, 0.11038658, 0.14494143, 0.35753936, -0.04498021, -0.03380179, 0.12827538, -0.08155610, 0.13193612, -0.10430734, -0.42107731, -0.01976341, 0.01240212, -0.09608615, 0.05545226, 0.04387588, -0.17225829, -0.06119028, 0.07583001, 0.14818652, 0.03940337, -0.30820587 },
    { -0.14540638, -0.10665610, 0.16275764, -0.01105363, -0.12334090, -0.26881534, -0.18202685, 0.08736559, 0.10544097, -0.08256809, -0.06751956, -0.13499163, 0.16938713, 0.06170410, 0.20453280, -0.04059453, -0.19813965, 0.16465263, -0.09740593, 0.14518297, 0.07946369, 0.11583247, 0.05009611, -0.11155271, 0.22596814, 0.12646550, 0.14592230, 0.02426047, -0.06203476, 0.01569441, 0.15241975, -0.10617219, -0.09608746, -0.02891424, -0.17283599, -0.22762938 },
    { -0.66993421, 0.08132733, 0.10994554, -0.22052903, -0.16121975, -0.53444904, 0.19989221, 0.17143051, 0.31856513, 0.34863460, -0.08671658, -0.26665395, -0.32103387, 0.10763701, 0.14272819, 0.20699137, 0.08701982, -0.39352667, 0.29079902, 0.17264827, -0.15619613, 0.15424494, -0.05833181, 0.34902728, 0.21037823, -0.09475312, -0.09838139, 0.04184668, -0.12019692, 0.29598847, 0.32547662, 0.14373671, 0.12765683, -0.02509306, 0.04105439, -0.18393555 },
    { -0.16741288, 0.09566031, -0.41757175, 0.09224539, 0.08493058, -0.07130687, -0.07361510, -0.19852678, -0.08756608, 0.02055369, 0.14960065, -0.43556976, -0.19032709, -0.02681751, -0.03216143, 0.03568602, 0.18094115, 0.01916719, -0.44709593, 0.04249411, 0.15383901, -0.04378996, 0.12766403, 0.04985245, 0.44757637, -0.19694695, -0.10867641, -0.09429573, 0.02132972, 0.32151932, 0.22745149, 0.00664509, 0.12811536, 0.02541394, 0.03965176, -0.11432922 },
    { 0.00006450, 0.00004558, -0.00003336, 0.00002484, -0.00001336, -0.00003178, 0.00013962, -0.00013815, -0.00004107, -0.00004275, -0.00003118, 0.00012131, -0.00012100, 0.00004786, -0.00000830, 0.00001257, 0.00006142, -0.00006484, -0.00000233, 0.00000541, -0.00000127, 0.00000560, -0.00106910, -0.00008760, 0.00009383, -0.00000100, -0.00000081, -0.00000127, -0.00473799, 0.00004737, -0.00001949, -0.00000463, 0.00000232, 0.00000192, -0.00590579, 0.00002430 },
    { 0.02560431, 0.01078237, 0.07021303, 0.08252847, -0.18564498, 0.10821081, -0.12325260, -0.09897617, 0.04009401, -0.19024596, -0.17183045, 0.04242268, 0.58505267, 0.02978387, 0.08663306, 0.09674218, 0.08225589, 0.02281241, 0.57621479, -0.14533791, -0.10441591, -0.08257809, -0.06306408, 0.15396816, -0.48610020, -0.13299410, 0.08296276, 0.11160210, 0.12341907, 0.19698952, -0.25850153, -0.12862338, 0.01470334, -0.04249883, 0.08334200, -0.30649173 },
    { 0.00438823, -0.00532013, 0.00306824, -0.00180238, 0.00000006, 0.00000045, 0.00000319, 0.00000276, 0.00115686, -0.00000012, -0.00225039, -0.00004007, -0.01521845, -0.01188100, 0.00931536, -0.02344392, -0.01588827, -0.01626801, 0.00000112, -0.00793080, 0.00333919, -0.00958915, -0.00772182, -0.00000028, -0.01277571, -0.01877626, 0.01797949, -0.05981441, -0.01303628, 0.01205956, 0.00054099, -0.00832931, 0.00658442, -0.00520340, -0.00570133, -0.03187077 },
    { -0.00000074, 0.00002326, 0.00000271, -0.00000083, -0.00000104, 0.00000362, 0.00001237, 0.00002774, -0.00000141, 0.00000604, 0.00000135, -0.00001638, -0.00001351, 0.00002714, 0.00000220, 0.00000438, -0.00000250, -0.00003663, 0.00000654, -0.01125710, 0.01750392, -0.01551883, -0.01811591, 0.00000247, 0.00000291, -0.00850844, 0.01874262, -0.01138446, -0.01748342, -0.00001229, -0.00000736, -0.00479673, 0.01169049, -0.00547546, -0.01002754, 0.00000327 },
    { 0.81934142, -0.23794897, 0.65709054, 0.23246317, -0.33728811, 0.44020620, 0.13565917, -0.20674716, 0.21961561, 0.05775633, -0.10861737, 0.19171166, -0.60700667, 0.00298700, -0.18966308, -0.51768857, -0.23585349, -0.53777456, -0.08281287, 0.06306610, -0.12955292, -0.03556918, -0.12298150, -0.02984951, 0.26570666, 0.14765120, 0.17308438, 0.00732146, 0.08688295, -0.07800789, -0.05022996, 0.07003877, 0.01662210, 0.04111486, 0.07926413, 0.18717414 },
    { 0.00690595, -0.09819887, 0.00892571, -0.03652361, 0.04183694, -0.21085954, -0.00640222, 0.05838740, -0.10313261, 0.36804739, 0.20904484, -0.30223152, -1.45159304, 0.02564457, -0.26379639, -0.23519330, -0.16118789, -0.75362349, -0.09118177, 0.12403636, -0.03968035, 0.12247124, -0.07117505, -0.05750069, 0.06138798, 0.18505959, 0.06511944, 0.06503404, 0.03221460, 0.15968291, -0.05507262, -0.06251357, 0.02569854, 0.04611322, -0.02187996, -0.03432230 },
    { 0.07626087, -0.10125089, 0.29388469, -0.26284650, -0.13112256, 0.00949010, -0.15432729, 0.09106059, 0.01020511, -0.30434328, -0.04679347, 0.08696721, 0.32764804, 0.08966278, -0.09834936, -0.09105617, -0.11303717, 0.01517437, 0.61434942, 0.07452081, 0.12208968, -0.03567528, 0.04475074, 0.10648198, -0.22913295, 0.03551820, -0.00888475, 0.12313379, 0.10395465, -0.22134897, -0.00348808, -0.05940298, -0.08987659, 0.10765475, -0.10879724, -0.05409440 },
    { -0.13681091, 0.01166193, -0.10862747, 0.12373159, -0.03851518, -0.23263225, -0.18309140, -0.03428526, -0.05565460, -0.21301185, 0.03156333, -0.20016232, 0.44469798, -0.15529351, 0.11754020, 0.27181101, 0.11482896, 0.12080477, 0.16359584, -0.13270004, -0.09452546, 0.14830226, 0.10106041, -0.02931638, -0.01683431, -0.14891402, 0.01548412, 0.09705825, -0.05116181, -0.29779837, 0.10108308, -0.24801826, 0.15834868, -0.00769940, 0.08834650, 0.50961959 },
    { -0.00000819, 0.00001367, 0.00000112, 0.00011466, 0.05248987, -0.00001102, 0.00002640, 0.00003012, 0.00000021, 0.00001087, 0.04593961, -0.00005874, -0.00000285, -0.00000569, 0.01549132, 0.00000419, 0.03946036, 0.00000652, 0.00000723, -0.01642353, 0.03314497, -0.05087456, -0.03025252, 0.00000127, 0.07787038, 0.08295658, 0.09450988, -0.02158081, 0.00790112, -0.00001100, -0.00000246, -0.00000014, 0.00486676, -0.05216381, -0.02265198, -0.00000941 },
    { -0.33519724, 0.02183461, 0.23624569, -0.26263511, -0.11691213, -0.25387651, 0.47076881, 0.06295371, 0.22234619, 0.35974428, 0.15211843, 0.40170747, -0.42139310, -0.06921105, 0.14624658, -0.06220506, -0.26234913, -0.28801829, -0.14586122, -0.04639098, 0.01604004, 0.09939934, 0.07288466, -0.38985017, 0.05371949, -0.12288062, -0.14152378, -0.09963370, -0.15814504, -0.09415352, -0.24954067, 0.12286890, -0.11198170, 0.03478507, -0.00435977, -0.25029066 },
    { 0.00001258, -0.00010544, -0.00011417, -0.00009411, 0.00017867, 0.00006080, -0.00011999, 0.00009336, 0.00007452, -0.00013700, -0.00001118, -0.00053001, 0.00028171, -0.00006883, 0.00006191, 0.00002860, 0.00005042, 0.00012853, 0.00004899, 0.00002251, -0.00000015, -0.03896937, -0.00000066, -0.00020242, -0.00003880, -0.00114031, -0.03136796, 0.00000007, -0.04238119, -0.00017831, -0.00000979, 0.00004423, -0.06172800, 0.00000639, -0.06873678, 0.00009445 },
    { -0.13718952, 0.14009655, -0.47321236, -0.07620960, 0.05999137, 0.00892428, -0.26705053, -0.08397641, -0.21603014, -0.17833106, -0.05551778, 0.30169415, 0.92127955, -0.00915211, 0.09881575, 0.07665833, -0.03970500, 0.71932393, 0.16847798, -0.17973514, -0.11102670, 0.03260132, -0.09759008, -0.09529219, -0.25686544, -0.24824010, -0.13422213, -0.13343808, -0.00937153, -0.40333724, 0.21705586, -0.20082402, -0.19978616, 0.02427336, 0.07389750, 0.20337912 },
    { -0.00003884, -0.00007086, -0.00013279, 0.00002398, -0.00001667, 0.00004613, -0.00002739, -0.00004882, -0.00001960, 0.00005167, -0.00000827, -0.00004480, -0.00001826, 0.00008156, -0.00001199, -0.00001140, 0.00001215, -0.00003811, -0.00000382, 0.00000205, -0.00000040, -0.00461677, -0.00914446, -0.00000391, -0.00001021, -0.01057071, 0.00784924, -0.00011655, -0.00871998, 0.00003931, -0.00000959, 0.00000199, 0.00494804, -0.00925149, -0.01217180, -0.00001036 },
    { -0.00459786, 0.00045115, -0.00041188, 0.02041540, 0.00444384, 0.00009010, -0.00022693, 0.00032676, -0.07712427, 0.07440238, 0.08750865, -0.00031913, 0.00041103, 0.00044723, -0.00042660, 0.01306305, 0.00197371, 0.00038789, 0.00000549, -0.00579667, 0.15598224, -0.09397667, -0.18210079, -0.00000674, -0.07055522, 0.13927135, 0.12974884, -0.04648395, -0.06244858, 0.00002404, -0.10853362, 0.04292577, -0.02153602, -0.08376450, 0.13018104, -0.00000208 },
    { -0.16908425, -0.08370378, -0.08282249, -0.20211142, -0.17773452, -0.14948034, -0.31793451, 0.20914961, -0.17136994, 0.01188584, 0.22511896, -0.01229721, -0.95102727, -0.05289421, -0.01912284, -0.43130553, -0.18335839, -0.63304162, -0.08516467, 0.02553045, 0.00271187, -0.13694404, 0.07902753, -0.01838511, 0.19248503, -0.14274824, 0.07107536, 0.10292320, -0.01476475, 0.12126342, 0.11382531, 0.00557094, -0.07212467, 0.05000208, -0.00087967, 0.12212276 },
    { -0.00000279, -0.00001767, -0.00001113, 0.00000538, -0.00000123, 0.00002020, -0.00001955, -0.00002842, -0.00000159, -0.00000018, -0.00000625, 0.00001451, 0.00001134, 0.00002531, -0.00001014, 0.00000213, 0.00000249, 0.00001008, 0.00000441, -0.01003774, -0.10712203, -0.05389288, 0.00933281, -0.00000356, -0.03359869, 0.01752656, 0.06859000, -0.09517303, -0.01906731, 0.00002142, -0.00000465, 0.12076380, 0.12821765, 0.09166335, -0.13324779, -0.00000271 },
    { 0.01643424, -0.19807282, 0.10197717, -0.04798252, -0.19238785, -0.13288240, 0.18829778, -0.00640566, 0.08790866, -0.00676426, -0.09086592, 0.27873307, 0.12541367, -0.08552164, 0.09278849, 0.07336367, -0.10231197, 0.17316200, -0.30487484, -0.20422919, 0.07596473, 0.08587383, -0.16392058, 0.03207530, 0.25530174, 0.04216388, -0.04848626, 0.24603166, 0.04825518, -0.16202663, -0.08005641, 0.02517595, -0.05926468, -0.01342327, -0.02948581, -0.03585589 },
    { -0.00000440, 0.00003239, -0.00002265, -0.00000596, 0.00001440, -0.00000268, 0.00015916, -0.00001141, -0.00001258, -0.00002576, 0.00000667, -0.00028468, -0.00004779, -0.00012419, -0.00001115, -0.00001336, -0.00001820, 0.00001840, -0.00001764, -0.00000102, 0.00607635, -0.00288947, -0.00852691, -0.00001398, 0.00000015, -0.00127278, 0.00996566, -0.01046765, -0.01385553, -0.00004411, -0.00002758, -0.00162975, 0.01133627, -0.01108808, -0.01498072, -0.00001071 },
    { -0.20115571, 0.05597447, 0.01189473, -0.24786036, 0.02294055, -0.21389584, 0.46487042, -0.13942198, 0.28430325, 0.08775770, 0.00568712, 0.49025065, 0.10897163, 0.01979653, -0.08115840, 0.20543657, -0.00688150, 0.01868728, 0.05593906, -0.11081155, -0.08632772, 0.07945985, 0.08820046, 0.12090775, 0.19689333, 0.12162931, 0.18729445, 0.06634464, 0.03795557, 0.08431208, 0.27267089, 0.06462865, -0.04808668, 0.05220174, 0.10827389, -0.09602354 },
    { 0.22323182, 0.14381751, -0.03153641, 0.18710229, 0.18793280, -0.05851467, -0.55218828, 0.08468694, -0.17965551, -0.13857324, 0.12872933, -0.60693747, 0.37480888, 0.40275404, 0.12148787, 0.21156913, 0.06509577, 0.49496138, 0.29276684, -0.07560452, -0.07530297, 0.03942044, 0.02907968, 0.13986497, 0.38620025, 0.04021663, 0.13635312, 0.21170896, -0.04064827, -0.07410849, 0.15756452, -0.09226144, -0.00440819, -0.04355222, -0.09549271, 0.32995299 },
    { -0.07984252, 0.03793083, 0.19441788, -0.12917374, -0.20234627, -0.00339975, 0.30964401, -0.24801789, 0.12683737, 0.01647350, -0.18445644, 0.14455333, 0.19792157, 0.01537800, -0.08406635, -0.01762305, 0.17757189, 0.10093928, 0.16295339, 0.08405203, 0.03895562, 0.08613889, -0.05415246, -0.18605693, -0.37989277, -0.16765217, -0.03727761, -0.23385993, -0.18204628, -0.17166196, 0.17091338, 0.06070664, 0.11585137, 0.20609921, 0.08868251, 0.44343585 },
    { -0.40175888, 0.03944054, -0.14490202, 0.01677037, 0.23402211, -0.40189552, 0.10849053, -0.03431224, 0.13023049, -0.13409188, 0.00185390, -0.33001325, 0.20878400, 0.24226834, 0.24670359, 0.26266557, 0.14309487, -0.01223559, -0.15050523, 0.13400801, -0.09194347, 0.06816074, -0.06251291, -0.07840370, 0.47799599, 0.09631830, 0.00181182, -0.10157811, 0.15120068, 0.13945135, 0.42052048, -0.16985986, -0.06104305, -0.03757080, -0.08154076, 0.22255015 },
    { -0.06369582, -0.13749811, 0.03055638, -0.05773399, 0.03465925, -0.08679973, 0.09333654, -0.09897564, 0.09521493, 0.04895463, 0.12739480, 0.09854056, -0.08726109, 0.10464326, 0.07005874, -0.07545283, -0.13339196, 0.00035210, -0.14262654, -0.07397492, 0.16257772, 0.00259802, -0.02803499, 0.00513562, -0.00611345, 0.12371658, -0.11707805, -0.18441404, 0.02757549, 0.03780045, -0.18152046, -0.06752958, -0.10409241, -0.21598636, -0.00172960, 0.02815856 },
    { -0.02066026, 0.00326709, 0.10775691, 0.11264897, 0.02354174, -0.19912583, -0.00411808, -0.04855641, -0.15688276, -0.08868547, 0.04702528, -0.00266047, 0.32529929, 0.05495255, 0.16044380, -0.02710122, -0.02940029, 0.07946261, -0.12931271, -0.03319664, 0.01124613, 0.18518749, -0.02327237, 0.11611236, 0.03335365, 0.08459394, -0.02911039, -0.16912988, 0.00924240, -0.13630232, -0.39565679, 0.06989907, -0.10141050, -0.17401479, -0.11495362, -0.37117952 },
    { -0.03523855, -0.27652362, -0.04855678, -0.16999821, -0.24523993, 0.05556697, 0.11608209, 0.16584191, -0.11162139, 0.16065137, 0.09771694, 0.32163709, -1.07779610, -0.07142187, -0.16244034, -0.36981955, -0.16903628, -0.52838522, 0.17766520, 0.21815658, -0.15182745, -0.08474933, -0.08736958, 0.14195956, 0.43792793, -0.14983657, 0.10543391, -0.11202728, 0.02575777, 0.49355268, -0.04797882, -0.02672459, -0.11284204, 0.05793918, 0.10385688, -0.37050986 },
    { 0.06603485, -0.18994503, 0.20547947, 0.08892388, -0.06489790, -0.11270827, -0.00707338, -0.05618320, -0.09314814, -0.29773796, -0.22793089, -0.24009207, -0.08641680, -0.22444052, 0.08036254, 0.02445320, -0.01883267, -0.18357821, 0.12070566, -0.22502585, -0.03996589, 0.11068475, -0.05661598, -0.01404704, -0.20048372, -0.17054848, 0.09282209, 0.12175036, 0.09675647, -0.18194857, -0.17190845, 0.18728259, 0.10343500, 0.00283176, 0.03344406, -0.22017752 },
    { -0.25830841, 0.00938617, 0.11137738, -0.22375304, -0.10112692, -0.22988535, 0.24327247, 0.04184419, 0.03047676, 0.10527804, -0.05218405, 0.36714011, 0.03884785, 0.01050842, 0.15837845, -0.15263060, 0.01589450, 0.10129123, -0.23606077, 0.15018383, 0.02087238, 0.11329249, 0.05788830, -0.06815924, 0.00805845, -0.06591532, -0.14874189, -0.08961966, 0.04386800, -0.16612436, 0.21693636, -0.04906958, 0.12207001, 0.01415229, -0.11418407, -0.16128196 },
    { 0.36789301, -0.14849149, 0.52587348, 0.11782107, -0.15333609, 0.03433408, 0.02760985, -0.10415571, 0.03682935, 0.02534549, -0.04106126, -0.14151552, -0.39416543, 0.15441424, -0.60518235, -0.15268825, 0.26253599, -0.35251284, -0.10788170, -0.11462410, -0.07593137, 0.01188221, -0.03409988, -0.09727116, -0.14361911, 0.16009952, -0.09482855, 0.16501135, -0.01296001, -0.37272659, -0.22672714, -0.14910954, -0.10489937, -0.08810978, -0.06951163, 0.19759341 },
    { -0.00315601, 0.19365321, -0.33195210, 0.09418895, 0.14232507, 0.00837572, 0.04925281, -0.10274550, -0.06580424, -0.17069927, 0.05930327, 0.26633090, 1.04572916, -0.23410225, 0.10868378, 0.35008821, 0.02871267, 0.56837481, -0.25985408, -0.17196603, -0.06095353, -0.17055489, 0.12023187, -0.45929497, -0.44706449, -0.17805034, 0.15728594, -0.06273485, 0.13305449, -0.11710238, 0.18656871, -0.13485220, 0.04782197, -0.05526832, 0.09531870, 0.23147412 },
    { 0.00072697, -0.14262344, 0.27099875, 0.03942095, -0.23532182, -0.01450536, 0.42315981, 0.13717568, 0.04365968, 0.32661730, 0.11882298, 0.43584111, -0.81602806, -0.12260038, -0.34999520, -0.21725629, 0.05388671, -0.52032650, 0.19557403, -0.06525314, -0.07812121, 0.01020332, 0.11762994, -0.15667783, 0.02599242, -0.17803361, -0.14904004, 0.08874754, -0.03162429, -0.03694053, -0.34820005, -0.03680948, 0.06064565, 0.06088596, -0.10851761, 0.04039624 },
    { 0.60640502, -0.04984290, 0.18689966, 0.08059452, 0.08676239, 0.26287460, 0.13846187, 0.01548225, 0.07967322, -0.06173087, 0.04124920, 0.05438298, -0.30991602, 0.02268641, -0.10824547, -0.31207892, -0.09666674, -0.09105936, -0.06352025, -0.05548003, -0.02073731, 0.06187238, 0.10675960, -0.26233470, 0.19970739, 0.05590903, 0.07221337, -0.06815705, -0.06151140, 0.06987684, -0.29240257, 0.15905857, -0.09974015, -0.11986666, 0.01568153, -0.20340733 },
    { 0.51067936, -0.03279042, 0.00287627, 0.08175544, 0.15402178, 0.33580714, -0.39138463, -0.02557972, -0.23562515, -0.08831189, 0.07594295, -0.30308139, -0.05204925, 0.02691079, 0.11530545, -0.25600895, -0.21994667, 0.12161699, 0.18639855, 0.12855859, -0.02305649, -0.09951444, 0.10459081, 0.12813167, -0.12285388, 0.10766747, 0.03918558, -0.16791019, 0.03219033, 0.15149188, -0.07486027, -0.15989122, -0.02459439, 0.15567219, -0.05348771, -0.21300480 },
    { -0.18812983, 0.23121625, -0.62598491, 0.25179049, 0.24448086, -0.02060246, -0.01725732, 0.00144900, -0.20582858, 0.11172014, 0.19408754, -0.01040093, 0.19554424, -0.10195530, 0.56136245, 0.21732017, -0.21312799, 0.00989296, -0.01037631, -0.11967340, 0.24489041, -0.06420115, -0.09749817, 0.17764156, -0.28832230, 0.04664275, 0.06989203, 0.05877909, 0.01907751, 0.10488214, 0.32504597, 0.03563024, -0.04809803, 0.00264335, 0.09774128, -0.17805088 },
    { 0.02585829, 0.01637068, -0.00942578, 0.02552409, 0.01823336, 0.02790929, -0.01009776, 0.00603622, -0.01046433, 0.00614798, 0.00902868, -0.00318229, 0.00335296, 0.00795931, 0.00129309, 0.01652906, 0.01160505, 0.00578143, -0.03225218, 0.02369520, -0.01581516, 0.02516565, 0.02198723, -0.01699418, -0.00173374, 0.01668855, -0.01623401, 0.01733490, 0.01666952, 0.00203223, -0.03370993, 0.02129289, -0.02108330, 0.01287511, 0.01633844, -0.00749988 },
    { 0.00000388, -0.00000383, -0.00000329, -0.00906014, -0.00697888, 0.00000139, 0.00000212, -0.00000526, -0.00000538, -0.00000375, -0.09263503, -0.00000355, -0.01822598, 0.00000698, 0.06224575, -0.11368220, 0.03705580, 0.00000405, -0.09448013, -0.14693926, 0.05862623, -0.06408162, 0.01546887, -0.04582129, -0.06337680, -0.15161483, -0.00782896, 0.14291731, 0.02084062, 0.00003297, 0.00000089, -0.07964519, -0.05366468, 0.08147226, -0.14114441, 0.00000833 },
    { 0.00000705, -0.00000373, -0.00000788, -0.00000981, 0.00000807, 0.00002115, 0.00000793, -0.00001601, -0.00000885, -0.00000497, 0.00000712, 0.00000393, 0.00010543, -0.00002138, -0.00004473, 0.00000991, 0.00000422, 0.00000449, 0.00000008, -0.01880208, 0.03527996, -0.03212282, -0.03748666, -0.00002791, 0.00000309, -0.00848516, 0.02333193, -0.02184348, -0.02560049, 0.00003881, -0.00001512, -0.01858075, 0.02406493, -0.02422415, -0.02782549, -0.00001144 },
    { -0.00007993, -0.00007397, -0.00004230, 0.00000343, -0.00001234, 0.00012788, 0.00024014, -0.00000296, 0.00001378, -0.00009443, 0.00000749, -0.00005018, -0.00004844, -0.00003783, 0.00000911, -0.00000768, -0.00000254, 0.00006575, 0.00001979, 0.00002981, 0.00091356, 0.08869272, -0.00008362, 0.00006729, -0.00007395, 0.00000289, 0.00000434, -0.03150925, -0.07905190, 0.00002274, -0.00005701, 0.00000918, -0.00001489, -0.00000006, -0.05931464, 0.00043128 },
    { 0.26104784, -0.04213699, 0.78655350, -0.14992261, -0.39568684, 0.19831014, 0.25548610, -0.21392092, 0.39317802, -0.11923331, -0.39274475, -0.04153885, 0.23219110, 0.00911609, 0.21542054, 0.05402379, -0.18930966, 0.06324089, 0.27795494, 0.11167078, -0.02838518, 0.02672668, 0.00598935, -0.06988899, -0.02011810, 0.13001920, -0.09590217, 0.02666651, -0.14724343, -0.15390036, 0.18126978, 0.15820132, 0.05535750, 0.16331133, 0.00814976, 0.29893643 },
    { -0.31080005, 0.24540137, 0.01247014, 0.05243624, 0.09975863, -0.18326536, -0.37153485, -0.12456471, 0.02447219, -0.11856429, -0.11589437, -0.32691544, 0.00250855, 0.04883702, 0.10073351, 0.20826581, 0.10585696, -0.10583156, -0.12066186, -0.15724231, -0.12836972, 0.08019838, 0.10541891, 0.07552306, 0.13066389, -0.03527224, -0.17941305, -0.16987437, -0.14752361, -0.09030343, 0.48230660, 0.02676209, 0.08047985, 0.05200065, -0.10754751, 0.25605440 },
    { -0.01895880, -0.00747401, 0.01407951, -0.01588549, -0.01695936, -0.01785337, 0.00510074, -0.00467767, 0.00094890, -0.01063293, -0.00713992, 0.00002211, -0.00709467, -0.00015462, 0.02184845, -0.00743974, -0.01557368, -0.00598930, 0.00000577, -0.01459760, -0.07797542, -0.02869852, -0.09122977, -0.01401148, 0.02999316, -0.04407062, 0.05401352, 0.01857094, 0.02957346, -0.00000048, 0.01878357, -0.00403293, -0.05614513, -0.00009092, -0.09603053, 0.04222414 },
    { -0.04681576, 0.08816878, -0.02167088, -0.23504259, -0.15205671, 0.03263185, 0.49157366, -0.05597210, 0.16366929, 0.42705682, 0.02814383, -0.14507455, -0.25242636, 0.11180489, -0.11126475, 0.22839440, 0.11725896, -0.02174621, -0.25439054, -0.24448176, -0.06393859, -0.12645471, 0.00414128, 0.06844684, -0.24384752, 0.04972933, -0.13657442, -0.05727578, -0.00620297, 0.01379088, -0.49698636, 0.18549407, 0.11427759, -0.11268240, 0.08796960, -0.54333770 },
    { 0.57219124, -0.11104704, 0.20885633, 0.05620873, 0.05828302, 0.61144799, -0.04533899, -0.01069775, -0.01171985, -0.23319724, 0.02543256, 0.04065969, 0.11329924, -0.16952509, 0.25367802, -0.40225685, -0.32600692, 0.23876347, -0.06321772, -0.02873390, -0.01376833, 0.08912166, -0.08098548, 0.01531069, 0.00972535, -0.17656653, 0.08123875, -0.13620026, 0.10961241, 0.05102134, 0.25967124, 0.08991019, -0.10499655, 0.08039249, -0.01504623, 0.24446858 },
    { -0.00000081, 0.00000287, -0.00000496, 0.00000165, 0.00000076, 0.00000278, -0.00000830, -0.00000078, 0.00000730, -0.00583508, -0.01084412, -0.00000347, -0.00001153, -0.00000455, 0.00147774, 0.00000016, -0.00708462, 0.00002062, -0.00885824, -0.02409463, 0.02167943, -0.02702619, -0.02466965, 0.00007664, 0.01846805, -0.01911518, 0.02062373, -0.02224541, -0.02191053, -0.00000619, -0.00000100, -0.01450509, 0.01415801, -0.01618830, -0.01550481, -0.00000142 },
    { -0.30596340, -0.06812696, -0.04298180, -0.06207292, -0.01792030, -0.14295264, 0.01453725, 0.04038177, 0.14497556, 0.31512696, 0.09767438, -0.10733367, -0.64667547, -0.18830642, -0.05716685, -0.12592274, -0.09256318, -0.48181108, -0.37285218, -0.10244309, 0.10257541, -0.04730178, -0.03864892, 0.00785219, -0.10933461, -0.09212031, -0.03392453, -0.20037405, -0.01910715, -0.12039678, 0.03860502, -0.08888298, -0.01026527, 0.16791947, 0.13964804, 0.32582512 },
    { 0.54174304, 0.12169819, -0.15522350, 0.47226471, 0.10945271, 0.47737217, -0.25970620, 0.11936711, -0.09840504, -0.14710490, -0.11894313, -0.02868387, 0.33164877, 0.05812734, 0.18948817, -0.04436589, 0.09718932, 0.30600679, -0.32557696, 0.07743635, -0.11276563, -0.03413327, -0.00819916, -0.13759695, -0.09644743, -0.04772408, 0.12785274, 0.10512696, -0.01102026, 0.17852569, 0.39241377, 0.09433886, -0.12045944, -0.03993541, 0.01994257, 0.07517622 },
    { -0.00018765, 0.00007409, -0.00017640, 0.00009156, 0.00001026, -0.00012849, -0.00011971, 0.00026293, 0.00004136, 0.00007347, -0.00007187, -0.00017521, -0.00002203, -0.00011670, -0.00004586, -0.00008049, -0.00004334, -0.00005763, -0.00015408, -0.00003098, 0.00000356, -0.00000114, 0.00000606, 0.00005579, -0.00005213, -0.00001040, -0.00000373, -0.00000175, -0.01095711, 0.00004839, 0.00004030, -0.00000596, 0.00622294, -0.00000117, -0.01268238, 0.00002823 },
    { -0.59081227, -0.20404738, 0.05888147, -0.32397687, -0.28747410, -0.39840242, 0.07567330, 0.16700663, -0.03697930, 0.01808001, -0.16230413, 0.13537735, 0.09137995, 0.05617137, 0.27311742, 0.03647463, -0.05451880, -0.04681343, -0.11547216, 0.07604671, -0.14555460, -0.00262173, -0.10378782, 0.24929981, 0.20521535, -0.10700783, -0.08002926, 0.09185313, 0.04471794, -0.07939580, 0.71657413, 0.11142243, -0.04266352, 0.06737465, -0.06064947, 0.40298352 },
    { 0.17092955, -0.01702428, -0.35931313, -0.04481885, 0.15289024, 0.24466124, -0.23647662, 0.11818124, -0.23931463, 0.11395402, 0.15703312, -0.01040025, -0.33009723, -0.26629624, 0.13659209, -0.21064521, -0.29360694, -0.18427108, -0.08264743, 0.00877313, 0.05277151, 0.05030106, 0.01739531, 0.02334974, -0.12074798, -0.17108269, -0.02208336, -0.09534455, -0.00403254, -0.26676902, -0.11434021, 0.00859046, 0.12944765, 0.07950302, 0.09195523, -0.06863569 },
    { 0.00003397, 0.00004191, 0.00006028, -0.00012458, -0.00001260, 0.00003471, 0.00001025, 0.00008181, -0.00004795, -0.00005822, -0.00000931, -0.00003475, 0.00005856, 0.00004285, -0.00003440, 0.00001496, -0.00001156, -0.00011271, -0.00000082, -0.00000590, 0.00000393, -0.00000160, 0.00000051, 0.00010353, 0.00002517, -0.00000816, 0.00000203, -0.00000167, -0.00686636, 0.00006265, -0.00001299, -0.00000286, -0.00000089, -0.00000168, -0.00000329, -0.00003053 },
    { -0.14065921, 0.14090036, 0.11890675, -0.01769298, -0.02723984, -0.03938351, 0.15900753, 0.32717907, -0.07308374, 0.49808902, 0.43285334, 0.20590124, -0.65320927, -0.03683114, -0.03726496, 0.04043378, 0.14158908, -0.28886622, -0.18434462, 0.16588673, -0.02525155, 0.05470290, -0.15574645, -0.20237127, -0.25517359, -0.08660600, 0.09820024, -0.05529182, 0.01260724, 0.13600706, -0.23081514, 0.11980001, -0.07322194, -0.06947626, 0.12159822, -0.00406446 },
    { -0.36809486, 0.12451143, -0.53219044, 0.26217756, 0.35380486, -0.37602314, -0.26388121, 0.02943612, -0.20560801, -0.08320892, 0.11843394, -0.64784646, 0.75752264, -0.19367386, 0.06443324, 0.39814678, -0.00912797, 0.47558966, -0.09299003, -0.03624951, -0.03522977, -0.07945835, 0.01211862, 0.18453255, 0.21396375, -0.12721875, -0.09145371, 0.09703473, -0.04101601, -0.29548913, 0.25027633, -0.10694081, -0.09762871, -0.00387825, 0.00418169, 0.22305231 },
    { 0.29540408, 0.00526685, 0.17201081, 0.17561643, 0.11507367, 0.11786698, -0.21178049, 0.04128184, -0.05077988, -0.04818188, -0.03028457, -0.22645377, -0.12263244, 0.12885942, -0.16723672, -0.01315660, -0.07181231, -0.08986738, -0.20780317, 0.10023172, 0.03692231, 0.10994758, 0.08937263, 0.01767408, 0.08563247, 0.07777133, 0.12125975, -0.00444739, -0.12374891, 0.23359126, 0.33891153, -0.17223576, 0.08063001, 0.05058084, -0.08118836, 0.26585683 }
};

static const float layer_0_bias[64] = { -0.11055022, -0.00007052, 0.00014101, -0.17209783, 0.00014180, 0.01488873, 0.00345329, -0.18908146, -0.26908898, -0.00001806, 0.08732663, 0.07959935, 0.00006409, -0.09521999, 0.00000693, 0.00004132, 0.00673639, -0.01120168, -0.12404246, 0.05946252, -0.00005571, -0.21835668, 0.00011297, -0.16887610, 0.00006246, 0.00017456, -0.05789150, -0.00003671, 0.00467613, 0.00020713, -0.37362185, 0.40563041, -0.00481790, 0.02083020, 0.00019861, 0.01618997, -0.04579341, 0.13096656, -0.08752220, 0.00896211, 0.17793028, -0.13158609, 0.09397328, 0.10165519, 0.20286335, 0.01254468, -0.00004097, 0.00003787, 0.00006935, 0.08933691, 0.05468002, 0.00001652, -0.03474369, 0.11619418, -0.00002923, -0.06557328, 0.15199187, -0.00020120, -0.10407351, 0.08258037, 0.00006614, -0.00962265, 0.12890965, 0.03434239 };

static const float layer_1_weight[64][64] = {
    { 0.04188400, 0.01269671, -0.00004334, -0.06055940, -0.00000710, 0.09753443, 0.03430725, 0.02765210, -0.06647836, -0.06575375, 0.02405267, 0.08427901, -0.00000112, 0.04102084, 0.00146496, 0.00204942, 0.09481625, 0.11953252, 0.08419286, 0.07976267, 0.00000037, -0.01171715, -0.00000615, -0.02473857, 0.00000065, -0.07010216, 0.06246978, -0.02989862, -0.06571516, 0.01117365, -0.00917224, -0.01562556, -0.08030746, -0.10752565, -0.04638285, -0.21618263, 0.09097555, -0.03507482, -0.08675263, 0.01411475, -0.11513603, 0.03337692, 0.00485751, 0.14050364, 0.13301960, 0.04162196, -0.04782863, -0.02618554, -0.00000573, -0.02653532, -0.01935037, -0.03896934, -0.03052775, 0.09228661, -0.01052071, -0.02650622, -0.02284898, -0.00476177, 0.02087647, 0.06703853, 0.00000112, -0.00056055, -0.08928512, 0.05913012 },
    { -0.13124864, 0.00000042, -0.00003522, -0.04239065, 0.00009095, -0.00773358, -0.07134645, 0.05273731, 0.10512437, 0.07593454, -0.01856783, 0.18836688, 0.00000284, -0.01824444, -0.00022236, 0.00299985, -0.13856871, -0.08037877, -0.04452276, 0.07950234, 0.00000698, -0.04024541, -0.00000592, 0.19235082, 0.02244567, 0.07745989, -0.02822646, 0.00000015, 0.19414002, 0.01299873, 0.04571986, 0.18980496, -0.03968196, -0.07604658, 0.21255286, 0.25461975, -0.07144453, -0.08767583, -0.08159796, -0.07876113, 0.18717924, 0.06902342, 0.08663654, 0.08286857, 0.06330575, -0.04117648, -0.07305522, -0.00308974, 0.00000445, -0.10387143, 0.03257712, 0.01851833, -0.00234656, -0.10582678, -0.00939300, 0.07339857, 0.11386913, -0.00000709, -0.13224952, 0.13865483, 0.00001617, 0.09700367, 0.08153894, 0.01046171 },
    { -0.01478257, -0.00042152, -0.00013100, -0.01133805, -0.00013023, -0.01318164, 0.00000027, -0.00752185, -0.00359332, 0.00006566, 0.00000440, 0.00000285, -0.00007076, -0.00976252, -0.00020250, 0.00042169, 0.00000020, -0.00625691, -0.01263847, 0.00000120, -0.00013031, -0.00194644, 0.00008928, 0.00000710, 0.00001573, -0.00006504, 0.00000324, 0.00006422, 0.00000022, 0.00013096, -0.01398244, -0.00000936, 0.00002248, -0.00391076, 0.00027680, 0.00000929, 0.00000173, -0.00336347, -0.00000085, 0.00000024, -0.00479176, 0.00000042, 0.00000362, 0.00000038, 0.00000517, 0.00007449, 0.00012201, -0.00025877, 0.00011414, -0.00000322, 0.00000604, 0.00006663, -0.00000043, -0.01367431, 0.00004967, -0.00792592, -0.00000017, 0.00001356, -0.00917812, 0.00000472, -0.00024099, -0.01122158, -0.01298406, 0.00003787 },
    { -0.02611963, 0.05636500, 0.00005126, 0.03180167, 0.00000172, -0.12013851, 0.16626668, 0.03309317, 0.01343189, 0.11547346, 0.16074656, 0.01178904, -0.00000844, 0.05535718, -0.01856879, -0.00049390, -0.11162367, 0.02600259, -0.01440492, 0.07526068, 0.00000030, 0.04800951, -0.00000680, -0.09245469, -0.00645838, 0.00293891, -0.07447078, 0.00000584, -0.09998393, 0.00069691, 0.09809507, -0.04911302, -0.16145214, 0.11488976, 0.08059054, 0.09673177, -0.11060707, -0.03542175, -0.11171017, -0.15969330, 0.01391909, 0.01457456, -0.00960635, -0.08362322, 0.14085007, -0.01321163, 0.08411305, 0.02221040, 0.00000359, 0.09393468, 0.00960585, 0.00432795, -0.03252073, 0.13068414, 0.01010706, -0.05699340, 0.04392986, 0.00674589, 0.07070871, -0.14733401, -0.00000528, 0.14270400, -0.06392994, -0.03827394 },
    { -0.06395378, -0.00964227, 0.00000470, -0.09749261, -0.00003494, 0.02022411, 0.01629522, 0.01966939, -0.05651210, -0.13601394, -0.13474950, -0.03387622, -0.00000158, 0.09042990, 0.01352543, -0.00641719, 0.05713207, 0.01130043, -0.00682095, 0.06856581, -0.00000612, -0.10103437, -0.00000264, -0.02118587, -0.00000276, 0.06258368, 0.14781390, 0.00000066, -0.22966647, -0.00953837, 0.05462884, -0.04548199, -0.02886758, -0.11251798, -0.09191071, 0.08677103, 0.13727865, 0.04022057, -0.12236500, -0.03187626, -0.07927664, 0.11883700, 0.13353767, -0.07969835, -0.14951915, 0.04237968, -0.03456505, -0.00000089, 0.00001020, 0.02360876, 0.04861665, -0.04812853, -0.20602088, 0.04079018, -0.00391577, 0.09837924, 0.13457985, -0.01296400, 0.03316252, 0.01272001, -0.00001033, 0.00599267, -0.10552240, -0.16071296 },
    { 0.03542544, 0.09469874, -0.00008248, -0.11391900, -0.00002190, 0.06911633, -0.10294419, 0.09896699, 0.01245359, -0.15035862, -0.03779687, -0.03771239, 0.00000204, 0.01310894, 0.00559081, 0.00916784, -0.00544943, 0.04449086, 0.05978927, -0.10489880, -0.00000105, -0.00144979, 0.00000209, -0.11714204, 0.00000018, 0.00975408, 0.02993579, 0.00000108, -0.05855032, 0.00620533, 0.03085734, -0.09596283, -0.10322734, 0.06595260, 0.05928987, 0.02434287, 0.05248567, -0.03767413, -0.07781366, -0.05084144, -0.03910276, -0.08698051, 0.06668802, 0.09374546, 0.20788738, 0.00254338, -0.00888961, -0.03425615, 0.00008928, -0.02662237, 0.05005793, -0.03926393, -0.03562785, 0.09796286, -0.00996409, -0.11635854, 0.11135282, -0.00000069, -0.03829876, 0.11040963, 0.00000959, -0.00666606, 0.10026056, -0.12533692 },
    { -0.00000118, -0.00013101, -0.00021781, -0.00000225, -0.00000196, -0.00000040, 0.00000263, -0.02159256, -0.00000624, -0.00002823, 0.00000219, 0.00000119, -0.00023840, 0.00000301, -0.00006727, 0.00004967, 0.00001076, -0.00000479, -0.00000017, -0.01272630, 0.00013031, -0.00328200, 0.00047940, 0.00000756, 0.00007642, 0.00014121, 0.00000331, -0.00013025, -0.00000763, -0.00005003, -0.02500529, 0.00000674, 0.00003207, -0.02639873, -0.00024929, 0.00006716, -0.00000528, 0.00000240, 0.00000048, 0.00000276, 0.00726215, 0.00000027, -0.03730296, -0.01005964, -0.00001949, -0.00024648, 0.00021769, 0.00019598, -0.00007641, 0.00000445, 0.00000159, 0.00007447, 0.00001003, -0.00937083, -0.00042169, -0.00001715, -0.01866593, 0.00008927, -0.04478837, 0.00000004, 0.00021780, 0.00000050, -0.01585202, -0.00002153 },
    { 0.10097896, 0.07029538, 0.00010795, -0.06560936, 0.00004600, 0.06996477, 0.05559034, -0.06658389, -0.05610561, -0.03370213, -0.01235143, 0.01123489, 0.00005519, -0.00433740, 0.00004140, -0.00000338, 0.08342542, 0.04669047, -0.03552343, 0.05254116, 0.00000451, -0.02962849, 0.00005334, 0.02691500, -0.00012591, -0.11289771, -0.06131791, -0.00021774, -0.01612578, 0.00025018, -0.09021973, -0.00717541, -0.06113776, 0.01599686, -0.00448532, 0.01036485, 0.09152227, -0.05691973, 0.09833996, 0.05827474, -0.13767017, -0.12079936, 0.05744536, -0.06780523, 0.04343460, 0.02022942, -0.07845250, -0.00010236, 0.00000293, -0.04010610, 0.10280537, 0.02630124, 0.05762558, 0.02230196, 0.00001914, -0.07340588, -0.12111191, 0.00007316, 0.05773909, 0.01420277, -0.00018270, -0.02501570, -0.13207409, -0.00955478 },
    { 0.08314939, 0.00006730, -0.00006537, -0.09432296, -0.00016374, -0.13581106, 0.02906023, 0.06551360, -0.07805075, -0.00123552, -0.06945843, -0.16563837, -0.00000287, 0.00150966, -0.03297608, 0.00051887, -0.04697786, -0.04114242, -0.11443576, -0.05012896, 0.00000822, -0.08121631, 0.00001540, 0.16686636, -0.00000687, 0.08173913, 0.08032312, -0.00021778, 0.30060804, 0.00000088, -0.09349478, -0.01094733, -0.03352012, -0.05195313, 0.03460566, 0.06837343, -0.02655157, -0.22029334, -0.24370471, 0.18600404, -0.03960754, -0.14540836, 0.03196365, -0.09729868, 0.20389703, -0.02055408, -0.00013573, 0.00000109, 0.00007642, -0.30412179, 0.04313394, 0.02197371, 0.08720107, 0.07468896, 0.02615312, 0.06793148, -0.02724187, 0.00827179, -0.01674919, -0.12222815, 0.00002457, 0.14963864, -0.01526626, -0.00000309 },
    { -0.00629684, 0.00019594, 0.00014646, 0.00001084, -0.00021780, -0.00417121, 0.00000003, -0.00067247, -0.00000899, -0.00013123, 0.00001375, -0.00001762, -0.00011412, 0.00000554, -0.00011412, 0.00021782, -0.00001133, -0.00000525, -0.00000954, 0.00000225, 0.00008923, -0.00000361, 0.00013031, -0.00238604, 0.00024955, 0.00013017, -0.00000382, 0.00019598, -0.00005723, 0.00005606, -0.01322269, 0.00001480, -0.00006748, -0.00000261, -0.00025831, 0.00004556, -0.00384019, 0.00000282, -0.00001241, 0.00001035, -0.00934623, 0.00000123, -0.00698464, -0.00130642, -0.00003619, -0.00008928, -0.00006729, 0.00006730, -0.00006728, -0.00000077, -0.00003006, -0.00006516, 0.00001122, -0.00000558, 0.00007643, 0.00018234, -0.01241523, -0.00000806, -0.00000095, 0.00000373, -0.00021781, -0.00041777, -0.00718043, -0.00003491 },
    { -0.08934025, 0.03856501, -0.00033278, 0.06163694, -0.00001910, 0.03742825, 0.00090914, 0.11076906, -0.00772507, -0.01080954, 0.13688858, 0.05525531, -0.00000165, -0.13044207, -0.05032194, -0.00541967, 0.00898517, 0.05575903, 0.03418166, 0.02797586, 0.00000472, -0.04617365, -0.00000940, -0.08061273, -0.01123246, 0.05523890, 0.14726663, 0.00000006, -0.19724762, 0.00142267, -0.05501742, -0.13569954, -0.15417923, 0.09991032, 0.11090266, 0.05735034, 0.08016055, 0.04081239, 0.04534569, -0.11499982, -0.14363943, 0.06327887, 0.01563751, 0.06265228, 0.05162395, 0.05955981, -0.00014506, 0.00000049, 0.00000999, 0.12954931, 0.04322241, -0.05352268, 0.06046601, -0.07676958, 0.00266235, 0.04909892, -0.05916186, 0.00000499, 0.13337457, -0.03937432, -0.00001263, -0.14609881, 0.09690788, 0.01812584 },
    { 0.05282634, 0.05733548, 0.00002870, -0.11827349, 0.00004829, -0.08194606, 0.05949864, 0.00693667, 0.09705188, 0.12240859, -0.21868889, -0.05230392, -0.00000495, 0.10170737, 0.03222188, -0.01245339, 0.08970214, -0.01719775, 0.05899907, 0.09603935, -0.00000073, -0.15155566, -0.00000486, 0.05067623, -0.00467608, -0.11774211, -0.08869059, -0.02553374, -0.12894093, 0.00000042, 0.07051822, 0.23961766, 0.04640630, 0.12805787, -0.14575714, -0.02573367, -0.10559185, 0.06396835, 0.09597594, 0.13401914, -0.04523236, -0.08662990, 0.00565621, 0.08339425, -0.22979158, 0.00946630, 0.06242739, -0.00416896, -0.00000032, 0.06145313, -0.10243452, 0.02327444, -0.12433964, -0.02363009, 0.01228187, 0.06734300, -0.08053846, -0.00000011, -0.06648026, -0.03971061, -0.00000181, -0.03354391, 0.06914604, -0.01277351 },
    { -0.07888260, 0.07968170, -0.00019600, -0.12748832, -0.00000371, 0.09128217, 0.00380916, 0.01960551, -0.09281527, -0.00000081, 0.00662770, 0.07247183, 0.00006082, 0.09590735, -0.00004508, -0.00000166, -0.05073373, -0.05286055, -0.08509346, -0.06649354, 0.00002041, 0.01948681, -0.00021780, 0.01067684, -0.00013030, 0.00008924, -0.06565294, 0.00010397, -0.09124749, 0.00013028, -0.10994159, -0.00561654, 0.00014130, -0.02806716, 0.01813762, -0.02094376, 0.00629808, 0.07116877, -0.09939820, 0.09185453, -0.07799080, 0.06493956, 0.06402066, 0.08489177, -0.01669732, 0.01661757, 0.03835887, 0.00013023, -0.00013095, 0.03239595, 0.01167157, 0.02253455, 0.04067982, 0.06705929, -0.00000226, 0.03650593, 0.08781924, -0.00006727, 0.00960379, -0.01517719, -0.00028731, -0.06720679, -0.09510719, 0.01431888 },
    { 0.11945864, 0.05247429, -0.00001261, -0.05262145, 0.00001166, -0.03233160, -0.05870027, 0.01973440, 0.03406503, -0.01503258, 0.00710719, -0.08761708, -0.00000053, 0.08818341, -0.00581134, 0.01010814, 0.07504830, -0.02202813, 0.10202888, 0.03759721, 0.01869452, 0.10043154, -0.00001359, 0.02655669, -0.01035589, -0.08984377, 0.14368701, -0.00000014, 0.11075950, -0.00573967, -0.11423612, 0.15650924, -0.10827998, -0.14352946, -0.05097664, 0.02843012, -0.01525935, 0.08111823, -0.02303567, 0.03770550, -0.02672568, 0.07987202, -0.00772165, 0.07786362, 0.12327803, 0.01171383, 0.06054417, 0.02864903, -0.00004181, -0.05618433, -0.13099146, -0.04142369, -0.02147003, 0.05286377, -0.00556901, -0.01642025, -0.06656007, 0.00000214, -0.03395436, 0.14733195, 0.00000408, 0.12547149, 0.01682199, 0.06465910 },
    { 0.09396849, -0.00001175, -0.00004898, -0.10073675, 0.00002832, -0.08486436, -0.08860305, -0.00077097, -0.01899142, 0.00000307, 0.04639069, -0.04036629, 0.00000192, -0.05748646, 0.02605295, 0.03679794, -0.09387445, -0.04881675, -0.10928790, -0.01931680, 0.00000117, -0.03066000, -0.00005220, -0.04534980, -0.00000719, 0.00406279, 0.15194647, -0.00013100, 0.13194786, 0.00000579, -0.02337323, -0.13207580, 0.01470862, -0.08653574, 0.09217972, 0.16812062, -0.00317346, 0.09942333, 0.00334197, -0.04382440, 0.14680390, -0.11829678, -0.03621686, -0.02036635, 0.07803702, -0.07908905, 0.00000083, -0.00000035, -0.00018262, -0.18078876, 0.05035631, 0.00901901, -0.07624147, -0.00189171, 0.03207292, 0.04516469, 0.12735434, -0.00001812, 0.06901401, 0.00280691, 0.00002581, 0.05304224, 0.10375427, -0.02344840 },
    { -0.02093498, -0.00013091, 0.00001175, -0.01605862, 0.00019598, -0.00374096, -0.01413056, -0.00000001, -0.00346327, 0.00000225, 0.00000051, -0.00000070, 0.00012241, -0.01262960, 0.00002824, -0.00012636, -0.01207351, 0.00000078, -0.00884910, 0.00615838, 0.00001173, -0.01009813, 0.00021781, -0.01931759, 0.00000806, -0.00012735, -0.00072193, 0.00013054, 0.00000063, 0.00010274, -0.01349760, -0.00000096, 0.00005955, -0.00212764, -0.00001543, -0.00000267, -0.01868677, 0.00000032, 0.00483576, 0.00000030, -0.00406852, 0.00819639, -0.00000036, 0.00000029, 0.00000540, 0.00005516, -0.00002269, -0.00007640, 0.00021778, -0.01026372, -0.00000150, -0.00007434, -0.00000034, -0.01605926, -0.00004965, -0.01521774, -0.00886657, -0.00005909, -0.01387892, 0.00000036, -0.00004146, -0.01812170, -0.01352677, 0.00001938 },
    { 0.05147788, 0.02407822, -0.00003409, 0.08386470, 0.00000489, -0.02546280, -0.03317571, -0.07332024, 0.11801957, 0.10321052, 0.16155995, -0.04093197, 0.00000003, 0.05903549, -0.02430896, 0.00905917, 0.11668915, 0.09986084, 0.04133917, 0.08373425, 0.00001257, 0.06167661, 0.00000440, -0.11100526, 0.00000050, 0.01033918, -0.00990516, 0.01688108, -0.00066772, 0.00594883, 0.10558608, -0.07837531, 0.05219506, 0.06145989, -0.09349620, 0.02294266, -0.00233486, 0.01989513, 0.05561149, 0.15106829, -0.16417295, -0.01238375, 0.02426808, -0.07528181, 0.05226728, 0.01513996, -0.12388061, 0.00000006, 0.00001033, 0.07764354, -0.06829663, -0.01211451, 0.04413583, -0.03370792, 0.01934457, 0.12379579, -0.12010775, -0.00000678, -0.02788955, -0.15043792, 0.00000173, -0.00345965, -0.10568802, -0.12228667 },
    { -0.02332779, 0.00016383, 0.00008926, -0.05723338, 0.00004983, 0.03082524, -0.01796061, -0.09711415, -0.09267098, -0.00298186, 0.05708678, -0.05523273, -0.00013030, -0.00776791, 0.00013100, 0.00007643, -0.03392093, -0.00469605, 0.01721685, -0.08908687, 0.00006810, 0.05752589, -0.00013101, -0.03208126, -0.00019595, -0.00013025, -0.01162878, 0.00002276, 0.04674906, -0.00011414, 0.01154263, -0.00000433, 0.00002010, 0.04170858, 0.00003261, 0.00000099, -0.03713585, 0.02735578, -0.03224417, -0.04586117, -0.05342728, -0.07154971, -0.07225629, 0.05165307, 0.03349548, -0.00019601, -0.00012947, -0.00007643, 0.00000701, -0.10118780, 0.06691896, 0.00005314, -0.02009404, -0.04342397, -0.00000140, -0.00836365, -0.13292384, -0.00002280, -0.02177705, -0.00248596, 0.00002989, -0.04820483, -0.13837007, 0.07584387 },
    { -0.02760675, 0.00013098, -0.00010795, -0.08790801, -0.00002340, -0.13181990, -0.02956431, 0.06096205, -0.01641961, -0.00000102, 0.05937542, 0.01915601, 0.00024643, -0.05664046, 0.00018598, -0.00001175, 0.00329149, -0.06826580, 0.01377268, 0.00383334, 0.00005066, 0.00895649, -0.00043118, 0.00170001, 0.00033281, -0.00008921, -0.11665994, -0.00005172, -0.01269200, -0.00011034, -0.03791608, -0.11863382, 0.00018259, -0.00725782, -0.02941387, -0.03079784, 0.04045076, 0.03278124, -0.08417755, 0.04615096, 0.06546620, -0.01968490, 0.00954381, -0.08724757, 0.00000123, 0.00013021, -0.00000970, -0.00013387, -0.00004601, -0.12155064, 0.05360794, -0.00000081, -0.00536644, -0.08768313, -0.00013121, -0.00014661, -0.12053126, 0.00033280, 0.02305740, 0.00008822, 0.00031160, -0.06007968, -0.07817441, -0.07105740 },
    { -0.10682381, -0.00000209, 0.00004052, 0.07526254, 0.00000577, -0.01904424, 0.11120308, 0.12230241, 0.10777701, 0.02281086, -0.02717612, -0.08179738, -0.00000254, 0.10865595, 0.03652833, -0.00929288, -0.01022928, -0.05600156, 0.13633999, 0.07483120, -0.02515799, 0.00402359, -0.00002037, 0.11354441, -0.01444484, 0.00051203, -0.06022225, -0.00000272, 0.01019910, -0.01355329, 0.03473222, -0.18061985, 0.01357675, -0.11237723, -0.03440823, 0.20802395, -0.07567378, -0.00904718, 0.00371308, -0.02362830, 0.06379345, -0.09017488, -0.08045927, -0.07377882, 0.12386479, 0.02632440, -0.00000012, 0.03459824, 0.00000164, 0.16945279, -0.17148326, 0.03046555, -0.02788858, -0.05567661, 0.01502617, -0.03708506, -0.01804733, 0.00359092, 0.14229038, -0.06028046, -0.00000611, 0.00720650, -0.12632889, 0.04390999 },
    { 0.00573660, -0.01358306, 0.00010609, 0.04174929, -0.00000028, -0.04754550, -0.03009812, 0.10858645, -0.09255785, 0.00345279, -0.05854243, -0.13675107, -0.00000195, -0.11228070, -0.02187518, -0.00594366, 0.17788737, 0.07075468, 0.03247863, -0.08255949, 0.00000089, 0.08214103, 0.00006825, -0.10138666, 0.01225087, 0.02356751, -0.01949527, 0.04299506, -0.05860383, -0.01100012, 0.11990592, -0.23047705, -0.01893518, -0.12316281, 0.11344860, -0.09019176, 0.09585455, -0.11388212, 0.06722774, 0.10487244, 0.07568040, 0.10494711, 0.10556846, -0.04675980, -0.06746114, 0.02169899, -0.11564501, 0.02933011, 0.00000082, 0.08628433, -0.19287555, -0.00056346, -0.00620417, -0.00348545, 0.00351698, -0.09765136, 0.07744733, -0.02217718, 0.03499361, -0.06707144, 0.00000054, 0.08650077, -0.13367367, -0.12624601 },
    { -0.06905499, -0.00000368, 0.00003607, -0.06731361, 0.00005271, -0.01179979, -0.12810259, -0.00840157, -0.01828399, -0.07516408, -0.01459085, 0.03411298, -0.00006623, 0.05287814, -0.02481120, -0.00006425, -0.05427712, -0.12688005, -0.06638481, -0.07204872, -0.00002892, -0.06194279, 0.00012671, 0.09833097, -0.00010680, -0.07341769, -0.11497634, -0.00006730, 0.08589764, -0.00001222, -0.03895399, -0.01826734, -0.04282876, 0.02432492, 0.03505011, -0.06982039, 0.03194421, 0.06165314, 0.05112236, -0.07003530, 0.08767154, -0.11121891, 0.05124691, -0.13740325, -0.01610281, -0.00840709, 0.08199950, -0.00001130, -0.00010788, -0.02720279, -0.00004602, -0.06007159, 0.00063481, -0.12056463, -0.00020715, 0.05656751, -0.04019857, 0.00008844, -0.01167379, -0.06532194, 0.00007636, 0.09701275, 0.01232623, -0.00024647 },
    { -0.01278411, -0.00008925, 0.00004982, -0.01024353, 0.00021772, -0.02299786, 0.00000042, -0.01511388, -0.00510552, 0.00017630, -0.00000016, -0.00553967, 0.00001711, -0.01058455, 0.00002281, -0.00013030, -0.00000089, -0.01718043, -0.02294316, 0.00000072, 0.00006696, -0.00000043, -0.00028795, -0.00414318, -0.00007640, 0.00014130, 0.00000088, -0.00007955, 0.00000218, -0.00005911, -0.01468917, -0.00000576, 0.00005609, -0.01971867, -0.00012596, -0.00001137, -0.00467887, -0.00786745, -0.01095661, -0.01645853, -0.00587743, -0.00852128, -0.00000075, -0.00558825, 0.00000293, 0.00003048, -0.00017647, -0.00004601, 0.00024371, 0.00000021, 0.00336400, 0.00013008, -0.00735641, -0.01434671, -0.00021782, -0.00000112, -0.00292984, 0.00006728, -0.01629988, 0.00000512, -0.00013030, -0.01047957, -0.01726044, -0.00007375 },
    { -0.00479046, 0.00010792, -0.00009099, -0.00769314, -0.00007642, -0.02534826, -0.00000083, -0.01754026, -0.00083491, 0.00007913, -0.00000230, -0.00410045, -0.00004602, 0.00000335, 0.00042172, 0.00024944, 0.00000350, -0.01531310, -0.01702791, -0.01874567, 0.00017812, -0.00000050, 0.00003712, -0.00000160, -0.00008927, 0.00009337, -0.00000024, -0.00013091, 0.00002797, 0.00012584, -0.01970978, -0.00001677, -0.00011985, -0.01173138, 0.00005128, -0.00014107, -0.00000145, -0.01239647, -0.01045942, -0.00116069, -0.00758880, -0.01105792, 0.00000086, -0.00866098, -0.00000071, 0.00006082, 0.00013099, 0.00024641, 0.00002823, -0.00463549, -0.00001497, 0.00010690, -0.00000239, -0.01338182, 0.00021778, -0.00000078, -0.00419428, 0.00013094, -0.00507754, -0.00000483, 0.00011556, -0.00519935, -0.01416268, 0.00011744 },
    { -0.00704205, -0.00726627, 0.00002476, -0.06893775, -0.00001145, 0.05344135, -0.00436867, -0.03377356, -0.00403433, 0.07650743, -0.02006017, 0.12862709, 0.00000161, -0.00399201, 0.03218007, 0.02185981, 0.17851007, 0.01356342, -0.08425823, -0.13500130, 0.00000282, 0.13497204, 0.00000134, -0.20678675, 0.00443926, 0.06134642, -0.05288107, 0.00008887, 0.09755899, 0.00001247, -0.07656221, 0.17668794, -0.04247250, 0.09870651, 0.08857860, 0.16476820, -0.07389964, 0.02527581, -0.07605118, 0.09686429, -0.06374692, 0.04013402, 0.01448902, -0.06202827, 0.03903737, -0.01801308, -0.05768977, 0.02077992, 0.00007655, 0.08775292, -0.08622918, -0.00831838, 0.16312985, -0.03950974, 0.00055922, 0.12246352, 0.03002754, 0.00000318, 0.11914385, 0.10406581, 0.00000070, 0.09554735, 0.08727144, 0.13026521 },
    { 0.01260442, 0.09492961, -0.00002590, 0.03376837, -0.00003015, 0.05044471, -0.11092411, -0.02576274, 0.09076750, -0.02786287, -0.01754866, 0.14478484, 0.00000285, 0.00257653, 0.03878582, 0.01601943, 0.03549051, 0.02245601, -0.04614275, 0.08618721, 0.00000046, 0.07579842, 0.00000217, 0.03359653, 0.00000660, -0.00796263, -0.00898772, -0.00000582, 0.04765767, 0.00266520, -0.04705611, 0.07275765, 0.09739903, -0.05215951, 0.02474211, 0.01512859, 0.00620713, 0.09521073, 0.11518936, -0.03256322, -0.01060728, 0.12484934, -0.09892801, -0.00701978, 0.07026691, -0.00114453, -0.01844675, -0.02977158, -0.00003940, -0.07887243, -0.15975930, 0.03101098, 0.15347745, -0.01886625, -0.00026601, 0.09907050, -0.02337908, 0.00000883, 0.00256436, 0.13914581, -0.00001307, -0.06042540, -0.07436946, 0.14619413 },
    { -0.17648385, 0.02763804, -0.00011415, 0.03320718, 0.00008925, -0.01454684, -0.24595490, 0.06814333, -0.17713001, -0.01065246, 0.03940689, -0.14496633, -0.00001131, 0.16433290, 0.04518050, 0.00388466, 0.00439571, -0.08986439, 0.02835469, 0.06114477, 0.00001366, -0.09002584, -0.00007446, -0.01780069, 0.00000377, 0.00004983, -0.05708326, 0.00005983, -0.03791582, -0.00659475, -0.01167606, 0.16805933, -0.02544511, -0.09599052, -0.13523822, 0.00980446, -0.12823562, -0.11502259, -0.10973877, 0.12948482, 0.06759239, 0.09256802, -0.00875825, -0.04640446, -0.24478079, -0.00247666, -0.01181456, 0.00000198, -0.00040484, -0.10615897, -0.01520861, -0.00003391, 0.07515191, 0.07806332, 0.02575085, -0.17800394, 0.02925780, -0.00003386, -0.08599102, -0.14917406, -0.00000559, -0.11304436, 0.00128575, -0.06152203 },
    { 0.02677687, -0.01075540, -0.00002510, -0.03799423, 0.00001150, 0.05056278, -0.15457425, -0.05814290, 0.17069973, 0.05883186, 0.00178306, -0.02383659, -0.00002082, 0.14344148, 0.03066446, 0.00549168, 0.00629918, -0.00879597, 0.10927438, 0.10946371, 0.00000747, 0.04399569, -0.00002853, 0.08148734, -0.00000306, -0.01288505, -0.07823760, -0.03003476, 0.03955117, -0.01440159, 0.06854178, -0.09237300, 0.23119588, -0.12017208, -0.07906020, 0.02768950, 0.01281290, -0.07755494, -0.01700148, 0.08101733, 0.00556579, -0.01112680, 0.07886904, -0.09948549, -0.26164842, -0.01819658, 0.06742306, -0.00151790, -0.00002682, 0.01858306, 0.04295100, -0.01163919, 0.04650073, -0.01704305, 0.00471809, -0.08924625, -0.11866952, -0.00000033, -0.05623890, 0.06692541, -0.00000477, -0.02623540, 0.07468628, -0.02747924 },
    { -0.13776194, 0.05702548, -0.00009096, 0.06284308, -0.00000058, -0.06240346, -0.07116462, 0.13420314, 0.06745031, 0.06825072, -0.10777861, 0.13654460, -0.00000296, -0.10176922, -0.04176940, -0.01092973, 0.05615998, -0.00107624, 0.12439405, 0.00607487, -0.00419539, -0.04358606, -0.00002099, 0.17737180, 0.00630720, -0.02581650, -0.17559995, -0.00025876, 0.03795222, -0.00164728, -0.03613663, 0.17533126, 0.06899109, 0.14346363, 0.03869733, -0.01362337, -0.06009106, -0.02605208, -0.05270538, -0.03209220, -0.07710679, -0.05988384, -0.10721389, -0.03763603, 0.15356597, -0.05851865, 0.08311755, 0.01308679, 0.00006156, -0.06846206, 0.07238265, 0.00000126, 0.10150602, 0.03824494, -0.01209591, 0.01076781, 0.02882353, -0.00000111, -0.01087304, -0.29680020, -0.00014132, -0.07295918, 0.07251193, 0.09908139 },
    { -0.02977833, -0.00018257, -0.00004601, -0.02415176, -0.00010791, -0.00194035, -0.02764521, 0.00000405, -0.00590962, 0.00000573, 0.00001443, -0.00000674, 0.00002280, -0.02811619, -0.00012025, 0.00004982, -0.02707977, -0.01698234, -0.02335858, 0.00001512, -0.00021783, -0.02507882, -0.00005519, -0.02913835, -0.00020251, 0.00017103, -0.02642897, -0.00016689, -0.00009278, 0.00002276, -0.02986236, -0.00003046, -0.00000507, -0.00000420, -0.00006819, 0.00012751, -0.02936156, -0.02332840, -0.00000987, -0.02111396, -0.02648529, -0.00006974, -0.02783332, 0.00001934, -0.02752024, -0.00006080, 0.00024633, -0.00006728, -0.00005836, 0.00000279, 0.00008796, -0.00006517, -0.00703407, -0.02297403, 0.00004602, -0.02510765, -0.02929172, -0.00024944, -0.02008276, 0.00002422, -0.00021765, -0.02959251, -0.02781235, -0.00001907 },
    { -0.09840696, -0.00014658, 0.00010397, 0.00000041, -0.00008927, -0.10661188, -0.04812644, 0.07227055, -0.00110115, 0.00006724, 0.00006729, -0.03248949, 0.00020249, 0.00827658, -0.00021772, -0.00013094, 0.04570194, -0.00194676, 0.01952645, -0.02621001, -0.00000807, 0.06530914, -0.00016379, 0.08147365, 0.00011559, 0.02063309, 0.02227830, -0.00006727, -0.08369713, -0.00006730, -0.12718874, -0.00006082, 0.00028795, -0.12163555, -0.03412801, -0.04871875, 0.06661329, -0.07153049, -0.02680651, -0.08978651, -0.08738511, -0.00000153, 0.00333933, 0.05723553, 0.02859771, -0.00000806, -0.00000806, -0.00006726, -0.00007642, -0.07562006, 0.00003050, 0.00002221, 0.04637715, 0.01868904, 0.00006540, -0.02311621, -0.07191975, 0.00014647, 0.03552904, -0.00028653, 0.00007642, 0.03023272, 0.06936481, 0.00062336 },
    { -0.00456907, -0.00006620, -0.00021782, -0.00139671, -0.00001356, -0.00332822, -0.00000123, -0.00172700, -0.00000065, 0.00001612, -0.00001023, 0.00000109, 0.00009096, -0.00139030, 0.00010792, 0.00019595, -0.00000200, -0.00027028, -0.00307300, 0.00000054, 0.00010358, -0.00046339, -0.00014654, -0.00000035, -0.00000524, 0.00013030, -0.00000315, -0.00002273, -0.00335077, -0.00006080, -0.00509094, 0.00000360, -0.00003652, -0.00373315, -0.00004155, -0.00000169, -0.00000928, -0.00027505, -0.00000001, -0.00358451, -0.00118455, -0.00141253, -0.00000211, 0.00000066, 0.00000467, 0.00011410, -0.00010739, 0.00007642, 0.00006729, 0.00000050, -0.00000504, -0.00006455, -0.00062905, -0.00274587, 0.00012589, 0.00000018, -0.00127802, -0.00013810, -0.00226962, -0.00000111, 0.00007445, -0.00242645, -0.00304952, 0.00005190 },
    { -0.00000015, 0.00010549, -0.00006849, -0.00000080, 0.00010793, -0.00173441, -0.00000537, -0.00220707, -0.00000067, -0.00001016, 0.00000169, 0.00000187, -0.00008928, 0.00000116, -0.00014658, 0.00016382, 0.00000459, 0.00000011, -0.00000063, -0.00784001, -0.00006651, -0.00161014, 0.00005909, 0.00000328, -0.00014124, 0.00008454, -0.00000320, -0.00007637, -0.00000012, 0.00005603, -0.00983455, 0.00000304, 0.00001921, 0.00000052, -0.00002715, -0.00001532, -0.00000050, 0.00000174, -0.00000078, 0.00000140, -0.00407700, -0.00000142, -0.00213937, -0.00000226, -0.00000956, 0.00006729, 0.00037309, 0.00014126, 0.00004966, 0.00000015, -0.00000073, 0.00012398, -0.00000150, -0.00395156, 0.00003712, -0.00000033, -0.00395879, -0.00008908, 0.00000063, -0.00000605, -0.00001174, -0.00084696, -0.00285902, -0.00007610 },
    { 0.02060397, 0.00000184, -0.00006519, 0.01930701, 0.00001356, 0.03960195, 0.01233389, -0.05337697, -0.11650537, -0.08738448, -0.20784415, -0.05411597, -0.00019596, 0.02515796, 0.01940898, 0.00000011, 0.25084910, -0.07612959, 0.00125885, -0.11043350, 0.00006512, 0.02433502, 0.00007052, -0.13885364, -0.00006767, 0.06136900, -0.06482442, 0.00004599, 0.03092768, -0.00000603, 0.10494845, -0.19278926, -0.02678289, -0.12591182, 0.06814062, 0.00039685, -0.01097901, 0.07082240, -0.14860213, 0.01345251, -0.07164505, -0.16968599, 0.15606582, -0.10230402, -0.11539301, 0.02838850, 0.03549249, 0.00000307, -0.00043118, 0.14286685, -0.06314491, 0.00000463, 0.04726376, 0.03607246, 0.04550346, -0.18359064, 0.01968718, 0.00000310, -0.12433910, -0.17530161, 0.00004170, -0.11288685, -0.09993151, 0.07083306 },
    { 0.05875605, -0.00012591, -0.00008925, -0.03515153, -0.00007643, -0.00762450, -0.00005567, -0.00190803, 0.05001859, 0.00013028, 0.00013378, -0.03475318, -0.00047909, 0.02811013, 0.00020772, -0.00017223, -0.00268675, -0.00654517, -0.05016373, 0.00006969, 0.00019600, 0.00000050, 0.00024945, -0.00006691, 0.00019588, 0.00028794, -0.00013916, -0.00047930, 0.00000016, 0.00024646, -0.09850825, -0.00018260, 0.00020835, -0.03447554, -0.00001711, 0.00007643, 0.00000172, 0.07616486, -0.00000070, -0.02037445, 0.06944660, 0.06113234, -0.00002467, -0.00000048, 0.00000037, 0.00001175, -0.00001382, -0.00020234, -0.00008924, 0.00003545, 0.00014127, -0.00002274, -0.04711112, 0.07091521, 0.00008927, 0.00000048, -0.02470771, 0.00013031, 0.03964015, 0.00008997, 0.00009838, -0.00118786, -0.04583480, -0.00013030 },
    { -0.00774809, -0.00019601, 0.00000721, 0.13477872, -0.00012210, -0.11221986, 0.10975186, 0.00295694, 0.04885661, -0.08616458, -0.05583807, -0.07299361, -0.00000450, -0.11991057, 0.00671515, -0.00000019, 0.08138429, 0.06444873, -0.11710841, 0.00222307, -0.00000655, 0.02199938, 0.00002368, 0.05644947, 0.00000446, -0.11120730, 0.10052153, 0.00024942, 0.09846580, -0.00250427, 0.01241874, 0.03750652, 0.05307463, -0.07903790, 0.04143744, -0.04812487, -0.07342802, -0.08934365, -0.02087467, -0.12293480, -0.08048928, -0.00962190, -0.10199431, -0.00097313, 0.22041589, 0.03263019, -0.00043112, -0.03103134, 0.00001414, 0.18597656, 0.00296966, -0.01970446, -0.18207534, 0.12882836, -0.00193392, 0.14619762, 0.05330577, 0.00000094, 0.08883810, 0.01447162, -0.00000427, -0.05604956, -0.09620869, 0.04732473 },
    { 0.01006445, -0.03423025, -0.00000546, -0.00602602, 0.00000106, 0.08499303, 0.12784046, -0.05065845, -0.07665367, -0.02246169, -0.11463618, 0.01571608, 0.00000077, 0.10569068, 0.03221790, -0.02973600, -0.07389229, -0.04104081, 0.04207566, 0.06374681, 0.00952160, -0.07459404, 0.00000617, 0.15318373, 0.00472099, -0.00060109, -0.05600332, -0.00000310, 0.05757972, 0.00075806, -0.04663484, 0.12018190, -0.05101176, 0.08067541, -0.00102439, 0.05395081, -0.11140577, 0.00024821, 0.01652506, -0.03974910, 0.10585205, -0.04425032, -0.12870881, -0.02689230, -0.00111659, 0.02555117, -0.00745232, 0.00525553, -0.00014657, -0.09895886, -0.02470605, 0.03993709, -0.08800734, 0.10449237, 0.00381830, -0.12347995, 0.15570302, -0.00000102, 0.02917742, -0.05122905, -0.00000066, -0.08153310, 0.11396898, -0.05430059 },
    { -0.00000314, -0.00014649, 0.00008928, 0.00000015, -0.00021774, -0.00000095, -0.00255380, -0.00000037, 0.00000017, -0.00000424, 0.00000431, 0.00000042, -0.00004965, -0.00000033, 0.00013020, -0.00000254, -0.00000043, -0.00000033, -0.00000000, -0.00900790, 0.00004539, -0.00000037, 0.00005516, -0.00000074, -0.00012737, 0.00007642, -0.00610222, 0.00017733, 0.00000025, -0.00013382, -0.00646040, 0.00000350, -0.00004512, -0.00000024, 0.00001965, 0.00000021, -0.00320290, 0.00000024, 0.00000019, -0.00000140, -0.00971876, -0.00000015, -0.00000029, -0.00276464, -0.00000527, -0.00008926, -0.00005370, -0.00005911, 0.00016381, 0.00000129, -0.00000150, -0.00009866, -0.00000002, -0.00173007, -0.00019585, -0.00818609, -0.01056374, -0.00009995, 0.00000015, 0.00000692, 0.00012587, -0.00011081, -0.00182921, -0.00002903 },
    { 0.00000027, -0.00007638, -0.00013384, 0.00000054, 0.00015333, -0.00275782, -0.00000055, -0.00196334, 0.00000199, 0.00001259, 0.00000205, -0.00000051, 0.00002824, 0.00000020, -0.00006081, -0.00006729, -0.00000208, 0.00000012, 0.00000006, -0.02135200, -0.00002654, -0.00649140, 0.00007638, -0.00000215, -0.00002276, -0.00012167, 0.00000129, 0.00021779, -0.00000104, -0.00012168, -0.00436288, -0.00128780, 0.00009073, -0.00000036, -0.00002299, -0.00000267, 0.00000166, -0.00000004, -0.00066091, -0.00000005, -0.00844065, -0.00753067, -0.01580658, -0.00209458, 0.00000518, 0.00008928, -0.00005674, -0.00004603, -0.00013387, 0.00000211, -0.00000322, 0.00003686, -0.00000009, -0.00063232, -0.00002222, 0.00000110, -0.01032795, -0.00007979, -0.00000056, -0.00001089, -0.00021781, 0.00000020, -0.00034072, 0.00003676 },
    { 0.01374970, 0.00000180, 0.00003767, 0.00238111, 0.00001014, -0.08700119, 0.13556352, 0.04330777, 0.08556017, -0.00336586, 0.15942526, 0.00470257, 0.00000890, 0.06570057, 0.01629324, -0.00399996, -0.02203464, -0.02391723, 0.10167207, -0.07014750, -0.00000645, -0.11576178, 0.00003447, 0.03085937, -0.00527564, 0.11913390, -0.13456944, 0.00011410, -0.17673026, 0.00000043, 0.08267146, -0.23363945, 0.09078199, -0.04197640, -0.12976521, -0.15085830, 0.02345599, -0.11707428, 0.03040165, -0.20287859, -0.02723839, -0.14901516, -0.15470149, 0.04875195, 0.02926315, -0.01500449, -0.00000198, -0.00000143, -0.00007642, 0.07484985, 0.06905764, 0.01560523, 0.11162297, -0.08443984, -0.00733830, 0.02190829, 0.08985447, 0.00670554, 0.11526296, -0.07882813, -0.00002633, -0.02936619, 0.04200790, -0.02914458 },
    { 0.00000185, -0.00001388, 0.00019594, 0.00000481, -0.00001175, -0.00000119, -0.00000228, 0.00000121, -0.00000866, -0.00001618, -0.00000721, 0.00000423, -0.00012586, -0.00000051, -0.00001175, -0.00000804, -0.00001502, -0.00000140, -0.00000189, -0.00000158, 0.00008912, -0.00000356, 0.00017837, -0.00001755, -0.00007641, 0.00041043, 0.00000667, 0.00047927, 0.00000885, 0.00014651, -0.00548825, -0.00001362, 0.00002951, -0.00000038, -0.00019564, -0.00000475, 0.00000369, 0.00000656, -0.00000008, 0.00000057, -0.00000070, 0.00000148, 0.00000033, -0.00000043, 0.00001215, -0.00006517, 0.00002966, -0.00014128, 0.00025867, 0.00000363, -0.00000745, 0.00002256, -0.00000556, -0.00018074, 0.00021768, 0.00000200, 0.00000158, -0.00019590, -0.00000028, -0.00002884, 0.00008926, 0.00000037, 0.00000024, 0.00014587 },
    { -0.00225680, -0.07117992, -0.00002325, 0.03243336, 0.00003987, -0.08737031, 0.05516471, 0.02405667, 0.02749522, -0.02443510, 0.14301081, -0.03859185, 0.00000218, 0.03790632, 0.00931368, 0.00798139, -0.13893795, 0.03251902, -0.01350559, 0.00103517, 0.00680004, 0.03731344, 0.00001363, -0.01366751, 0.00000071, 0.04027060, 0.02734242, 0.00000226, 0.19463195, -0.00052264, 0.00292483, -0.18610418, -0.11100095, 0.10844240, 0.00983838, 0.29327732, -0.04701586, 0.09463485, -0.00364590, 0.02271648, 0.02578082, 0.01212424, -0.05604575, -0.08680026, -0.02163097, -0.04010452, -0.05891994, -0.00000055, -0.00001057, -0.03016871, -0.07416551, 0.05058061, 0.04853266, 0.09781308, 0.00118995, 0.00524901, -0.04557636, 0.00000580, 0.02138415, 0.16448870, -0.00000348, -0.00560529, 0.02882999, 0.00291982 },
    { 0.02196645, -0.00012593, -0.00019600, 0.11265590, 0.00003047, -0.16073029, -0.01938225, -0.16172056, -0.02986806, 0.00013099, 0.03138070, 0.13428023, -0.00013099, -0.19637582, 0.01288198, 0.00001175, -0.05451814, -0.24398886, -0.00087951, -0.21796869, -0.00005911, 0.17070059, 0.00033280, 0.14248860, -0.00010794, -0.02582120, -0.10998183, 0.00006542, 0.00941498, -0.00025872, -0.08862539, 0.00019529, 0.19787680, -0.00012043, 0.07323878, -0.07874470, 0.03404332, -0.15314560, 0.01669581, -0.05873901, -0.11162648, -0.05866425, 0.11794927, 0.04356707, -0.17042649, 0.03835461, -0.00019600, -0.00013098, 0.00016374, 0.12232378, -0.04899497, -0.00006339, 0.05679533, 0.04838860, 0.00001518, 0.04237849, 0.06979368, 0.00013098, -0.03755345, 0.06526541, -0.00004980, -0.09739434, 0.03302510, -0.00010795 },
    { 0.00000056, 0.00003049, 0.00014130, -0.00303077, 0.00019601, -0.00650174, 0.00000293, -0.00689968, -0.00000110, -0.00005730, 0.00000477, 0.00000062, 0.00008926, -0.01453003, -0.00005237, 0.00010762, 0.00000534, -0.00156249, -0.00463709, 0.00000172, 0.00000703, 0.00000176, -0.00014124, 0.00000361, -0.00009843, 0.00004641, 0.00001391, -0.00013100, 0.00000063, 0.00031420, -0.00682380, 0.00003285, -0.00004481, 0.00357899, -0.00006732, 0.00000182, 0.00000308, -0.00000007, -0.00203076, -0.00115755, -0.01612634, -0.00105208, 0.00000043, 0.00000028, 0.00000421, 0.00003050, -0.00013023, -0.00002824, 0.00013023, 0.00000678, 0.00000258, 0.00020298, -0.00000139, -0.02434528, 0.00007447, -0.00000138, 0.00000088, 0.00020245, -0.00193479, 0.00002112, -0.00028795, -0.00000057, -0.00484799, 0.00004798 },
    { -0.05986345, -0.00021775, 0.00010397, 0.03048733, -0.00014655, -0.11741701, -0.03487336, -0.05235919, 0.02461094, -0.00008927, 0.00000020, -0.07321950, -0.00007642, -0.10045856, 0.00013101, -0.00004602, -0.10882962, -0.00000052, 0.01423826, -0.09771075, -0.00011069, 0.04111937, 0.00009099, 0.05693985, 0.00021775, 0.00000024, 0.01070617, 0.00024633, -0.00008925, -0.00006517, 0.06208734, 0.00008928, 0.00000221, -0.06492854, -0.05271313, 0.00014658, 0.02904279, -0.00595371, 0.00015278, 0.00021780, -0.03657850, 0.00018270, -0.05371223, 0.00000009, -0.00003453, 0.00005907, 0.00005910, 0.00009099, 0.00010397, -0.11910034, -0.00002589, -0.00006931, -0.04159721, -0.06749245, -0.00006730, -0.12098470, -0.01059103, 0.00005518, 0.02175654, -0.01298958, -0.00013027, 0.06040252, -0.08058100, 0.00019601 },
    { -0.00000025, 0.00063738, -0.00006729, 0.00000082, -0.00013094, 0.00000002, -0.00000012, -0.00000083, -0.00000553, -0.00004514, -0.00000537, 0.00000456, -0.00012593, 0.00000092, -0.00008928, -0.00024955, -0.00000171, -0.00000044, -0.00000081, -0.00000002, -0.00006007, -0.00000139, 0.00042172, 0.00000208, -0.00014655, -0.00000223, -0.00001504, -0.00033274, -0.00000432, 0.00013099, -0.00080916, -0.00000810, -0.00005741, 0.00000038, -0.00006337, -0.00000205, 0.00001012, -0.00000201, 0.00000020, -0.00000150, 0.00000244, 0.00000108, 0.00000064, 0.00000154, -0.00001899, -0.00006622, 0.00000449, 0.00003709, 0.00021771, 0.00001084, 0.00001295, -0.00000763, -0.00000049, -0.00034904, -0.00007637, 0.00000020, -0.00000462, -0.00009832, 0.00000045, -0.00000106, -0.00021767, -0.00000292, -0.00028777, 0.00007955 },
    { 0.11467641, 0.09297578, 0.00002821, -0.12223019, -0.00000180, -0.08239096, 0.10240766, 0.03051489, 0.01524226, 0.11250836, 0.06597081, 0.04184224, 0.00000520, 0.07802147, 0.02055336, -0.00546798, -0.14158472, -0.07289647, 0.04408945, -0.02918074, 0.00000553, 0.09608538, 0.00000500, -0.10523293, 0.00000002, 0.05676911, 0.13405712, -0.00001325, 0.16758892, -0.00493187, 0.07837158, 0.04997461, -0.12115015, 0.02512049, -0.02376933, 0.00510000, 0.04998802, 0.01050833, 0.10983162, -0.06729871, -0.11435553, -0.06051365, -0.00197920, -0.09898655, 0.06021624, -0.00297173, 0.05116604, 0.02942517, 0.00023638, -0.06013364, 0.00838905, -0.00765707, -0.10191504, -0.03351112, -0.01028385, -0.07908576, -0.10296491, 0.00000109, 0.05006163, -0.05834331, -0.00000495, 0.07967433, 0.10468230, -0.15386781 },
    { 0.00000058, -0.00024934, 0.00002281, 0.00000651, -0.00019601, -0.00000120, -0.00002002, -0.00000070, -0.00000465, 0.00006516, -0.00005907, 0.00000867, -0.00024648, -0.00000174, -0.00007642, -0.00003710, 0.00001858, 0.00000555, 0.00000272, 0.00006697, 0.00031424, -0.00000434, 0.00006538, -0.00003049, -0.00001175, 0.00008927, -0.00010789, -0.00003050, -0.00000402, 0.00008928, -0.02093919, -0.00024648, -0.00013031, -0.00000038, -0.00001175, -0.00006080, -0.00021773, 0.00000584, -0.00000152, 0.00000179, -0.00000124, 0.00000058, -0.00004603, -0.00000881, 0.00025869, 0.00019600, 0.00010793, 0.00008927, -0.00005909, -0.00000380, 0.00013022, -0.00006730, 0.00000645, -0.00000056, -0.00006729, -0.00001774, -0.00000205, 0.00021778, 0.00000471, 0.00031420, -0.00013097, -0.00000127, 0.00000053, 0.00013022 },
    { -0.15043584, 0.01283717, -0.00006728, 0.07046164, 0.00012369, 0.00550712, -0.00214781, 0.08668488, -0.10194053, -0.07293709, -0.08203482, 0.00616703, -0.00000187, -0.11870317, 0.02283375, 0.04061360, 0.09405021, -0.02881826, 0.11224456, -0.05730316, -0.00000139, -0.01677797, -0.00016382, -0.07989086, 0.00000145, -0.00009098, 0.01555968, -0.00000136, -0.03057741, -0.01784452, 0.06927974, 0.04322378, 0.00730883, -0.03361590, -0.11129189, 0.00883072, -0.05604059, -0.07562792, 0.05253232, -0.05896707, -0.07264300, -0.06261793, 0.07443782, -0.12267394, -0.09362611, 0.03364515, 0.07763144, 0.00005606, -0.00001459, 0.08847065, 0.02646588, 0.00000860, -0.10004389, -0.09830271, -0.01722737, -0.08606125, -0.06047441, 0.00017748, -0.12312111, -0.07640332, -0.00000723, -0.10003705, 0.05922179, -0.00329417 },
    { -0.05798410, -0.00019601, -0.00021782, 0.01927630, 0.00001175, -0.00657494, 0.01300087, -0.09958542, 0.06776633, 0.04051577, 0.10678168, 0.10197580, 0.00003050, 0.09770968, 0.02180313, 0.00007639, -0.03227691, 0.00162767, -0.01990645, 0.11244112, 0.00004712, -0.01853435, 0.00010794, 0.00867135, -0.00010793, -0.00021782, 0.01416939, 0.00013029, 0.21156736, 0.00013029, 0.05742281, 0.15994741, -0.00136772, 0.01445626, 0.00079892, -0.05629549, 0.00294713, 0.00075116, 0.11516588, -0.10249566, -0.02082313, -0.09840253, -0.01312360, -0.09907079, 0.01362171, 0.05055702, 0.00002205, 0.00017313, 0.00000434, 0.00834877, 0.00045122, -0.00001512, -0.00864636, -0.09107483, -0.00032247, -0.07036740, -0.04263861, -0.00013092, -0.02381286, -0.02668665, -0.00000524, -0.07644654, -0.06993297, -0.04847247 },
    { -0.06010015, -0.00004967, 0.00005911, 0.00931083, 0.00024646, -0.06772807, -0.01329608, -0.11276837, -0.05393425, -0.07349671, -0.00152660, -0.06013060, 0.00008924, -0.05317936, 0.00024648, -0.00028789, -0.04199762, 0.02034122, -0.03711419, -0.01296491, 0.00005001, -0.12381180, -0.00006730, -0.02455377, 0.00004602, -0.00019600, -0.04301061, 0.00014130, -0.05392367, 0.00002150, 0.03371241, -0.07830539, 0.00000552, 0.01206764, -0.00001175, 0.00013024, -0.05623151, -0.06168197, -0.01630395, 0.06460369, 0.01562837, -0.12145681, 0.06207052, 0.05158616, 0.00797947, 0.00007639, 0.02858396, 0.00028789, 0.00008926, -0.00537662, -0.00000413, -0.01896429, -0.02352331, -0.14450477, 0.00004967, -0.01287266, 0.00776760, -0.00004600, 0.03733717, -0.00000290, 0.00006078, -0.07876917, -0.06760529, 0.00008925 },
    { 0.03033254, -0.00014129, 0.00013101, 0.05601607, -0.00017225, -0.08085870, 0.16770855, -0.11322349, -0.04979586, -0.00989089, -0.00628893, -0.06760869, -0.00001103, -0.05750531, 0.04283356, 0.00592527, -0.05334549, -0.19265930, -0.14178973, 0.09873666, -0.00006320, 0.17726538, -0.00001338, 0.03697607, -0.00000826, -0.01105830, -0.03914458, 0.02239159, -0.12572713, 0.00000045, -0.01571142, -0.05000094, 0.08879763, -0.12331197, 0.06490996, 0.11871181, 0.11140583, -0.05755371, 0.04215951, -0.11502821, -0.02885300, 0.05520990, 0.13270424, 0.10982167, -0.08276574, -0.02121563, -0.00003980, -0.00000077, 0.00000294, -0.01190267, 0.03034159, -0.01240860, -0.28966761, 0.05984044, -0.02340752, 0.04371644, -0.05627950, 0.00000421, -0.16667500, 0.04188819, 0.00000076, -0.12273015, 0.03193047, 0.04296243 },
    { -0.02927214, 0.05613678, 0.00007642, 0.09157926, 0.00001303, 0.12475919, 0.16924916, -0.13980401, -0.09619517, -0.03198841, -0.16291963, 0.02699263, -0.00001179, 0.09273697, -0.03807653, 0.00000004, 0.04456029, -0.07971641, 0.12448170, 0.03686688, -0.00000111, -0.11543559, -0.00002453, -0.13314226, 0.00000108, 0.00000328, -0.05345004, 0.00020347, -0.04767824, -0.00926784, -0.02473990, -0.04736009, 0.01466990, -0.11138764, -0.07563726, 0.13271385, -0.07044677, 0.08671709, -0.09232783, 0.07260301, 0.03201532, -0.09526819, 0.09963058, -0.02527608, -0.11157343, 0.01885176, 0.07549676, 0.01050761, -0.00007643, -0.08958445, -0.09371831, 0.02097092, -0.05117735, 0.02509628, 0.01603879, -0.07575542, -0.04625647, -0.00000768, 0.08874054, -0.08762202, -0.00000893, 0.07758497, 0.03106095, -0.00382692 },
    { -0.03219472, -0.00006729, 0.00020300, -0.07142595, 0.00008924, -0.01056154, -0.04466927, -0.00866126, -0.00000002, -0.00001943, -0.00000016, -0.01666402, -0.00013101, -0.07355505, -0.00011061, -0.00019600, -0.00000210, -0.02605194, -0.04165687, -0.00944501, -0.00008032, -0.06297848, -0.00024630, -0.00709566, -0.00021783, 0.00008923, 0.00000047, -0.00005621, 0.00000676, 0.00033259, -0.04826351, 0.00000297, -0.00002933, 0.00886645, 0.00002824, 0.00004165, -0.00111308, -0.00923676, -0.01183970, 0.01720962, -0.02615829, 0.00000023, -0.01890905, 0.05675685, -0.00001291, 0.00012593, -0.00012869, -0.00012592, -0.00024937, -0.01547602, -0.00000030, -0.00031359, 0.00103971, -0.00589582, -0.00007063, -0.00446696, 0.03396594, -0.00005908, -0.01087490, -0.00000077, 0.00006519, -0.02234306, -0.02985206, -0.00008838 },
    { -0.06600384, -0.00013030, -0.00013386, -0.06620967, 0.00001772, -0.01241313, -0.07957109, 0.10829157, -0.09911847, -0.11999915, -0.12578821, -0.14239794, -0.00002760, 0.12018566, 0.01983364, -0.01295780, -0.14758284, -0.08580086, -0.07344486, 0.07804587, -0.00001544, 0.05710203, 0.00042172, 0.00335777, -0.00000342, 0.00024959, -0.03045473, 0.00000177, -0.00649519, -0.00000488, -0.08474302, 0.05089617, 0.05553643, 0.02514180, -0.00033382, 0.03531492, -0.17529361, -0.03402421, 0.02377543, 0.00131671, -0.07489445, 0.06525097, -0.02425812, -0.03393539, -0.01089993, 0.01243917, 0.03976593, 0.00000451, -0.00000006, 0.03827661, 0.09715275, -0.00000685, -0.06187288, -0.09945588, 0.00000070, -0.00000304, 0.06118465, -0.00006082, -0.14420588, -0.01077049, -0.00001447, -0.09098849, 0.02364386, 0.11532217 },
    { 0.02948059, -0.00000002, -0.00017051, -0.06206325, -0.00000232, 0.06675749, -0.11698712, -0.01294187, 0.04302022, 0.01476035, 0.08006766, 0.06479586, -0.00000254, -0.00058460, 0.01020672, 0.01398821, -0.15773284, 0.04690078, 0.06974011, -0.03038067, -0.00000019, -0.02493916, 0.00000765, 0.04248782, -0.00812002, -0.08877867, -0.08546669, -0.00000166, -0.02899500, 0.00779374, 0.02249757, 0.09996114, 0.18172626, -0.02779541, 0.04387740, 0.00469217, 0.06925201, 0.08958478, -0.07840089, 0.01441889, 0.03803232, -0.02700583, 0.07811955, -0.05269467, -0.08354296, 0.00964151, 0.04430884, -0.02565421, 0.00001174, 0.12397024, -0.01240842, -0.00001291, 0.00163510, -0.05293204, 0.02299874, -0.03753149, -0.00693315, 0.00000367, 0.04247224, 0.01131072, -0.00001047, -0.08164523, 0.05419938, 0.00534872 },
    { 0.04637592, 0.04671954, 0.00016382, 0.12109347, 0.00001791, 0.12412012, 0.11565962, 0.11048321, 0.07890889, -0.00000246, 0.00798774, -0.17291293, 0.00000087, 0.03769533, 0.01085697, 0.02688551, -0.13514328, 0.05356583, -0.03988062, -0.21293230, -0.00001794, 0.12114391, 0.00001579, 0.04690206, -0.00000007, 0.06235433, -0.16193531, 0.00024372, 0.04229119, -0.00000068, -0.10191316, -0.04633461, 0.15395327, -0.03800932, -0.11510054, -0.01415885, -0.16977447, 0.04757551, 0.03095243, -0.02905064, -0.10247844, 0.07233991, 0.16804966, -0.04449702, -0.05208939, -0.02027130, -0.04048515, -0.01398296, -0.00024338, -0.09476755, -0.18322745, -0.01197814, 0.14173535, -0.05623326, 0.03670312, 0.05751514, -0.06592564, 0.00002470, -0.06967168, 0.05206531, 0.00001527, 0.00240245, 0.02061128, -0.00001821 },
    { 0.12499295, 0.01160183, 0.00029930, 0.04227053, 0.00000543, 0.07854952, -0.07438269, -0.13100171, -0.02593213, 0.07711451, 0.11865942, 0.09921252, 0.00000179, -0.12256034, -0.01236111, -0.01018892, -0.09483871, 0.13488908, -0.00333144, 0.10828029, -0.00000174, -0.05486696, -0.00000454, 0.12098858, 0.00801830, 0.04565537, 0.09512529, -0.00001830, 0.00491218, 0.00000008, 0.08763732, -0.07097210, -0.15799800, 0.13194741, 0.07523461, -0.00656174, 0.05719611, -0.09585626, 0.06221119, 0.02838037, -0.06128027, -0.01287609, -0.15151289, -0.07513478, -0.18059853, -0.00988471, -0.01307969, 0.00335559, -0.00001115, -0.21648072, 0.07082529, -0.01981195, -0.09067074, -0.09801343, -0.00683832, 0.08260781, 0.04222377, 0.00000392, 0.10288392, -0.00363584, 0.00002156, -0.03999104, -0.02681970, 0.05984572 },
    { 0.08582827, -0.06176980, -0.00005788, -0.07856499, -0.00000219, 0.05517584, -0.08379502, -0.11974123, 0.07038175, 0.00993364, -0.02119477, -0.02499005, 0.00000373, -0.06362174, -0.01629403, -0.01791533, -0.11967864, 0.07272016, -0.04570717, 0.10436259, 0.00000065, 0.12587896, 0.00000740, 0.12008155, -0.00000028, -0.01124298, 0.13961741, 0.00326255, 0.16317032, -0.00220441, 0.09748185, 0.07154594, 0.07683076, 0.04317223, 0.03632532, -0.01878008, -0.04476161, -0.03264174, -0.01480604, -0.00687890, 0.06038284, 0.03257293, -0.08650856, -0.17050250, -0.09804369, -0.02421902, 0.10260437, 0.01952017, 0.00010091, -0.12170386, -0.05839342, 0.00693020, -0.15662350, 0.04493129, 0.00143072, 0.07316824, -0.06316075, 0.00000333, 0.10522638, 0.01735157, -0.00000047, -0.09411716, 0.01878426, -0.07449013 },
    { 0.00000073, -0.00017235, -0.00008357, 0.00000002, 0.00021783, -0.00000051, -0.00000712, -0.00000024, -0.00000228, -0.00001125, -0.00000696, 0.00000601, -0.00000806, 0.00000274, -0.00021781, 0.00021774, -0.00000190, 0.00000134, -0.00000507, 0.00000156, 0.00024641, 0.00000221, -0.00013026, -0.00000389, -0.00005603, -0.00007641, -0.00002700, -0.00019595, 0.00001407, 0.00007640, -0.00234204, -0.00004146, 0.00013084, -0.00000403, 0.00008026, -0.00030190, -0.00000279, -0.00000645, 0.00000025, -0.00000082, 0.00000201, 0.00000359, -0.00001679, -0.00000934, -0.00000188, 0.00007449, 0.00012590, -0.00016374, 0.00003049, 0.00000279, -0.00000697, -0.00002274, 0.00000937, -0.00000017, 0.00006517, 0.00000260, -0.00000947, -0.00007641, -0.00000009, -0.00003382, -0.00019596, 0.00000141, -0.00000081, -0.00016384 },
    { -0.09812482, -0.00025752, -0.00004979, -0.15387298, -0.00013386, -0.03726545, 0.03561587, -0.11410502, 0.07293621, 0.00006514, 0.01866844, -0.01624771, -0.00007447, -0.01779878, 0.03036938, 0.00000222, -0.05788965, 0.00577200, -0.03058142, 0.01201774, 0.00024104, -0.01116470, -0.00001175, 0.06479567, 0.00024959, -0.03350512, 0.03580849, -0.00006517, -0.00009333, 0.00000006, -0.02353809, 0.00000311, 0.19866648, -0.08275326, 0.00000101, -0.00007449, 0.11096880, -0.00172324, -0.05528944, -0.04987005, 0.05538809, -0.13342917, -0.07584771, 0.01488819, -0.06352513, 0.03642920, -0.00042156, 0.00000074, 0.00006517, 0.10886614, -0.04773369, 0.02130136, -0.05291884, -0.14328796, 0.00006714, -0.08962525, 0.01420493, 0.00013029, 0.08327821, 0.03193614, -0.00019598, 0.06239315, -0.07555235, -0.00000639 },
    { -0.01581809, -0.00010794, -0.00013097, -0.00285182, 0.00006459, -0.10421751, 0.04848786, -0.12485886, -0.20338041, 0.20237751, 0.02489237, -0.14378177, 0.00000349, -0.13248248, -0.02478953, 0.00701893, 0.12098455, 0.11027104, 0.07321181, 0.16251428, -0.00000088, -0.12479712, 0.00002686, -0.05468581, 0.00000029, 0.00001325, 0.11280073, -0.00015777, -0.04232469, 0.01594445, -0.04137808, 0.28164458, 0.23437285, 0.07823905, 0.00000093, -0.03082189, -0.06918091, -0.11965379, -0.07387573, 0.11569691, 0.05738557, -0.10954971, -0.13362031, -0.03352645, -0.03998738, 0.02796705, 0.00001272, -0.01024356, -0.00022236, 0.17358781, 0.10597213, -0.01093766, -0.14093220, 0.00366812, 0.01260569, 0.09556793, 0.04579188, -0.00001152, 0.04786895, 0.02056436, 0.00002281, 0.03553404, 0.05219227, 0.11755734 },
    { 0.00000103, -0.00004600, 0.00013386, 0.00000124, -0.00008927, -0.00373168, -0.00000093, 0.00000006, 0.00000562, 0.00002276, 0.00014131, -0.00000054, 0.00012591, 0.00000146, -0.00013100, 0.00011412, -0.00000277, 0.00000278, -0.00000502, 0.00006187, -0.00012592, 0.00000129, -0.00042139, -0.00000221, -0.00000807, 0.00013028, -0.00000725, 0.00024941, 0.00000320, 0.00024363, -0.00410135, 0.00013023, 0.00011626, -0.00000207, 0.00020304, 0.00005911, 0.00000757, -0.00000126, 0.00000550, 0.00000276, 0.00000271, 0.00000255, -0.00003757, -0.00000043, 0.00000809, -0.00005907, 0.00015286, 0.00004529, 0.00007643, -0.00000271, 0.00004349, 0.00006541, 0.00000377, -0.00087879, 0.00013022, 0.00000249, 0.00000383, 0.00003253, 0.00000020, -0.00001139, -0.00013101, 0.00000031, -0.00026641, -0.00005911 },
    { 0.03900866, 0.05397044, -0.00003138, -0.00987514, -0.00000986, 0.02894235, 0.07239062, 0.00047210, -0.14368534, 0.14519425, 0.04267756, 0.01822225, 0.00000288, -0.04750327, -0.00643973, -0.00735207, -0.05809606, -0.09281965, -0.01340164, 0.06645630, -0.00000302, -0.06261414, -0.00000281, -0.01922527, 0.00000028, -0.02222372, -0.12929040, -0.01432784, 0.12912817, 0.00797630, -0.03131581, 0.13753925, 0.11622717, 0.10653765, -0.01976748, 0.04348679, 0.07957052, 0.03713849, -0.09177531, 0.09316369, 0.09803487, -0.09084154, -0.02062662, -0.05624140, 0.05351296, 0.02213367, -0.08314486, 0.02332212, 0.00000322, 0.06401202, 0.17145002, 0.04428367, -0.04802876, 0.02469856, 0.00845985, -0.06882289, 0.12330507, 0.01195207, 0.14427637, -0.09195557, 0.00000008, -0.07884159, 0.01523517, -0.05504398 }
};

static const float layer_1_bias[64] = { 0.12723227, 0.18487835, 0.00019528, 0.11294841, -0.07780071, 0.09906967, -0.00000324, 0.00068264, 0.00159829, -0.00010853, 0.11985737, 0.00988434, 0.00033459, 0.11373961, 0.16208614, -0.00015702, -0.20155932, 0.00004739, -0.00001333, -0.27315491, -0.06654937, -0.01679955, 0.00009534, 0.00013725, 0.08863705, -0.01132506, -0.00031119, -0.15736076, 0.03231500, -0.00016929, 0.00002082, 0.00003477, 0.00003827, 0.31805480, -0.00002171, 0.09361564, 0.06560694, 0.00000411, 0.00005760, -0.06592602, -0.00002795, -0.27916339, 0.00547012, -0.00005707, 0.00009097, 0.00004284, -0.18208900, -0.00004280, -0.05357224, 0.02432866, 0.00001767, 0.07378258, 0.04467377, -0.00001334, -0.06361089, 0.12385354, -0.09381022, -0.06676302, -0.07292136, -0.00044124, 0.00081703, 0.47242698, 0.00007809, 0.08588718 };

static const float layer_2_weight[10][64] = {
    { 0.01566503, -0.08651886, 0.00648462, -0.00699322, -0.08873230, -0.01476610, 0.00000006, -0.04681028, -0.08727275, 0.00002221, -0.00223023, -0.00263179, -0.04634600, 0.02898809, 0.09084123, -0.00188970, -0.01376808, -0.01046709, 0.03483262, 0.09389400, -0.01407015, 0.08275343, 0.01586458, 0.00915671, 0.07339302, 0.11843302, 0.03184216, 0.05896291, -0.07122007, 0.00009857, 0.00000166, -0.00000002, -0.00669133, 0.05732265, -0.00499295, 0.11234178, -0.09079681, -0.00109967, -0.00807900, -0.05168138, 0.00535703, 0.05503752, 0.04123521, 0.00155433, -0.00013028, -0.00876000, -0.03724178, 0.00024871, 0.01361930, -0.01053990, -0.00010677, -0.19112182, -0.03275924, -0.03391790, -0.04252899, 0.09143155, 0.05663552, -0.14399292, 0.00751679, 0.00000046, 0.16098352, 0.10780115, 0.00000614, 0.02188811 },
    { -0.10931254, 0.07614351, 0.00000016, 0.09916595, -0.06307773, 0.02572101, 0.01682449, -0.09293534, 0.02554427, -0.02828171, 0.05659966, -0.08750193, -0.00495779, -0.03214473, 0.17277746, -0.01436880, -0.01441805, -0.00000171, 0.03527273, -0.06250422, 0.00624200, 0.02442190, -0.02177912, -0.02128007, 0.04651625, -0.01526249, -0.05288270, 0.01404194, -0.17135371, -0.00002817, -0.02743399, -0.00428919, -0.00204142, 0.00434549, -0.00012320, -0.17425014, 0.01044103, -0.00306326, 0.00013038, 0.02180266, -0.00863972, 0.03977221, -0.03974682, -0.00000011, 0.00021504, 0.00480638, 0.03389395, -0.00021772, 0.12103047, 0.00782221, 0.00005779, -0.05967177, -0.08339180, -0.02551095, -0.07841200, 0.04667215, -0.04902283, 0.01358601, 0.06231207, -0.00000052, 0.05396419, -0.17282063, -0.00007469, 0.06579577 },
    { -0.00387136, -0.19106334, 0.01125875, 0.02457318, 0.04229315, -0.03669068, -0.01582040, -0.10360875, 0.06345232, 0.00001880, 0.02738035, 0.09604475, -0.10993721, 0.00266712, -0.12494230, -0.00293120, 0.00736299, -0.02336616, 0.07470613, 0.06404459, 0.11622374, -0.05119786, -0.00435599, -0.00492872, -0.05963865, -0.13674054, -0.05255700, 0.02649380, 0.03317941, -0.00000298, 0.01815991, -0.01058071, 0.00278548, 0.03797727, 0.02526293, -0.10790969, 0.03978154, 0.00430574, -0.00126177, 0.01913379, 0.00278429, -0.04281266, 0.12473901, 0.00132733, -0.03981777, -0.01350300, -0.00953181, 0.00011413, 0.05362310, -0.00474090, 0.00002443, 0.16025253, 0.02510319, 0.01084292, 0.02937028, 0.04364694, -0.01683708, -0.05870748, -0.02326510, -0.00305159, 0.03508420, -0.04354192, -0.00000841, 0.01670652 },
    { -0.00569265, 0.10350873, 0.00628273, -0.02863340, 0.03399364, 0.07198058, 0.00000158, 0.08781929, 0.10684815, 0.01218467, -0.10784819, 0.04895717, 0.25251067, -0.05038770, 0.09838957, 0.00480978, -0.14388742, 0.00000011, 0.05892760, -0.18115863, -0.02232423, 0.05452288, -0.00000021, 0.03962475, -0.10951597, 0.00988695, 0.11567482, 0.08055353, -0.16879821, 0.00001018, -0.00000101, -0.00550598, -0.00000006, 0.02940105, 0.00006498, 0.07041527, 0.15522957, -0.01294733, -0.00422675, -0.05741786, 0.01074534, -0.02740470, -0.14684834, 0.00380503, 0.00000062, -0.00596693, -0.13520294, -0.00019597, -0.06114027, -0.12892833, 0.04861247, 0.15357979, 0.15475422, 0.04270327, 0.07173572, 0.06148375, -0.05187520, -0.03413236, -0.01735920, 0.00161947, 0.11809989, -0.08309457, 0.00009822, 0.01278860 },
    { 0.12697777, -0.14892121, -0.00275219, -0.02017066, -0.03392541, 0.06156756, 0.00006918, -0.10920504, -0.11213502, -0.00008050, -0.08483777, 0.03594477, -0.07955256, -0.06764442, -0.04397465, 0.02371088, 0.08934446, 0.05244157, -0.02649811, -0.12563600, 0.09208742, -0.05498089, -0.00409397, 0.02790634, 0.10237139, -0.00403221, 0.04554041, 0.05045009, -0.01471723, 0.00008057, -0.00000769, 0.00608388, -0.00000030, -0.03204294, 0.00017006, 0.03539272, -0.15809157, -0.00139475, 0.00430867, 0.08390500, 0.00000041, 0.01209276, -0.09259093, 0.00933770, -0.01335115, 0.00861463, -0.04336873, 0.00002655, -0.10924880, -0.04121125, 0.00012302, -0.02249487, -0.14728466, -0.00000065, -0.02143474, 0.12125160, 0.06163617, -0.03842492, -0.12581444, 0.00616023, 0.05201606, -0.10659330, 0.00000609, -0.15532678 },
    { 0.12582470, 0.01837184, -0.02071032, -0.01584456, 0.07471753, 0.12021931, -0.00000098, -0.07964551, -0.26148897, -0.00498645, -0.04038814, -0.15630901, 0.06341092, 0.06505232, 0.11138630, 0.00000013, -0.10935646, 0.00010957, -0.00000047, -0.15419956, 0.12298399, -0.10804956, 0.00986480, 0.00044204, 0.06036869, -0.02604913, 0.04970729, -0.01934461, -0.09702419, -0.00004404, 0.00001799, -0.00000047, 0.00473208, -0.23062713, 0.00006686, 0.03585025, -0.06450184, 0.00652014, 0.00475740, -0.09414206, -0.00000017, -0.03539369, -0.15114693, -0.00361030, -0.00001303, 0.00000055, -0.00361629, 0.00006725, 0.03998215, -0.06824367, -0.05146501, 0.02005796, -0.10091478, 0.00000024, -0.04272983, 0.04596574, -0.04101986, -0.03382454, -0.01483092, 0.00000037, 0.05334277, -0.03279577, -0.00004391, -0.09932025 },
    { 0.02274305, -0.08180931, -0.02273241, 0.09629214, -0.10174439, 0.09900051, -0.02454394, 0.02625971, -0.13104299, -0.00002611, 0.06318087, 0.06506754, -0.03837822, -0.03809855, -0.15507002, 0.00493657, -0.02293060, 0.06457498, -0.00002168, 0.13884781, -0.07795392, 0.02881655, -0.03816393, 0.00000008, -0.13756265, 0.02407987, -0.13281401, -0.05173256, -0.33443147, -0.00012956, 0.00013090, 0.00907694, -0.00000010, -0.06057999, -0.02239094, 0.00016147, 0.07105585, 0.00613955, 0.00639400, 0.15090083, 0.00000279, -0.01272858, -0.09257723, -0.02128198, 0.00342764, 0.01497859, 0.08289526, -0.00013031, -0.11673025, 0.01566785, 0.00005204, 0.00249642, -0.08425044, -0.02796431, 0.01584139, 0.07800363, -0.26581833, -0.09851642, -0.09217923, 0.00000076, 0.05289614, -0.11037089, -0.00008726, 0.06665572 },
    { -0.03329553, 0.04489286, 0.00131022, -0.14635439, -0.15053593, -0.02530240, -0.00955967, 0.03324243, -0.09081224, -0.00001164, -0.00962387, -0.02467368, -0.09084640, -0.13270499, -0.09586653, -0.01690200, -0.02408529, -0.02644587, -0.02371358, -0.03073912, 0.08870631, -0.10022490, 0.00990796, -0.02556992, 0.12383452, 0.04562155, -0.14123489, -0.00601300, 0.06308037, -0.00003236, 0.06049795, -0.00374537, -0.00152990, -0.07873099, -0.04728262, -0.02042330, 0.05443561, -0.00262647, -0.00000001, -0.07468463, -0.00935124, 0.07850508, -0.00243072, -0.00871852, -0.01445863, -0.00000009, 0.06520015, -0.00006589, -0.10819644, -0.01134738, 0.00014136, -0.01772095, -0.03575151, 0.01092792, -0.19544208, -0.06736727, -0.07732777, 0.00542992, 0.04418427, -0.00000055, 0.03549421, -0.20232594, -0.00004160, 0.05210811 },
    { 0.01130795, -0.00932970, -0.00289473, 0.08913252, 0.00407899, 0.09976631, 0.01803630, -0.06052671, -0.14386208, -0.00000145, 0.00578598, -0.07022522, -0.15535405, -0.12453048, 0.01245488, -0.00501586, -0.02649156, 0.03020579, -0.05447347, -0.02547470, 0.13800839, -0.00000105, 0.05317264, -0.00883085, 0.09702721, -0.11078863, 0.22501796, -0.09440502, -0.17000374, 0.00013140, 0.00014644, 0.00000105, -0.00816825, 0.26401165, -0.00013028, 0.12395747, 0.01518870, 0.00000003, -0.00410685, 0.00729650, -0.01280962, -0.11912376, -0.00122308, 0.01427681, 0.00000059, 0.00741131, -0.20446128, 0.00008921, 0.07129798, -0.02922779, 0.00000071, 0.07712461, 0.04324951, 0.00000001, 0.06555270, 0.02009851, -0.18366627, -0.27191111, -0.27099544, -0.00173195, -0.14139856, 0.07098635, 0.00003179, 0.09354286 },
    { 0.08825608, 0.01967622, 0.01880259, -0.01473474, -0.11989036, -0.06212430, 0.00000001, 0.02670476, -0.08916322, -0.00002621, 0.10353355, 0.08102334, -0.07276043, 0.04672909, 0.08683972, -0.00000007, -0.07995045, -0.07087717, -0.04418540, -0.15268131, -0.12212858, 0.02565349, 0.00513366, 0.01663508, 0.06114659, -0.02023100, 0.02249816, -0.09506997, 0.00214680, -0.00024821, 0.00008924, 0.02593135, 0.02081187, -0.22965021, -0.00047915, -0.21559945, 0.04054832, 0.01479482, 0.01860421, -0.23225273, 0.00257722, -0.02591299, -0.00003847, 0.00000009, 0.00008928, 0.01657484, 0.05310480, 0.00005003, -0.02145110, 0.14458063, -0.01296153, -0.11973052, -0.04006770, 0.00565724, -0.06687061, 0.08978316, -0.16553289, 0.00371227, 0.05493688, 0.00000082, -0.00005267, 0.29638499, -0.00013101, 0.11408964 }
};

static const float layer_2_bias[10] = { -0.03607646, -0.04270546, -0.29127997, 0.16620874, -0.02686455, 0.05992104, -0.04755343, -0.14276965, 0.20542134, 0.30383068 };

