#ifndef MLP_HPP
#define MLP_HPP

#include "hls_stream.h"
#include "ap_axi_sdata.h"
#include <ap_fixed.h>

#define INPUT_SIZE 784
#define HIDDEN_SIZE_0 256
#define HIDDEN_SIZE_1 128
#define OUTPUT_SIZE 10

/*
 * Define ap_axis data type
 * data: 32 bit data width
 * id: 2 bit used to differentiate streams
 * user: 5 bit custom metadata
 * dest: 6 bit destination of the data
 */
typedef ap_axis<32, 2, 5, 6> axi_stream;

// Fixed-point types:
// - weight_t: 8-bit fixed point with 1 integer bit (for weights)
// - fixed_t:  32-bit fixed point with 8 integer bits (for biases, activations, accumulators, etc.)
typedef ap_fixed<8, 1> weight_t;
typedef ap_fixed<32, 8> fixed_t;

/*
 * Union to represent different data types in the same memory location.
 * Used to reinterpret int as float or vice versa.
 */
union data {
    int intVal;
    float floatVal;
};

// Function prototypes

// Reads the AXI stream and stores the input as fixed_t values.
void read_stream(hls::stream<axi_stream> &in_stream, fixed_t input[INPUT_SIZE]);

// Writes the predicted label to the AXI stream.
void write_stream(hls::stream<axi_stream> &out_stream, int label);

// Fixed-point ReLU activation (zeroes out negative values).
fixed_t fixed_relu(fixed_t x);

// Compute first hidden layer using fixed-point arithmetic and fixed_relu.
void compute_layer0(fixed_t input[INPUT_SIZE],
                    fixed_t hidden1[HIDDEN_SIZE_0],
                    const weight_t w0[HIDDEN_SIZE_0][INPUT_SIZE],
                    const fixed_t b0[HIDDEN_SIZE_0]);

// Compute second hidden layer using fixed-point arithmetic and fixed_relu.
void compute_layer1(fixed_t hidden1[HIDDEN_SIZE_0],
                    fixed_t hidden2[HIDDEN_SIZE_1],
                    const weight_t w1[HIDDEN_SIZE_1][HIDDEN_SIZE_0],
                    const fixed_t b1[HIDDEN_SIZE_1]);

// Compute output layer (without activation quantization).
void compute_layer2(fixed_t hidden2[HIDDEN_SIZE_1],
                    fixed_t output[OUTPUT_SIZE],
                    const weight_t w2[OUTPUT_SIZE][HIDDEN_SIZE_1],
                    const fixed_t b2[OUTPUT_SIZE]);

// Compute softmax using floating-point arithmetic (after casting from fixed_t).
void compute_softmax(fixed_t output[OUTPUT_SIZE], float class_predictions[OUTPUT_SIZE]);

// Top-level function for the fixed-point MLP.
void mlp_fixed_forward(hls::stream<axi_stream> &in_stream, hls::stream<axi_stream> &out_stream);

// Auto-generated model parameters

// Parameter shapes (for reference):
// layer_0_weight[256][784]
// layer_0_bias[256]

// layer_1_weight[128][256]
// layer_1_bias[128]

// layer_2_weight[10][128]
// layer_2_bias[10]

static const weight_t layer_0_weight[256][784] = {
    { 0.00001303, -0.00000913, 0.00001636, -0.00000609, -0.00000988, -0.00001960, -0.00002494, 0.00002178, 0.00001960, 0.00001636, -0.00000462, -0.00000497, 0.00002495, 0.00001781, 0.00001493, -0.00001303, -0.00000673, -0.00000306, -0.00000673, 0.00001040, -0.00001493, 0.00000227, 0.00000677, 0.00000306, 0.00000765, 0.00003142, 0.00001340, -0.00000747, 0.00000462, 0.00001310, -0.00000497, 0.00000747, 0.00000552, 0.00000552, 0.00000746, 0.00000923, -0.00001984, -0.00001876, 0.00000324, 0.00000034, 0.00002067, -0.00000552, 0.00036378, 0.00061181, 0.00000631, 0.00000602, 0.00000966, -0.00000389, 0.00001999, 0.00001108, 0.00000161, -0.00001303, 0.00000893, -0.00000280, -0.00000373, 0.00000497, -0.00003327, -0.00000746, 0.00000552, -0.00001303, 0.00000677, 0.00001420, -0.00000667, -0.00001355, 0.00000323, -0.00000091, 0.00000511, 0.00000588, 0.00000820, 0.00036505, 0.00095409, 0.00180880, 0.00085968, -0.00127151, -0.00000135, -0.00000099, -0.00000083, 0.00000346, 0.00000155, -0.00000640, 0.00000424, 0.00002496, 0.00001310, -0.00000552, 0.00000118, -0.00001960, 0.00000293, -0.00000447, -0.00000833, 0.00000134, 0.00001530, -0.00000040, -0.00115364, 0.00010546, 0.00043450, 0.00152753, 0.00223588, 0.01151368, 0.00160193, 0.00307922, -0.00045405, -0.02367902, -0.00879125, -0.00247096, -0.02114532, -0.00018223, 0.00228076, 0.00072319, 0.00000093, -0.00163525, -0.00000073, -0.00001310, 0.00000462, -0.00000118, -0.00000488, -0.00000167, 0.00000415, 0.00000114, 0.00000082, -0.00040810, -0.00067570, -0.00051831, -0.00078220, 0.00188002, 0.00690974, 0.02751808, 0.04089282, 0.00606049, 0.01673281, 0.03251284, 0.01233368, 0.00684640, 0.00118314, 0.00190153, 0.00237277, -0.00220675, -0.00238016, -0.00197628, 0.00111173, 0.00000408, 0.00001140, -0.00000765, -0.00000953, 0.00000287, -0.00001129, -0.00000005, -0.00066822, -0.00563495, -0.00942961, -0.01170772, -0.02755550, -0.00187333, 0.03291484, 0.00162163, 0.01899822, 0.06775043, 0.01827382, 0.01082041, -0.01006980, 0.00600775, 0.00404494, 0.01281185, 0.00236408, -0.00141145, -0.00158986, -0.00003758, 0.00000045, 0.00000104, 0.00001303, -0.00001457, -0.00247707, -0.00155472, 0.00125093, -0.00510281, -0.01322400, -0.02701971, -0.01843197, -0.01138247, -0.01158491, -0.01634656, 0.00445789, -0.01507009, -0.00196112, -0.00338290, 0.04915222, 0.03758935, -0.01120177, -0.02218912, 0.00096590, -0.00506921, -0.01544472, -0.00288447, -0.01165371, 0.00024093, -0.00000580, 0.00000331, 0.00002178, -0.00000501, -0.00147234, -0.00071335, 0.00097376, -0.01407227, -0.01251473, -0.01900207, -0.00326303, 0.00417627, -0.00764096, -0.00023762, -0.03687610, -0.03882487, -0.05217681, 0.00740289, 0.03657933, 0.04471724, 0.00025432, -0.00600096, -0.02697910, -0.03252479, -0.03629991, -0.00867080, -0.00189230, 0.00415399, 0.00000094, 0.00000450, -0.00000893, -0.00003002, -0.00000048, 0.00036103, 0.00124717, -0.00120044, -0.00174358, 0.00485919, 0.01452773, 0.00462067, -0.00011891, 0.00592701, -0.00870792, -0.02272158, -0.01449025, 0.02544393, 0.04027631, 0.04644683, 0.01209361, -0.02716724, -0.05292240, -0.07729865, -0.03963187, 0.00068118, 0.00118904, 0.00374241, 0.00000214, 0.00000962, -0.00001774, -0.00000387, 0.00000342, -0.00000030, -0.00073515, 0.00036563, -0.00255033, 0.00539408, -0.00057372, -0.01215588, -0.03872208, 0.00180325, 0.00050585, -0.00767289, 0.01644401, 0.07084429, 0.04758617, 0.02920780, 0.02124216, -0.03051349, -0.08095850, -0.05845131, -0.01163804, 0.01542238, 0.00217976, 0.00049434, -0.00019532, -0.00000034, -0.00001705, 0.00000809, 0.00000364, 0.00000076, 0.00000023, 0.00028701, -0.00098853, -0.00675873, -0.01814988, -0.03451419, -0.00565175, 0.00178008, 0.03617423, 0.00257367, 0.05912494, 0.09571549, 0.04680123, 0.04822610, -0.00287944, -0.03970266, -0.09289565, -0.04445065, -0.02811825, -0.00558550, -0.00304799, 0.00165222, 0.00290840, 0.00000005, -0.00001018, -0.00000418, 0.00000142, 0.00000098, -0.00059359, 0.00125990, -0.00057111, -0.01094290, -0.03038917, 0.01489407, 0.00425527, 0.00836151, 0.08630994, 0.02093154, 0.06250335, 0.04226310, 0.09222652, 0.01683304, -0.05742868, -0.06580605, -0.05044442, -0.06066567, -0.02569293, -0.02646525, -0.01096033, 0.00060276, 0.00269735, 0.00000326, -0.00002178, 0.00000173, 0.00000003, 0.00076715, 0.00407974, 0.00147393, -0.01253504, 0.01684050, -0.00282160, -0.01657772, 0.00353260, 0.01463636, 0.04525076, 0.03456390, 0.01626378, 0.06876284, 0.06855994, 0.01327195, -0.03270262, -0.00794239, -0.00507374, -0.00090990, -0.01158192, -0.00340327, -0.00171189, -0.00026782, -0.00047140, 0.00000114, -0.00002397, 0.00000333, -0.00000186, 0.00373550, 0.00333734, -0.00023441, -0.01517543, -0.02574498, -0.01557579, -0.00078326, 0.02820966, 0.03201466, 0.04144908, 0.06547426, 0.03522616, 0.11014801, 0.09627789, 0.02003057, -0.00108862, -0.00540346, 0.04634416, 0.01659921, -0.00136804, 0.03442691, -0.00553717, -0.00133119, -0.00000626, -0.00001824, 0.00002462, -0.00001384, -0.00000164, 0.00231765, 0.00340148, -0.00429866, -0.03248808, -0.04447566, -0.01760620, -0.02637610, -0.00161328, -0.00437873, 0.02120258, 0.05584604, 0.06982114, 0.03691458, 0.07512350, 0.02870285, -0.01690512, -0.00139042, -0.03573391, -0.00052736, -0.00198423, -0.00609041, -0.00645861, -0.00137308, -0.00000549, 0.00002472, -0.00000262, 0.00000893, -0.00002450, 0.00000047, 0.00192567, -0.05193362, -0.02826344, -0.01989807, -0.00439463, 0.01936909, -0.02045243, -0.00259134, -0.01339774, 0.02512746, 0.10867542, 0.06197008, 0.01466689, -0.06073154, -0.08471242, -0.03553848, -0.02963928, -0.04204763, 0.00084827, -0.02859156, -0.00665108, -0.00015055, 0.00000267, -0.00001633, 0.00001310, 0.00000828, 0.00002959, 0.00181690, -0.00016567, -0.03824265, 0.01289136, -0.00611382, -0.00851136, 0.00810306, -0.03533882, -0.00771832, -0.02115123, 0.01831369, 0.02214496, 0.03560772, 0.00047657, -0.10179663, -0.09390159, -0.05761608, -0.08090283, -0.07570843, -0.04897004, -0.01615877, -0.00673022, 0.00043685, 0.00000006, -0.00000185, 0.00000893, -0.00000580, -0.00000251, 0.00056675, -0.00017666, -0.03224862, -0.02624684, 0.00568144, 0.01381558, 0.03340385, -0.00133084, -0.00202806, -0.00014671, 0.02830213, 0.01580734, -0.01943454, -0.04862340, -0.07258863, -0.09221094, -0.09895932, -0.04462531, -0.05565343, -0.04561115, -0.01326949, -0.00164559, 0.00000566, 0.00000685, -0.00000827, -0.00001799, 0.00000996, 0.00004784, 0.00069541, -0.02085771, -0.03575207, -0.03103851, -0.00183304, 0.00580153, 0.02634870, -0.01324696, -0.01632069, -0.00453976, -0.01847487, -0.01236760, -0.06250871, -0.09984400, -0.06399947, -0.07610279, -0.01692625, 0.00034249, -0.06478476, -0.02129959, -0.00771469, 0.00984124, -0.00000020, 0.00000701, 0.00000837, 0.00000122, -0.00287885, -0.00001327, 0.00001777, -0.03216986, -0.06569248, -0.03129061, 0.00084856, 0.01293886, 0.04619817, 0.00459917, -0.03183667, -0.03840265, -0.02278622, -0.04569697, -0.02711258, -0.01932791, -0.03843485, -0.03391183, 0.00702262, 0.00488739, -0.00353024, -0.00060110, -0.00026972, -0.00018555, -0.00000696, 0.00000846, 0.00000459, -0.00000765, -0.00001323, 0.00019436, -0.00009952, -0.01712554, -0.03826551, -0.00107658, 0.02483836, 0.00287660, -0.00934534, 0.03487213, -0.01019782, -0.02550345, -0.01941283, -0.00695818, -0.00726260, 0.02261538, 0.01418685, 0.03043523, 0.03061594, 0.02474805, -0.00321313, -0.00159282, -0.00754108, -0.00077493, 0.00000028, 0.00000405, -0.00000888, -0.00000627, 0.00000353, -0.00011466, 0.00011289, 0.00089843, -0.00458107, 0.01915403, 0.04127143, 0.02997592, 0.00632566, 0.02283973, 0.00653534, -0.00483281, -0.01878632, -0.00800952, -0.00931679, 0.01544043, 0.02199539, 0.04228247, 0.01860161, -0.00629640, 0.00883943, 0.00201107, -0.00006235, 0.00006078, 0.00000273, -0.00000052, 0.00001310, -0.00001360, -0.00003088, 0.00002641, 0.00205822, 0.00289883, 0.00071789, 0.01086275, 0.03507353, 0.02018334, 0.03386709, 0.00038103, 0.00563191, -0.02462084, -0.00310669, -0.01128495, 0.00648935, -0.03233153, -0.01724545, 0.02429675, 0.00307671, 0.01066760, 0.04552795, 0.00297336, -0.00072886, 0.00000746, 0.00000434, 0.00000197, -0.00002025, -0.00001303, -0.00000893, -0.00000859, 0.00072771, 0.00235861, 0.00121783, 0.00045310, 0.01938294, 0.00134442, 0.00039494, 0.01551140, -0.02230182, 0.01098398, 0.04322120, 0.01081283, -0.01135393, -0.01204348, 0.01355784, 0.06671991, 0.07051764, 0.02424170, 0.02005372, 0.00454080, 0.00227339, 0.00000095, 0.00000263, -0.00001418, -0.00000747, -0.00001140, -0.00000705, 0.00001492, -0.00002440, 0.00430653, 0.00120686, 0.00396467, 0.00425959, 0.00292775, -0.00480586, -0.00791070, 0.01568649, -0.00634371, -0.00414266, -0.00599638, -0.04098186, -0.01030274, -0.00560326, 0.01626240, 0.06239395, 0.03119965, 0.00905976, 0.00659057, 0.00280140, 0.00000013, -0.00000254, -0.00000536, -0.00001465, -0.00001303, 0.00003327, 0.00000595, -0.00015633, 0.00183575, 0.00194688, 0.00454454, 0.00446346, 0.00164700, -0.03123279, -0.00377769, -0.00552152, -0.02278044, -0.04657395, -0.01202503, -0.02934826, -0.02975221, -0.00141445, 0.00007816, -0.00282376, 0.00033421, 0.00287329, 0.00314774, 0.00052878, 0.00000034, 0.00000229, -0.00000789, 0.00004312, 0.00002462, -0.00000893, 0.00000496, -0.00000478, 0.00000068, 0.00000254, -0.00043870, -0.00104713, -0.00036547, 0.00002762, -0.00383118, -0.01697094, -0.03111668, -0.05016167, -0.03220608, -0.02425233, -0.03638151, -0.00153352, 0.00019123, 0.00083367, -0.00304658, -0.00304704, 0.00000449, 0.00000955, -0.00001258, 0.00002178, -0.00000673, -0.00003327, -0.00001140, 0.00000893, -0.00000306, 0.00000497, 0.00000149, -0.00002495, -0.00000183, 0.00000107, -0.00001200, 0.00001931, -0.00000066, -0.00000195, -0.00000387, 0.00000476, 0.00000051, 0.00000000, -0.00001355, 0.00000355, -0.00000625, -0.00000793, 0.00000305, -0.00001344, 0.00001108, 0.00000004, -0.00001826, -0.00000747, 0.00001303, -0.00001409 },
    { 0.00000118, -0.00002514, -0.00001409, 0.00000083, -0.00002178, -0.00000497, 0.00000893, 0.00000673, 0.00001310, -0.00000893, 0.00000735, 0.00002178, 0.00001548, 0.00000743, -0.00000757, 0.00000755, 0.00001409, -0.00002178, 0.00000609, -0.00000765, 0.00000652, -0.00001781, 0.00000280, 0.00002582, -0.00000118, 0.00001465, -0.00001303, -0.00001303, 0.00001826, -0.00002582, -0.00000765, -0.00000118, 0.00000887, -0.00000335, -0.00000848, -0.00003092, -0.00000377, 0.00001885, -0.00000345, 0.00000717, 0.00000043, -0.00000346, 0.00000952, -0.00000760, -0.00000705, 0.00001463, 0.00000947, -0.00000954, -0.00001860, -0.00001870, 0.00000187, 0.00002215, -0.00000083, -0.00001303, 0.00002178, -0.00000913, -0.00000595, 0.00000230, 0.00001301, 0.00000605, -0.00000020, -0.00001491, 0.00000880, 0.00000005, 0.00000721, 0.00000329, -0.00001196, 0.00000185, -0.00000216, 0.00000077, -0.00041478, -0.00041109, -0.00042496, -0.00019244, -0.00051964, -0.00006304, 0.00000306, -0.00000604, -0.00000245, -0.00001355, 0.00001117, 0.00001096, -0.00000462, 0.00000746, 0.00001140, 0.00000988, -0.00000877, 0.00000158, 0.00000690, -0.00007534, 0.00147509, 0.00106335, 0.00000142, -0.00000119, 0.00004742, 0.00116045, 0.00104559, -0.00031603, -0.00164787, 0.00353286, 0.00027436, -0.00060723, -0.00050705, -0.00114910, -0.00137632, -0.00008162, -0.00000058, -0.00000186, -0.00000030, 0.00000122, 0.00000954, -0.00004213, 0.00000083, 0.00001303, 0.00000247, 0.00001614, -0.00000200, 0.00163456, 0.00135685, 0.00087735, 0.00059175, -0.00058597, 0.00122982, 0.00312255, 0.00353676, 0.01244558, 0.02418475, 0.00354412, 0.01382597, 0.00285717, -0.00334077, -0.00319645, -0.00089921, 0.00037088, 0.00009650, -0.00028012, 0.00038525, 0.00202765, -0.00000218, -0.00000755, 0.00000227, -0.00001960, -0.00000746, 0.00000286, 0.00220631, 0.00248072, 0.00111824, 0.00053110, 0.00067379, 0.00001450, 0.00334485, 0.00742219, 0.02990047, 0.00150447, 0.04410987, 0.02721626, 0.02535615, 0.00597434, -0.00205219, 0.00889078, 0.00179366, -0.00062381, -0.00309248, -0.00036758, 0.00039577, -0.00003409, 0.00000162, 0.00001530, 0.00000552, -0.00000363, 0.00000218, 0.00244396, 0.00241878, 0.00199060, 0.00085400, 0.00109109, 0.00825605, 0.00836614, 0.00015093, 0.00985084, -0.00059273, 0.00815491, 0.00588802, 0.05124949, 0.02739730, 0.04596144, -0.00072044, 0.02978374, 0.00019850, -0.02088233, -0.00066568, 0.00208373, 0.00095623, 0.00091001, -0.00000629, -0.00003992, -0.00002195, -0.00000034, -0.00000042, 0.00207538, 0.00273906, 0.00348268, 0.00027632, -0.00865611, 0.01812747, -0.00138531, -0.00197107, 0.00320463, 0.01931340, 0.03407230, 0.00742778, 0.03686726, 0.00063789, -0.00417622, -0.02021341, 0.00850842, -0.00012361, 0.00901270, 0.00479763, -0.00054957, -0.00050796, 0.00122224, -0.00003379, -0.00000615, -0.00000678, 0.00001443, 0.00000025, -0.00007537, 0.00171150, 0.00096815, 0.00099682, -0.00086185, -0.00012869, -0.00604494, -0.00169615, 0.00021313, 0.01015158, 0.03040955, -0.01518650, -0.00206971, 0.00387209, -0.02334639, -0.01004682, 0.00715049, -0.00831484, 0.00112608, 0.00035125, -0.00035548, -0.00315712, 0.00177688, -0.00002416, -0.00000780, -0.00000576, -0.00000198, -0.00183934, -0.00186658, -0.00247932, 0.00048168, 0.00050755, -0.00226089, 0.00064943, 0.01152039, -0.03136162, -0.01825747, -0.00251900, -0.00022475, -0.02924576, -0.00136743, -0.00894193, -0.01844816, -0.02237589, 0.00221640, 0.00366381, 0.00223433, -0.00220497, -0.01007707, -0.00069480, 0.00122421, 0.00000094, 0.00000187, -0.00000805, 0.00000308, -0.00388121, -0.00251150, -0.00430935, 0.00118556, 0.00900118, 0.00818635, 0.00335663, 0.00822943, -0.03324985, -0.03016609, -0.02381897, -0.04427416, -0.02246201, 0.00033969, -0.02338627, -0.00331610, 0.00122404, -0.00939774, 0.00060755, -0.01252178, -0.02408572, -0.00060351, 0.00017189, 0.00001326, 0.00147334, 0.00000116, 0.00001116, 0.00001374, -0.00067909, -0.00116623, -0.00164869, 0.00228238, 0.01855824, 0.00412127, 0.02796436, 0.03137965, 0.00448483, -0.00196705, -0.00461830, -0.03726554, 0.01097409, 0.02131673, 0.01509955, -0.01351655, -0.00013136, -0.00179616, -0.00670519, -0.02988723, -0.01714591, -0.00034440, 0.00002753, 0.00159856, 0.00224844, 0.00000006, 0.00000010, 0.00001735, -0.00000064, -0.00050935, 0.00013652, 0.00212608, 0.00193250, 0.01705357, 0.00589671, -0.00685209, -0.00575390, 0.02096844, -0.00046686, 0.02161637, 0.00085002, 0.01349991, 0.05459420, 0.00912269, 0.00303926, 0.00303742, -0.00465210, -0.00124429, -0.00118744, 0.00095453, 0.00024846, -0.00000315, -0.00000217, -0.00001377, 0.00000132, -0.00000346, 0.00004619, 0.00002611, 0.00040751, 0.00083170, -0.00345173, -0.00307260, 0.01674682, 0.02307870, 0.03477557, 0.02678137, 0.00703015, 0.03465111, 0.04498592, 0.05441729, 0.03812207, 0.00843119, 0.00532888, 0.01557989, -0.00257112, 0.00029654, 0.00773076, 0.00130613, -0.00107446, -0.00000160, 0.00190979, 0.00237678, 0.00000957, 0.00000951, -0.00040599, 0.00004100, 0.00101115, -0.00017587, -0.00265965, -0.00352049, -0.00235288, -0.00063478, 0.00354314, 0.02383253, 0.05490427, 0.04836406, 0.06662912, 0.06786362, 0.02249295, 0.03196989, 0.01296026, -0.00166207, -0.00090294, -0.00577599, 0.00123725, -0.03015778, -0.03567342, 0.00093372, 0.00071609, 0.00000326, 0.00000097, -0.00001116, 0.00000553, 0.00006630, 0.00306655, -0.00242538, -0.00076342, -0.00484781, 0.00498276, 0.00130176, 0.02036884, 0.03867331, 0.04335511, 0.05053331, 0.06118477, 0.05438863, 0.01659825, 0.04015560, -0.00135349, 0.00686262, -0.02265901, 0.00328124, -0.00117680, -0.02007185, -0.03131406, -0.00089932, -0.00000491, 0.00000028, 0.00000647, -0.00001351, 0.00000199, 0.00005894, 0.00383791, -0.00834031, 0.00179098, -0.00037623, 0.00102689, 0.00202811, 0.05585545, 0.04489049, 0.04379343, 0.01992530, 0.05497586, 0.02861000, 0.03238815, 0.00743553, 0.02381928, -0.01147794, -0.01357388, -0.00867338, 0.00035238, -0.00244027, -0.00287121, 0.00051159, -0.00000292, -0.00000753, -0.00000462, -0.00001411, -0.00001289, 0.00001470, 0.00340827, 0.00038427, 0.00221765, 0.00538779, 0.02559970, 0.00116387, 0.01739113, -0.00172120, 0.00597682, 0.04505283, 0.04114729, 0.01484283, 0.05363761, 0.01734905, 0.01356661, 0.00071780, -0.00077150, 0.00212103, -0.00029482, -0.00921563, -0.00594636, 0.00000318, 0.00000354, -0.00001010, 0.00000729, 0.00001523, -0.00000163, 0.00000387, 0.00607483, 0.00133859, 0.05221477, 0.02221380, 0.03074498, 0.01094840, -0.00040250, -0.00293814, 0.04830103, 0.03684482, 0.02555669, 0.01906384, 0.00225790, -0.00118783, -0.00470787, 0.00766009, -0.00014700, 0.00119471, -0.01270153, -0.00081380, -0.00145861, 0.00051513, 0.00141031, 0.00072111, 0.00000215, -0.00268903, 0.00003326, -0.00000027, 0.00365184, 0.00468019, 0.01450053, 0.00743691, 0.00146063, 0.01466650, 0.02528664, -0.00175137, 0.02173669, 0.03672603, 0.00444997, -0.00229809, 0.00109012, -0.00107311, -0.00325922, 0.00770339, -0.00049094, 0.00208594, 0.00213521, 0.00931046, -0.00190757, 0.00000410, -0.00000061, 0.00001032, -0.00000306, 0.00000293, -0.00000039, -0.00000172, 0.00066867, 0.00878034, 0.02773886, 0.03069240, 0.01558386, -0.00036120, 0.01190909, 0.01522721, 0.00747152, 0.03049564, 0.00222577, 0.00568797, -0.00045627, -0.00665143, -0.01112444, -0.00653490, 0.00388586, 0.02243920, 0.01161576, -0.00030669, -0.00184814, -0.00022355, 0.00000907, 0.00001810, 0.00000368, 0.00000993, -0.00000261, 0.00000240, 0.00025616, 0.00326300, 0.00195098, 0.01263217, 0.02155683, 0.02118141, -0.00035589, 0.00814090, -0.00036490, 0.02108881, 0.00377366, -0.00280512, -0.00033254, 0.00198676, -0.00202529, 0.00111266, -0.00003611, 0.00004922, 0.00327033, -0.00016674, 0.00002315, 0.00000844, -0.00000300, -0.00001327, 0.00000240, -0.00001006, 0.00000056, -0.00000042, -0.00094546, 0.00027256, 0.00069491, 0.01513854, -0.00111222, 0.01043546, 0.00108666, 0.03714166, 0.00934990, 0.03971854, 0.00098160, -0.00049351, -0.01308686, -0.00185341, -0.01551938, 0.00012870, 0.00035133, 0.02792138, 0.00555510, 0.00014098, 0.00001585, 0.00000542, -0.00000129, -0.00000154, 0.00001078, 0.00001039, -0.00000263, -0.00000609, -0.00126550, -0.00019882, -0.00581104, -0.00078700, -0.00006203, -0.00251476, -0.00058763, -0.01662794, -0.00417076, 0.00866803, -0.00680196, -0.03574046, 0.00438123, -0.00614975, -0.00030130, 0.04519443, 0.06339862, 0.04972081, 0.03684903, 0.00146627, -0.00000063, -0.00000053, -0.00001178, -0.00000306, 0.00000673, 0.00000988, 0.00000026, -0.00245193, -0.00201930, -0.00066031, -0.00021313, -0.00928126, -0.00009086, -0.00027585, -0.00042978, 0.00146157, 0.00343141, -0.00004723, -0.00036535, 0.00594921, 0.02087740, -0.01029156, -0.00107526, 0.01389131, 0.01042247, 0.00269335, 0.00302637, 0.00069565, -0.00004926, 0.00000168, 0.00000299, -0.00000893, 0.00000080, -0.00000083, -0.00001768, -0.00262787, -0.00109148, -0.00000140, -0.00061476, -0.00237685, -0.00433094, -0.00329401, 0.01703801, 0.00073751, -0.00275504, -0.00078990, 0.01069450, 0.00670847, -0.00279734, -0.00252935, -0.00397010, -0.00348468, -0.00178765, -0.00071471, -0.00020318, -0.00015046, -0.00000276, -0.00000256, 0.00002137, -0.00002582, -0.00000673, 0.00000230, -0.00000462, 0.00001982, -0.00000224, 0.00000040, 0.00000081, -0.00000057, 0.00043013, -0.00019134, -0.00102360, 0.00295174, 0.00553006, 0.00189960, 0.00141647, 0.00013607, -0.00148902, -0.00133805, -0.00102792, -0.00199024, -0.00291653, -0.00136627, -0.00084235, -0.00126801, 0.00002577, 0.00001738, 0.00000673, 0.00002178, 0.00001465, -0.00000652, 0.00001589, 0.00004312, -0.00001485, -0.00001923, 0.00002585, 0.00000584, -0.00000096, -0.00001490, -0.00000100, -0.00000031, -0.00000300, -0.00000119, 0.00000477, -0.00000043, -0.00000004, -0.00000061, -0.00000168, -0.00000761, 0.00000145, -0.00016589, -0.00019566, -0.00001430, -0.00001303, 0.00000306, -0.00001960, -0.00002178 },
    { 0.00001078, -0.00000673, -0.00001310, 0.00001303, 0.00002462, 0.00000673, -0.00000661, -0.00001310, 0.00000418, 0.00000564, -0.00001310, -0.00002462, -0.00000497, 0.00000118, 0.00000765, 0.00001140, 0.00000552, -0.00000765, 0.00001203, -0.00001636, -0.00000373, 0.00000118, 0.00002030, 0.00000118, -0.00000746, 0.00000673, 0.00002411, -0.00000673, 0.00003142, 0.00002178, 0.00000893, 0.00000671, -0.00000133, -0.00004312, -0.00004213, 0.00000640, 0.00000765, -0.00001340, 0.00000459, -0.00001174, -0.00003991, -0.00000578, -0.00003382, 0.00002401, -0.00000120, 0.00000105, -0.00000147, 0.00001720, 0.00000147, 0.00254776, 0.00268875, 0.00000083, -0.00001310, 0.00001574, 0.00000552, 0.00000230, -0.00004312, -0.00000230, -0.00001140, 0.00000497, -0.00001971, -0.00001340, -0.00000214, -0.00000658, -0.00001654, 0.00000237, -0.00000162, -0.00007560, 0.00000080, 0.00252458, 0.00000001, -0.00273500, -0.00517856, 0.00004332, -0.00000165, 0.00194063, 0.00176473, 0.00180222, 0.00276809, 0.00215148, 0.00000198, -0.00000978, -0.00000082, -0.00000673, 0.00002435, 0.00002178, 0.00001075, -0.00001150, -0.00000670, 0.00000790, -0.00000199, -0.00001126, -0.00130720, -0.00673337, -0.06808962, -0.03992473, -0.06425205, -0.07543328, -0.02033144, -0.01542409, -0.02491378, 0.00000062, -0.00039278, 0.00242433, 0.00394068, 0.00541155, 0.00150038, 0.00009725, 0.00000058, -0.00069630, 0.00000063, 0.00002178, 0.00000913, 0.00001960, -0.00000264, 0.00000806, -0.00000534, 0.00000006, 0.00000503, 0.00000113, -0.00818885, -0.07986716, -0.11523779, -0.11521826, -0.09446793, -0.05092256, -0.05363835, -0.05615529, -0.03785748, -0.04151169, -0.01955351, -0.00081641, 0.02219199, 0.03800193, 0.03402012, 0.05053930, -0.00287943, -0.00413332, 0.00002412, 0.00000527, -0.00001781, -0.00000707, 0.00000475, -0.00000514, 0.00000661, 0.00000100, -0.00114968, -0.01085012, -0.09661245, -0.10362144, -0.08337747, -0.10535051, -0.07881381, -0.01673894, -0.04632022, 0.01075277, -0.03215402, 0.00043094, 0.02551608, -0.01081163, 0.00103114, 0.02551555, 0.02854859, 0.06893393, 0.01346806, -0.00107862, 0.00000048, 0.00000653, -0.00000609, -0.00000615, -0.00102590, -0.00127300, -0.00083304, -0.00109712, -0.01835413, -0.05284935, -0.05922064, -0.09497493, -0.07131642, -0.01030778, -0.00080835, -0.01858533, 0.00902694, 0.01760902, 0.05000916, 0.04920520, 0.01187123, 0.03650489, 0.00423723, 0.03789803, 0.06678107, 0.03919975, 0.00958109, -0.00262863, 0.00001039, -0.00000531, 0.00000263, 0.00000558, 0.00093737, 0.00090804, -0.00031596, -0.00315932, -0.06048605, -0.08232755, -0.05878601, -0.04538591, -0.06656208, -0.01056902, -0.00387997, 0.03045702, 0.06154116, 0.02310032, 0.01364301, 0.03855357, -0.00257604, 0.01752158, 0.03205469, 0.00386585, 0.03512093, 0.06079956, -0.01467563, -0.01234914, -0.00003625, 0.00000819, 0.00000468, -0.00001123, -0.00000094, 0.00077872, -0.00211757, -0.00631930, -0.00636676, -0.01868954, -0.01157736, -0.05074639, -0.06525190, -0.02749373, 0.00454064, 0.02019535, 0.05532457, 0.03638132, 0.01407961, 0.01658045, 0.00140340, -0.01203737, -0.05648297, -0.01229943, -0.01067508, -0.02322420, -0.02422010, -0.01392850, -0.00011388, -0.00000264, -0.00000381, 0.00001192, 0.00000156, -0.00289499, -0.00284278, -0.05262485, -0.04736858, -0.05548324, -0.04175805, -0.08196556, -0.02212555, -0.01993242, 0.00082311, 0.05371505, 0.06850958, 0.03352415, 0.02311430, -0.02552814, 0.00009131, -0.02501683, -0.03568473, -0.02377333, -0.03882427, -0.05587009, -0.00338038, -0.03224448, -0.00000020, 0.00000068, 0.00000290, 0.00000853, -0.00127226, -0.00282120, -0.00207117, -0.03148958, -0.09408829, -0.11644726, -0.07072724, -0.07010087, -0.04168907, -0.00186483, 0.02695692, 0.07528497, 0.07907817, 0.06978381, 0.01163852, -0.02073871, -0.01800755, -0.02618737, -0.04920869, -0.01518015, -0.01396237, -0.03379507, -0.04547378, -0.00147547, -0.00229270, 0.00000006, 0.00000108, -0.00000086, -0.00048844, -0.00146132, -0.00066752, -0.00215707, -0.07904012, -0.11690611, -0.06313200, -0.04381634, -0.01385495, 0.01457665, 0.06996962, 0.08009979, 0.04183248, 0.05563664, 0.01300617, 0.02609043, 0.01730131, -0.03996987, -0.02953822, -0.00331443, -0.00906205, -0.02451785, -0.04261063, -0.02739883, -0.00299159, 0.00000234, 0.00000497, -0.00000030, 0.00000084, -0.00045326, -0.00186557, -0.05020951, -0.08900446, -0.06101592, -0.04547362, -0.00843710, 0.02108691, 0.08214462, 0.08716639, 0.10287403, 0.08791966, 0.07939872, 0.06165293, 0.03721546, 0.04389068, 0.00609886, 0.00161765, 0.00226148, -0.02881685, -0.04537118, -0.03965824, -0.03900111, -0.00254288, 0.00000735, -0.00001045, 0.00000673, 0.00000835, 0.00000212, 0.00000104, -0.05665451, -0.08299642, -0.04268717, -0.07292871, -0.00907735, 0.03364830, 0.05917935, 0.06931143, 0.07151680, 0.10709669, 0.06404601, 0.09641251, 0.06043803, -0.02018939, -0.03311412, 0.00854619, -0.01623526, -0.05528109, -0.08393325, -0.06776557, -0.04152840, -0.01022506, 0.00000531, -0.00000752, -0.00000373, -0.00000574, 0.00000171, -0.00018695, -0.00380026, -0.08334270, -0.09199663, -0.07432453, -0.00205456, 0.03977318, 0.04039709, 0.09231963, 0.06839795, 0.05846703, 0.12496138, 0.07795545, 0.01816182, -0.04988111, -0.02627600, -0.01523277, -0.01255872, -0.06445738, -0.07771607, -0.07592589, -0.00048936, 0.00000090, 0.00001215, -0.00001316, 0.00001280, -0.00001026, -0.00186587, 0.00455187, 0.00109812, -0.08848476, -0.10544568, -0.07709053, -0.06110235, 0.03390424, 0.04531464, 0.04650594, 0.07495829, 0.08952818, 0.07152903, 0.11258415, 0.07150742, -0.00068214, -0.05972408, -0.01714105, 0.00498606, 0.00091109, -0.02201764, -0.04460669, -0.00377548, 0.00000772, 0.00000955, -0.00001636, -0.00000620, -0.00165838, 0.00115074, 0.04419979, 0.02791314, -0.08507004, -0.11832631, -0.09314042, -0.06026131, 0.01069918, 0.03732423, 0.02578204, 0.03018580, 0.04760246, 0.08510716, 0.07481112, -0.00822292, -0.07295906, -0.08834492, -0.05099348, -0.06221325, -0.06038191, -0.02132320, -0.04561120, -0.03913072, -0.00428401, -0.00000185, 0.00000913, 0.00000250, -0.00130341, -0.00082686, 0.01899143, 0.00208071, -0.06346226, -0.11406283, -0.06980791, -0.03139381, -0.00591812, -0.02650348, 0.02586474, 0.03781565, 0.07293889, 0.07707605, 0.00137270, -0.03111159, -0.11108708, -0.09583163, -0.03037537, -0.04253506, -0.00936211, -0.00307591, -0.00151475, -0.01534629, -0.00066161, 0.00000084, -0.00000400, 0.00000787, -0.00000678, -0.00339368, -0.00213587, -0.03541531, -0.08353271, -0.10690263, -0.09868100, -0.04012803, -0.02055952, -0.01516620, 0.02498571, 0.05483900, 0.07979128, 0.05784509, -0.03700839, -0.09554204, -0.12278599, -0.12717286, -0.02769485, -0.03532104, -0.05487911, -0.01916936, -0.02399879, 0.00258461, 0.00132893, 0.00000244, -0.00002125, -0.00272871, -0.00042551, -0.03526030, -0.01803220, -0.05905854, -0.07194681, -0.08926351, -0.06252726, -0.07504988, -0.02525350, -0.01100543, 0.00100102, -0.01324530, 0.04009958, -0.01712506, -0.06293438, -0.14349563, -0.11349250, -0.05674262, -0.02478614, -0.00458262, -0.05596088, -0.06100597, 0.00232039, 0.00392027, 0.00000128, -0.00000765, -0.00001140, 0.00000133, 0.00000267, -0.06822225, -0.05945989, -0.01296484, -0.04245464, -0.01769659, -0.04233374, -0.03806042, -0.00940108, -0.00165776, 0.01216197, 0.00117542, 0.04066262, -0.00241854, -0.04120925, -0.08170618, -0.09263349, -0.04867698, -0.01239732, -0.05515863, -0.04767084, -0.01231531, 0.00362908, 0.00172031, 0.00000004, -0.00000809, -0.00001501, 0.00000686, 0.00000322, -0.03333497, -0.01870122, 0.00704424, -0.00738960, -0.00316003, 0.03827098, 0.02481078, 0.00617591, 0.00761379, 0.03107536, -0.01022278, -0.01905821, -0.00711283, -0.02971266, -0.09259085, -0.04548812, -0.03889031, -0.00076199, 0.00745058, -0.01466193, 0.00125892, 0.00144914, -0.00000116, 0.00000272, -0.00000893, -0.00000162, -0.00001824, -0.00000090, -0.00728330, -0.00387393, 0.01350228, 0.04159800, 0.04777047, 0.06893823, 0.03554743, 0.06919429, -0.02428867, -0.01005641, -0.00658778, 0.01030536, -0.00509252, -0.01838837, -0.04283247, -0.06018832, -0.05040115, -0.03905552, -0.03149346, -0.01923713, 0.00070345, -0.00000016, -0.00000786, -0.00000068, 0.00000497, -0.00002495, 0.00001140, 0.00000035, -0.00841135, -0.04571456, -0.00618901, -0.00270933, 0.00962719, 0.04429172, 0.00497607, 0.03638447, 0.02430977, -0.00850693, 0.01145353, -0.02480619, -0.00543529, 0.00072639, -0.02919652, -0.03626075, -0.07703269, -0.08660032, -0.05805808, -0.00127277, -0.00010017, 0.00000095, 0.00000116, -0.00001538, -0.00001310, -0.00002178, 0.00001303, -0.00000146, 0.00098694, 0.00015462, 0.00752773, -0.00679657, 0.01997363, 0.00506063, -0.00303467, -0.00305649, -0.04915035, -0.02711681, -0.00903747, -0.05775706, -0.00240379, -0.02141722, -0.02603370, -0.00413543, -0.03019706, -0.00162892, -0.00145364, 0.00010481, 0.00168417, -0.00000181, 0.00000735, 0.00001863, 0.00000609, -0.00002414, -0.00001409, -0.00000448, 0.00267041, 0.00276675, 0.02657395, -0.00355626, -0.00474901, -0.00573181, -0.04311340, -0.02347329, -0.03431567, -0.02559938, -0.06469458, -0.00079798, -0.00807033, -0.02635246, -0.01765690, -0.02382699, -0.01706460, -0.00269590, 0.00004969, 0.00018033, -0.00000142, -0.00000142, 0.00000308, 0.00001017, -0.00002881, -0.00000652, -0.00001310, 0.00000083, 0.00001281, 0.00170321, 0.03116336, 0.05891735, 0.03703953, 0.00863461, 0.03225752, 0.03307905, 0.01162780, 0.01798411, -0.00000382, 0.07028825, 0.04330787, 0.02083923, 0.00795995, 0.00038315, 0.00082576, 0.00000050, -0.00001048, -0.00000342, -0.00001384, 0.00002178, 0.00000663, 0.00000462, 0.00000552, 0.00001140, -0.00000747, 0.00000765, 0.00000118, 0.00000203, -0.00000595, -0.00000091, 0.00000047, 0.00002106, 0.00001748, 0.00000885, 0.00000319, 0.00000741, -0.00000253, -0.00000274, 0.00000033, -0.00000353, -0.00000057, -0.00000169, 0.00002595, -0.00000673, 0.00001960, 0.00000083, 0.00001960, 0.00002178, 0.00004791, -0.00004213, -0.00000227 },
    { -0.00002881, -0.00001040, -0.00000893, -0.00000673, 0.00002178, -0.00001493, -0.00003142, -0.00002491, 0.00001466, 0.00000747, 0.00001040, 0.00000247, -0.00002400, 0.00001080, 0.00001240, -0.00000276, 0.00000893, -0.00001525, 0.00000462, 0.00004791, -0.00000083, -0.00000170, 0.00001303, 0.00000306, 0.00000306, 0.00001465, -0.00000893, 0.00000118, -0.00001960, 0.00001140, 0.00001303, 0.00004791, -0.00002175, -0.00000954, 0.00000697, -0.00001302, -0.00000513, 0.00000151, 0.00000183, -0.00000281, -0.00000020, 0.00002680, -0.00001744, -0.00000327, 0.00000193, -0.00000384, 0.00000385, 0.00001479, 0.00000749, -0.00000789, -0.00000102, 0.00000314, 0.00000230, 0.00000497, 0.00001465, -0.00000673, 0.00001340, 0.00000765, 0.00000673, 0.00002265, 0.00001328, 0.00003268, 0.00000051, 0.00001051, -0.00000719, 0.00000964, -0.00000143, -0.00000397, -0.00000037, 0.00000606, -0.00001614, -0.00001897, -0.00002226, 0.00000445, -0.00000031, -0.00000126, 0.00000156, -0.00000123, -0.00000168, -0.00000378, -0.00000709, 0.00000613, 0.00000765, 0.00000657, -0.00002178, -0.00002582, 0.00000306, -0.00001910, 0.00000827, -0.00000165, -0.00000771, 0.00000422, -0.00000076, 0.00000124, 0.00134484, 0.00218299, 0.00132097, -0.00060403, -0.00034074, 0.00299721, 0.00048805, 0.00056963, 0.00513999, 0.00090790, 0.00195449, 0.00200002, -0.00000111, -0.00000182, 0.00000061, 0.00042857, 0.00000051, 0.00000609, -0.00001310, -0.00000673, -0.00000903, -0.00000292, -0.00000747, 0.00000110, -0.00000126, -0.00000337, 0.00012378, 0.00054398, 0.00021693, 0.01950224, 0.02398066, -0.01462843, 0.00044937, 0.00310496, 0.00206105, -0.00107643, 0.00009693, -0.00116130, 0.00232950, 0.00345909, 0.00146879, 0.00583717, 0.00503917, 0.00121748, -0.00000333, 0.00000004, -0.00001825, 0.00000652, -0.00000525, 0.00000241, -0.00000407, -0.00000115, -0.00006617, 0.00024797, 0.01583489, 0.03958482, 0.03999851, 0.06040798, 0.04210154, 0.01732200, 0.02022734, -0.02124456, 0.00534147, 0.00005458, -0.01145832, -0.02670604, 0.00959068, 0.00117268, 0.00086558, 0.00027815, 0.00277175, 0.00058783, -0.00000260, -0.00000979, -0.00000673, -0.00000694, -0.00000938, 0.00000624, -0.00000306, -0.00111009, -0.01906217, 0.00216673, 0.05881820, 0.04314663, 0.04775795, 0.03305580, 0.00834782, 0.00468346, 0.00893641, 0.00556308, 0.01756547, 0.03368445, 0.02989271, 0.02377132, -0.00026244, -0.00115801, 0.00101973, 0.00029237, 0.00000803, 0.00239964, 0.00000037, -0.00001493, -0.00001040, -0.00000535, 0.00000163, -0.00000017, -0.00130170, -0.00202741, 0.00082539, 0.02211812, 0.04036727, 0.05679928, 0.04869641, -0.00182796, 0.00695702, 0.02002538, -0.01432421, 0.02702879, 0.02080803, 0.00190542, 0.03959879, 0.02426698, 0.00076997, 0.00237955, 0.00460758, 0.00159106, 0.00055243, 0.00281653, 0.00000871, -0.00000726, -0.00001636, 0.00002669, -0.00000506, 0.00000073, -0.00151044, 0.00054426, 0.03368733, 0.04449158, 0.05015516, 0.03648015, 0.00020699, 0.01323869, -0.00664380, -0.01355814, -0.00185901, -0.01827293, -0.00840451, -0.01572651, -0.01115519, 0.00931215, -0.01920359, -0.00055257, -0.00410323, 0.03427736, 0.05910543, 0.00304585, 0.00011867, -0.00000929, -0.00002178, 0.00000941, 0.00000167, -0.00000419, -0.00003911, 0.00467474, 0.03056047, 0.03624885, 0.01144601, 0.02502014, 0.00245185, -0.03753051, -0.02990223, -0.00816733, -0.02857613, -0.07613846, -0.08575831, -0.02207724, -0.00916127, -0.01816762, 0.00264601, -0.01159418, 0.00269505, 0.01073696, 0.04068010, 0.00292608, 0.00000433, -0.00000542, 0.00001439, 0.00000750, -0.00010510, -0.00002552, 0.00374020, 0.06244795, 0.03400595, 0.03757861, 0.03130454, 0.03394174, -0.01916748, 0.00334484, -0.00689939, -0.00012529, 0.00158421, -0.04719929, -0.03297994, -0.04851417, -0.01340235, -0.01590773, -0.01539903, 0.00104532, -0.00115862, 0.02820591, 0.03910958, 0.00029075, 0.00077960, -0.00000351, 0.00000673, -0.00000524, -0.00001055, -0.00001820, 0.03449415, 0.07144624, 0.05191002, 0.05130729, 0.00627882, 0.00004335, -0.00076568, 0.00564446, 0.00317129, 0.03346756, 0.02385275, 0.00818615, 0.00246707, -0.02395845, -0.03358087, -0.03320855, -0.02172788, -0.00672904, -0.00096991, 0.03595295, 0.06505774, 0.00965803, 0.00144143, 0.00000447, 0.00001310, -0.00000498, 0.00000545, 0.00324245, 0.04043109, 0.06552197, -0.00036435, -0.00273296, 0.00403778, -0.00302209, -0.00113132, 0.00222298, -0.01719886, 0.01700282, -0.02477874, 0.03307118, 0.00543163, 0.00935670, -0.00189198, 0.00100686, -0.00442541, 0.00705133, -0.00188342, 0.01621640, 0.00508309, -0.00000109, -0.00000086, 0.00001249, 0.00002668, -0.00000675, 0.00000097, 0.00149223, 0.02802572, 0.03110631, -0.00335671, -0.00192919, -0.02525043, 0.00030531, 0.01061405, 0.02651490, -0.01890885, -0.01340773, -0.00768005, 0.06299309, 0.01671516, -0.01746597, -0.01474380, -0.00067719, 0.02403393, 0.00596748, 0.00080157, -0.00017867, 0.00116875, -0.00000049, 0.00001735, -0.00028889, -0.00000894, -0.00002767, -0.00000691, 0.00001683, 0.00093615, 0.00061375, 0.00133464, -0.03437714, -0.04640634, -0.01215435, 0.01320608, 0.01970992, 0.01370874, 0.01835227, -0.00496404, 0.05527403, 0.04762260, -0.00196548, -0.00384778, 0.04846200, 0.00773569, 0.00697519, -0.00091440, -0.00223138, -0.01113356, -0.00061133, -0.00001202, 0.00000159, 0.00001960, -0.00000227, -0.00000683, 0.00004107, -0.00088067, -0.00695726, -0.00444553, -0.03042530, -0.05299689, -0.01507275, 0.00173449, 0.04684472, 0.00281555, 0.00094102, 0.00181020, 0.03687831, 0.01049915, 0.01490551, -0.00051202, -0.00105243, 0.00460143, -0.00017669, 0.00031344, -0.00504690, -0.01496683, 0.00000001, -0.00000344, -0.00000183, -0.00002178, -0.00000810, 0.00000770, 0.00003538, -0.00123008, -0.02547407, -0.01780540, -0.02765104, -0.00328140, 0.00150120, 0.03676609, 0.01628577, 0.01882727, -0.00871217, -0.01041830, 0.02680924, 0.03886900, 0.03099100, -0.00193832, -0.00037140, -0.00056581, -0.01688384, -0.03073164, -0.00428961, -0.02809804, 0.00000004, -0.00000068, -0.00001189, 0.00000673, -0.00002699, 0.00001070, 0.00003430, -0.00223441, -0.05685505, -0.00737415, -0.04216301, -0.00004799, 0.05074880, -0.00233397, 0.00595452, 0.02246540, 0.01439090, 0.03285132, 0.04600592, 0.00740000, -0.00139453, -0.00763725, -0.03615326, 0.00125787, -0.00291357, -0.00238479, -0.00618348, -0.00431146, -0.00000130, -0.00000111, 0.00000808, 0.00000008, -0.00000409, 0.00000579, -0.00039219, -0.01358760, -0.00233415, 0.01344759, 0.01558072, 0.03679508, -0.00022973, 0.04254017, 0.00339811, 0.00127184, -0.00045958, 0.00493639, 0.01477316, -0.03029090, -0.03401842, -0.02397704, -0.01907422, 0.00102992, -0.02744243, -0.02503984, -0.00171840, -0.00043191, 0.00000414, 0.00000081, 0.00000799, 0.00001139, 0.00237612, -0.00000862, -0.00149203, -0.01471736, -0.00461139, -0.00419587, 0.03058404, 0.04069311, 0.00508466, 0.02740089, -0.00144692, 0.00328717, 0.00324861, 0.00396983, 0.00267664, -0.06244074, -0.04963290, -0.03887115, -0.00898139, -0.01048097, -0.01787117, -0.00462652, -0.00244658, -0.00168674, -0.00210418, -0.00000239, -0.00000293, -0.00000673, 0.00000474, 0.00001121, 0.00000921, -0.03384626, -0.00149625, -0.00499940, 0.01561210, 0.01918388, 0.01605776, 0.02915287, 0.01122046, 0.01649665, 0.02117574, 0.00927548, -0.00293069, -0.01985423, -0.05624885, -0.07276137, -0.02201686, -0.00424370, -0.00901802, -0.00357988, -0.00284779, -0.00454473, -0.00147842, -0.00003345, 0.00000397, -0.00000048, -0.00000887, -0.00000743, -0.00000587, -0.00017287, 0.00050754, -0.00095374, 0.01212111, 0.00697922, 0.01339572, -0.01610431, -0.00189387, 0.02573636, -0.00036245, 0.00118174, -0.00700055, -0.03818376, -0.01599596, -0.04453508, -0.01315054, -0.00796465, -0.01024693, -0.00399278, -0.00014814, -0.00022989, -0.00000087, 0.00000499, -0.00000673, -0.00000678, -0.00002380, 0.00000019, -0.00056540, -0.00010545, 0.00033953, 0.00052647, 0.00994688, 0.02274149, 0.00766802, -0.00529703, 0.00938040, 0.04285091, 0.00386296, -0.01151687, -0.03503304, -0.00473205, -0.02798597, -0.01362826, -0.00040817, -0.02140533, -0.00159406, -0.00061209, 0.00012227, -0.00001038, 0.00000300, 0.00000451, -0.00000563, -0.00001310, -0.00000497, 0.00000312, 0.00000204, -0.00088609, 0.00113903, 0.00130790, 0.00262373, 0.01490671, 0.00491879, 0.00888003, -0.00955446, -0.02272790, -0.03021369, -0.02869049, -0.02661304, -0.02598882, -0.04328895, -0.02320641, 0.00338795, 0.00229912, 0.00014028, 0.00012433, 0.00024731, 0.00002577, -0.00000407, -0.00000595, -0.00001591, -0.00000057, 0.00000673, 0.00000132, 0.00000003, -0.00291723, 0.00096107, 0.00123778, 0.00182629, 0.01738594, 0.00185381, 0.01112040, 0.00663176, 0.01629787, -0.00406769, 0.00882733, -0.01872237, -0.00958791, -0.04320406, 0.00227618, 0.01844006, 0.00665725, -0.00036640, -0.00064647, -0.00011943, 0.00012481, -0.00000600, -0.00000916, 0.00001140, 0.00002582, -0.00000118, 0.00000524, 0.00000543, -0.00056218, -0.00065033, -0.00137757, -0.00241262, -0.00193275, -0.00128382, 0.02451187, 0.03671849, 0.01022791, -0.00228720, 0.04227937, 0.02848668, -0.00109809, -0.00143638, -0.00034097, 0.00577176, 0.00483497, 0.00100587, -0.00004081, -0.00004554, -0.00000242, -0.00001148, -0.00002002, 0.00001078, -0.00001960, -0.00003142, 0.00000673, -0.00000508, 0.00000461, 0.00000056, 0.00005805, 0.00022155, 0.00000144, 0.00008799, -0.00001804, 0.00260551, 0.00289911, 0.00377574, -0.00000129, 0.00043245, -0.00000027, -0.00042756, 0.00178023, 0.00256449, 0.00427873, 0.00052852, -0.00020507, -0.00065715, 0.00000402, 0.00001303, -0.00004312, -0.00001040, 0.00003142, 0.00000497, 0.00000609, -0.00001439, -0.00000783, 0.00001261, -0.00000597, 0.00000025, 0.00002326, 0.00000326, 0.00000095, 0.00000125, 0.00001268, -0.00000454, -0.00000043, 0.00000342, -0.00001057, 0.00000632, 0.00000455, -0.00000868, -0.00000135, -0.00013049, -0.00007068, 0.00004157, -0.00000083, -0.00000673, -0.00000280, 0.00004791 },
    { -0.00000139, -0.00004213, 0.00000795, -0.00002462, 0.00000609, 0.00000673, 0.00000609, 0.00002582, -0.00000462, -0.00000893, 0.00000227, 0.00000656, 0.00001140, 0.00000913, 0.00000893, 0.00001409, 0.00000656, 0.00001310, 0.00000497, 0.00001078, 0.00000497, -0.00001310, 0.00002491, 0.00000673, 0.00004312, -0.00000462, -0.00000771, 0.00001376, 0.00000004, -0.00000893, -0.00000227, 0.00001589, -0.00002495, -0.00001574, 0.00000566, -0.00000504, 0.00002270, 0.00000135, -0.00000163, -0.00001154, -0.00000725, -0.00001150, -0.00000714, 0.00000441, 0.00000350, 0.00002735, -0.00000428, 0.00001764, 0.00000037, -0.00069872, -0.00119321, 0.00002226, 0.00000893, 0.00003142, -0.00000552, -0.00000118, -0.00001960, -0.00001574, -0.00002178, 0.00001960, 0.00000652, 0.00000306, -0.00000556, 0.00000261, -0.00000217, 0.00000419, -0.00000521, -0.00000257, 0.00000045, -0.00000040, 0.00000030, 0.00000748, -0.00004279, -0.00311999, 0.00000962, 0.00000071, -0.00000818, 0.00000459, -0.00159280, 0.00000183, -0.00000567, -0.00001075, 0.00001465, 0.00001636, 0.00000673, 0.00002411, -0.00001539, -0.00000512, 0.00001678, -0.00000462, -0.00000950, -0.00001133, -0.00009921, -0.00064057, -0.00002985, -0.00059227, -0.02560615, -0.02657983, -0.03493854, -0.03193358, -0.04961555, -0.01069394, 0.00000102, -0.00174788, -0.00287248, -0.00086037, -0.00000004, -0.00000240, 0.00000391, 0.00000252, 0.00000609, 0.00000893, -0.00002435, 0.00000118, -0.00000152, -0.00000781, 0.00000169, -0.00000026, -0.00000124, 0.00001261, -0.00069863, -0.00732613, 0.00104263, 0.00389087, 0.00582832, 0.00098184, 0.00479766, -0.01686935, -0.00339641, -0.00333278, 0.00196749, 0.00074914, -0.00147658, -0.00006531, 0.00000390, 0.00031063, 0.00000206, 0.00152811, 0.00067158, -0.00000413, 0.00000462, 0.00000247, -0.00000009, 0.00000138, 0.00000020, 0.00166337, 0.02331308, 0.01540553, 0.00834089, 0.00218568, 0.00957149, 0.01189361, 0.07282693, 0.03066076, 0.03109214, 0.00445028, -0.00016641, -0.00308552, -0.01118910, -0.01502647, -0.05104902, -0.03568083, -0.02757589, -0.02785149, 0.00027907, 0.00102348, -0.00001261, 0.00001396, -0.00000656, 0.00001030, 0.00018178, 0.00068925, 0.00108458, 0.01426234, 0.04042272, 0.00955267, 0.04280244, 0.03646221, 0.03087589, 0.05356896, 0.06309202, 0.04890806, 0.00734793, 0.01211189, 0.00756906, 0.01207838, -0.00349554, -0.00002973, -0.00709334, 0.00323504, -0.02980115, -0.02525814, -0.01265049, 0.00108386, 0.00000964, 0.00000550, -0.00001079, -0.00001186, 0.00008645, 0.00060775, -0.00031875, -0.00368265, 0.01690731, -0.00395490, 0.01735411, 0.04949192, 0.01806722, -0.00673736, 0.01051468, 0.02189449, 0.01365470, 0.00058175, 0.01884568, 0.02011908, 0.00270991, 0.03738514, 0.00470271, 0.00640945, -0.00048703, -0.00111622, -0.00307233, 0.00125181, -0.00000047, -0.00000360, 0.00000388, 0.00001850, -0.00000062, 0.00024396, 0.00810436, 0.00096870, 0.00250485, 0.03255107, 0.03101219, 0.02815951, 0.03079775, -0.01303563, 0.00237644, 0.04199333, 0.04972588, 0.05848126, 0.02805595, -0.00423512, 0.03891087, 0.00614451, 0.02182902, 0.00135964, 0.00419078, 0.00157149, 0.00010669, 0.00149207, 0.00003871, -0.00000532, 0.00002568, -0.00000131, 0.00000394, -0.00163918, -0.00117740, -0.00575176, 0.00427505, 0.03256058, 0.00285453, -0.00541552, -0.01055073, 0.00816842, 0.01701985, 0.04290999, 0.05244624, 0.00971304, 0.03148741, 0.01929624, -0.00924699, -0.00734323, 0.02070186, 0.00429551, 0.00391576, 0.00646068, -0.00816162, 0.00282174, -0.00003974, -0.00000045, 0.00001080, 0.00001329, -0.00001889, 0.00154777, 0.00019903, -0.00453029, 0.00230461, -0.00435718, -0.00293016, 0.00499501, -0.00781670, -0.02382357, 0.00667386, 0.00086891, 0.01214541, 0.01317970, 0.00106946, -0.03666066, -0.01143237, 0.00250003, 0.02055621, 0.00412797, 0.02511607, 0.00429003, 0.00224467, 0.00220509, 0.00014177, 0.00000238, 0.00000979, -0.00001542, 0.00000503, 0.00246431, 0.00051119, -0.00196961, 0.00341160, -0.00083039, -0.01094068, -0.02201599, -0.00457235, -0.00380151, -0.00944705, 0.00153485, -0.00119154, 0.03394704, 0.01941794, 0.02889893, -0.00573280, -0.01918850, 0.03875495, -0.00472160, 0.01175760, 0.00217434, 0.00116640, 0.00133335, 0.00139879, 0.00000250, 0.00002074, -0.00000741, -0.00000268, 0.00337990, 0.00185152, 0.01658493, 0.00097576, -0.00980089, -0.01314427, -0.01501240, -0.03017782, -0.02425868, -0.00404399, 0.00150874, 0.06622019, 0.10599934, 0.06620447, 0.02103212, 0.00146213, -0.00616512, 0.02292747, 0.00549112, 0.00089776, 0.00155342, -0.00075651, -0.00156833, -0.00177303, 0.00005084, 0.00000137, 0.00002762, 0.00001370, 0.00234715, 0.02145134, 0.00369406, -0.01649367, -0.04993694, -0.01457334, 0.00194147, -0.00098363, -0.00854784, -0.00907084, 0.02548672, 0.08163551, 0.11410465, 0.09485517, 0.02157803, -0.00037902, -0.01241081, 0.00665078, 0.01632352, 0.00276425, -0.00198743, -0.00949603, -0.00000149, -0.00366097, -0.00278680, 0.00001317, 0.00003112, 0.00004627, 0.00001727, -0.00099844, -0.01297143, -0.04163894, -0.03937722, -0.04753460, -0.02570884, 0.00173688, 0.00309687, 0.03254156, 0.01791197, 0.08322384, 0.09018067, 0.06832340, 0.02083164, -0.00643304, -0.01246828, -0.00102067, 0.00760622, 0.00838937, -0.00053079, -0.00776274, -0.00236159, -0.00209917, 0.00000990, -0.00001575, -0.00000711, 0.00001664, -0.00003734, -0.00151583, -0.04098062, -0.07497751, -0.05332594, -0.03967197, -0.00734608, 0.00414427, 0.02169767, 0.03333454, 0.01159132, 0.07535522, 0.04846117, 0.04430605, 0.03710736, -0.01226304, -0.00937090, 0.00363480, 0.01131033, 0.03898146, 0.00724026, -0.02528081, -0.00057269, -0.00000086, -0.00000249, -0.00000306, 0.00001080, -0.00001272, -0.00014946, -0.00056891, -0.04291552, -0.02729804, -0.01777488, -0.03074215, -0.00324910, 0.01149059, -0.00421081, 0.02861654, 0.04057276, 0.07596502, 0.03212999, 0.05043768, 0.01357681, 0.00527345, -0.04300947, -0.01020369, 0.00621072, 0.00194789, -0.00220431, -0.02407196, -0.01105028, -0.00390779, 0.00000253, 0.00001960, 0.00004048, -0.00010950, -0.00056328, -0.00607617, -0.06119090, -0.02900940, -0.01867791, -0.00645626, -0.01062921, -0.07691939, -0.02767646, 0.01240905, 0.03495829, 0.04679077, 0.03569932, 0.00335440, 0.01210031, -0.04521951, -0.04645349, -0.04139929, -0.00088286, -0.02701671, 0.00036502, -0.00632425, -0.00385571, -0.00000351, 0.00000335, 0.00000090, -0.00000181, 0.00000457, -0.00012237, -0.01926211, -0.06074915, -0.03909018, -0.02076285, -0.06036262, -0.03051868, -0.04841255, -0.04391059, -0.01535594, 0.00374276, 0.00094071, -0.01490702, -0.01013737, -0.00366990, -0.07046308, -0.02591245, 0.00050106, -0.00239321, -0.00413231, -0.03578135, -0.00642277, -0.00002912, -0.00000180, 0.00000501, 0.00000151, 0.00145748, -0.00001198, 0.00002254, 0.00088706, -0.02691535, -0.04393562, -0.01155347, -0.02555446, -0.03081319, -0.06837810, -0.09948137, -0.03943342, -0.00604913, -0.03367633, -0.00550911, -0.00079167, -0.03667028, -0.03963895, -0.02972510, -0.04289394, -0.02975756, -0.01720801, -0.01410632, -0.00754231, 0.00000109, -0.00072444, 0.00000991, -0.00000139, 0.00000926, 0.00023249, 0.00008219, 0.00301002, -0.01409791, 0.00025100, -0.01493797, -0.02733198, -0.03541644, -0.00840882, -0.05662329, -0.04528246, -0.00474007, -0.02084455, -0.00445593, -0.04310966, -0.04262415, -0.07822192, -0.02807206, -0.05697972, -0.04115628, -0.00255992, -0.00302073, -0.00686618, -0.00003048, -0.00001169, -0.00001043, 0.00000305, -0.00000645, -0.00005662, 0.00008906, 0.00236536, 0.00996336, 0.02094878, 0.00156963, -0.00489444, 0.00315661, -0.00579728, -0.00402319, -0.02483558, -0.02014006, -0.00762895, -0.00765708, -0.00156919, -0.02601206, -0.08336338, -0.02927091, -0.02089920, -0.02978564, -0.02387625, -0.01219635, -0.00142251, 0.00000775, 0.00000176, -0.00000673, -0.00002025, 0.00001567, -0.00000097, 0.00129038, 0.00387585, 0.01105017, 0.06416882, 0.05263194, 0.03040240, 0.00900106, 0.01361409, 0.00468773, 0.01954570, 0.01449444, 0.02635713, -0.00150283, 0.00286701, -0.01021032, -0.05263773, -0.03356687, -0.03425756, -0.03449323, -0.00937606, -0.02451833, 0.00000789, 0.00000016, -0.00001265, -0.00001303, 0.00000771, 0.00001960, -0.00001130, 0.00061775, 0.00224517, 0.00353488, 0.01113991, 0.06746966, 0.01208009, 0.00299059, 0.03491801, 0.01091079, 0.01120163, 0.02921898, -0.00112865, 0.02336122, -0.02731285, -0.00103254, 0.00103738, -0.00275882, -0.02487209, -0.01730176, -0.03930955, -0.01220059, -0.00000243, 0.00000170, -0.00001255, -0.00000306, -0.00000652, -0.00000893, -0.00000159, 0.00125094, 0.00499383, 0.03417236, 0.06096764, 0.03061065, 0.02425397, -0.00978921, 0.02672206, 0.02348148, -0.00198224, -0.00025370, 0.00170058, -0.00401159, -0.03270501, -0.05905024, -0.04542954, -0.00159698, -0.01167517, -0.03190016, -0.00690815, -0.00000054, 0.00000073, 0.00000414, 0.00000334, 0.00001140, 0.00000351, -0.00000593, -0.00002068, 0.00249884, 0.00371547, 0.00203863, 0.00868092, 0.03496214, 0.03235408, 0.03025932, 0.03552175, 0.01014018, 0.01884185, -0.00339859, 0.01199256, -0.01352410, -0.01272330, -0.01480416, 0.00044585, 0.00093308, -0.00051953, -0.01625454, -0.00290287, -0.00000015, -0.00000494, 0.00000350, 0.00000027, -0.00003327, -0.00001310, 0.00000609, 0.00001960, 0.00000990, 0.00000459, 0.00000002, -0.00000285, 0.00000038, 0.00120348, 0.02926051, 0.00641865, 0.00054209, -0.00019459, -0.00039948, 0.01471721, -0.00022712, 0.00000098, 0.00057403, 0.00047693, 0.00102701, -0.00143678, -0.00162932, 0.00000521, -0.00000429, -0.00000275, 0.00000682, 0.00002881, -0.00000373, -0.00000673, 0.00002435, 0.00000083, 0.00000673, 0.00002270, 0.00001137, 0.00001378, -0.00000355, 0.00000200, -0.00000927, -0.00000053, 0.00000662, 0.00000308, 0.00000070, -0.00001927, 0.00000519, 0.00000531, 0.00000024, 0.00000107, 0.00000710, 0.00001059, 0.00002561, 0.00000683, 0.00000893, -0.00001303, -0.00001781, 0.00001078, 0.00001960 },
    { 0.00000497, 0.00000747, -0.00003327, 0.00000497, -0.00000230, 0.00002582, -0.00003142, 0.00001303, -0.00001078, -0.00000765, 0.00000552, 0.00000893, 0.00000278, -0.00002079, 0.00000104, -0.00000473, -0.00001258, -0.00001960, 0.00000678, 0.00001078, 0.00000673, 0.00000306, -0.00000673, -0.00001078, -0.00000462, -0.00003141, -0.00001574, 0.00000497, -0.00001636, -0.00001825, 0.00001303, -0.00002494, -0.00001324, -0.00000253, 0.00000353, 0.00000515, -0.00000271, -0.00001335, -0.00002230, 0.00000283, 0.00000118, -0.00089200, 0.00000301, 0.00000277, -0.00000274, -0.00004373, -0.00002432, -0.00000026, -0.00000412, -0.00186036, -0.00214255, 0.00000366, 0.00000893, 0.00000462, -0.00000083, 0.00000227, 0.00001465, 0.00000552, -0.00000268, 0.00000411, 0.00000583, -0.00000147, -0.00001123, -0.00000086, -0.00000545, 0.00000256, -0.00051143, -0.00100307, 0.00135903, -0.02253300, -0.01055241, -0.00568164, -0.00463365, 0.00036706, -0.00058648, -0.00087297, -0.00001121, -0.00011309, -0.00226704, -0.00101430, 0.00002202, -0.00002523, 0.00001591, -0.00000656, -0.00001573, -0.00000673, -0.00001090, -0.00000019, 0.00000085, -0.00000025, -0.00000010, 0.00257454, -0.01827503, -0.02531894, -0.02502434, -0.03111521, -0.03743657, -0.04938996, -0.02034090, -0.05102991, -0.04915656, -0.01821204, -0.00254313, -0.00154668, 0.00062022, 0.00048083, -0.00026914, -0.00000460, -0.00000425, 0.00001163, -0.00000893, 0.00000746, -0.00004312, -0.00000893, -0.00001051, 0.00000695, 0.00000406, -0.00000107, -0.00000017, -0.01850379, -0.04698277, -0.06907114, -0.07048313, -0.05625243, -0.06579808, -0.05140295, -0.04827598, -0.04945138, -0.06026182, -0.00885206, -0.00032660, 0.00007676, 0.00222839, 0.01173942, 0.01587885, 0.00659244, 0.00338746, 0.00085456, -0.00000059, 0.00001403, -0.00000893, -0.00000652, -0.00003665, 0.00000168, -0.00038897, -0.00000053, 0.00007735, 0.00226316, -0.00800086, -0.03732428, -0.05514057, -0.01535888, -0.00524292, -0.07562809, -0.05983501, -0.02226654, -0.02639520, -0.00051672, -0.04270638, -0.04107773, -0.01092015, 0.00152219, 0.00386879, 0.00255846, 0.00233237, 0.00166380, 0.00000442, 0.00000959, -0.00000609, 0.00000407, 0.00225432, 0.00129143, 0.00027580, 0.00271777, 0.00400706, 0.01258696, 0.00092024, 0.00212969, -0.00053132, -0.03527721, 0.00118907, 0.01643500, -0.01478113, -0.00307993, 0.00404305, 0.00143062, -0.02574551, 0.00764336, 0.01846490, -0.00532361, 0.00659152, 0.02455805, 0.00541527, 0.00018708, 0.00000482, -0.00000094, -0.00000808, -0.00000213, 0.00074647, 0.00301157, 0.00025049, 0.00493938, 0.00732941, 0.00198171, 0.02078322, -0.01173555, 0.00116376, 0.01241087, 0.05484598, 0.05602302, 0.02158870, 0.02492603, 0.00057029, 0.00614603, 0.01444871, 0.00459324, 0.04557445, -0.00134757, 0.00106615, 0.03833249, 0.03483490, -0.00091539, -0.00000688, -0.00003150, 0.00000205, -0.00000294, -0.00000312, 0.00056937, -0.00139067, 0.00021765, 0.00186931, 0.00078493, -0.00517812, -0.00455434, 0.03370387, 0.01845141, 0.03700599, 0.02561145, 0.05089590, 0.05374750, 0.03884714, 0.01172843, 0.03072504, -0.00448631, 0.02512551, 0.03325337, 0.05137498, 0.04210999, 0.05977920, 0.01182536, 0.00001066, 0.00000716, 0.00000724, 0.00001104, -0.00252757, -0.00111021, -0.00260028, 0.00070407, 0.01696089, 0.00631355, -0.00145372, 0.00789623, -0.00041020, 0.02196469, 0.03982155, 0.00020586, 0.00277724, 0.02002437, 0.03446034, 0.00532159, -0.02083103, 0.00831957, 0.01765783, 0.04305327, 0.06457431, 0.01354456, -0.00139207, 0.00043064, 0.00000026, 0.00000347, 0.00000650, -0.00000575, -0.00239805, 0.00057490, -0.00142760, 0.00151432, 0.00832440, 0.02105209, 0.04774500, 0.03127494, 0.04422224, -0.00110155, -0.02257874, -0.07806085, -0.08466548, -0.01284691, -0.04870972, -0.06660531, -0.05643020, 0.00209520, 0.01240019, 0.02862948, 0.02172028, -0.00075195, -0.00066421, 0.00037914, 0.00002980, -0.00000111, 0.00000314, -0.00000025, -0.00077399, 0.00047778, 0.00022967, 0.01527416, 0.03900938, 0.02166206, 0.03531721, 0.02007996, -0.01092187, -0.07595487, -0.06806924, -0.12480168, -0.08100781, -0.04166415, -0.04807721, -0.08545820, -0.07293369, -0.00153968, -0.00677102, 0.01058708, 0.01369434, -0.00245754, -0.01759684, 0.00000123, -0.00001017, -0.00000148, 0.00000824, 0.00000993, -0.00000281, 0.00097604, 0.00179481, 0.03213574, 0.03666949, 0.01917668, 0.03912329, 0.00052306, 0.00420610, -0.04302623, -0.07627204, -0.05166870, -0.02462158, -0.02944031, -0.02221327, -0.01793859, -0.00036260, 0.00274478, 0.02564907, -0.00087069, -0.00111048, -0.00180422, -0.00364662, -0.00085379, -0.00124533, -0.00000717, 0.00000360, 0.00002174, 0.00000068, 0.00160695, 0.00120165, 0.04510925, 0.02432283, 0.05498518, 0.04865200, 0.03416007, 0.00544060, 0.00304909, 0.00254340, -0.00084524, -0.01077718, -0.00767855, 0.02430471, 0.00238676, 0.04903365, 0.01016921, 0.04074237, 0.01335238, -0.00022740, -0.05806684, -0.00122664, -0.00060710, -0.00175418, -0.00121168, -0.00000319, 0.00000699, -0.00001423, 0.00000154, 0.01297184, 0.02060996, 0.00849913, 0.01799439, 0.03848861, 0.05633841, 0.07412264, 0.06840302, 0.07467210, 0.04893640, 0.05810202, 0.06025308, 0.04970120, 0.08074908, 0.04565239, 0.03276668, 0.01806937, -0.00225907, -0.01438551, -0.01450609, 0.00076763, -0.00269360, 0.00000038, 0.00000981, 0.00001777, -0.00000069, 0.00000391, 0.00081132, 0.00917287, 0.00626432, 0.01701738, 0.03034805, 0.04638841, 0.04163560, 0.07511670, 0.10088246, 0.11819006, 0.03302529, 0.06680795, 0.02867268, 0.07564426, 0.05140155, 0.02683364, 0.03187481, -0.00716704, -0.00435643, 0.00689584, -0.00227355, -0.02973543, -0.00254179, 0.00046131, -0.00001455, -0.00000652, 0.00000612, -0.00000090, 0.00305650, 0.00192343, 0.02380178, 0.02109259, 0.01157435, 0.02068473, 0.06400310, 0.03366622, 0.05506743, 0.08715008, 0.08841527, 0.05868175, 0.04267057, 0.03944025, 0.08431106, 0.02930005, 0.01931451, 0.02728398, 0.03818730, 0.00744868, -0.00970786, -0.01181158, -0.00305298, -0.00229855, -0.00000232, 0.00000230, -0.00000921, 0.00000177, 0.00199153, 0.00106964, 0.00047052, 0.00430029, 0.01668716, -0.00286546, 0.00188438, -0.02323047, 0.01716056, 0.06524640, 0.04001286, 0.04646545, 0.03282372, 0.00419333, 0.03243632, 0.05395443, 0.00069060, 0.00120423, 0.03330841, 0.00501125, -0.02134270, -0.02983085, -0.00461705, -0.00000024, 0.00001568, 0.00001241, -0.00000366, -0.00000461, 0.00069319, -0.00482840, 0.00484917, 0.00949675, -0.02625727, -0.02188795, -0.03740007, -0.00220704, 0.00220382, -0.00220009, 0.00102274, -0.02243422, 0.02514818, 0.00748072, 0.00093453, -0.01403951, -0.00613498, 0.00214284, 0.02417748, -0.00658832, -0.03797116, -0.02577030, -0.00167974, -0.00000089, 0.00000316, 0.00000462, -0.00197848, 0.00000087, -0.00046150, -0.01201044, -0.01640465, -0.01848768, -0.04815874, -0.06034638, -0.08733711, -0.07818189, -0.05211341, -0.07720140, -0.06033568, -0.03743149, 0.00266998, 0.01073552, -0.00177359, -0.00046167, 0.00084513, 0.00353878, 0.00419943, -0.03715158, -0.02842322, -0.00247456, -0.00001227, 0.00001799, -0.00000732, 0.00001409, 0.00000377, 0.00000227, -0.00120302, -0.01837454, -0.03139865, -0.03534270, -0.07612400, -0.08958677, -0.05291770, -0.06889991, -0.07321076, -0.02334885, -0.03282730, 0.00115551, 0.01224108, -0.00139743, -0.01888809, -0.00952865, -0.00728757, 0.00003565, 0.02126661, -0.00010170, 0.00259937, 0.00106804, 0.00000183, 0.00000725, 0.00000892, -0.00002178, 0.00001664, 0.00001938, -0.00069260, -0.00254183, -0.02024153, -0.04269518, -0.07451434, -0.02189763, -0.06049329, -0.04213695, -0.01833274, -0.00860981, -0.00546560, -0.02327051, 0.00797371, -0.00839910, -0.00819937, -0.00399065, 0.00717319, -0.00317471, 0.00378119, 0.02294152, 0.00948279, 0.00007498, 0.00001023, 0.00000285, 0.00001310, 0.00000893, 0.00001350, 0.00001498, 0.00000093, -0.00057205, -0.00910086, -0.05049451, -0.01115209, 0.00353230, -0.04007788, -0.00541607, 0.00553845, 0.00168161, -0.00462636, -0.04794970, -0.03844578, -0.05554800, -0.04401716, -0.02491597, -0.00015278, 0.00139521, 0.00429610, 0.04350331, 0.01927787, -0.00000302, 0.00000011, -0.00001076, -0.00000913, 0.00001140, 0.00001960, -0.00000267, -0.00000049, 0.00246249, 0.00203646, 0.00677554, 0.02070535, 0.00368559, -0.00480247, 0.01876109, 0.01103550, 0.00959824, 0.00104305, 0.00132195, -0.02368388, -0.03911556, -0.03828539, -0.00672344, -0.01108749, 0.00087854, 0.01604662, 0.00237490, -0.00002913, 0.00000152, 0.00000304, -0.00000047, -0.00002881, -0.00002495, 0.00000673, 0.00000209, 0.00084942, 0.00204344, 0.00028484, 0.05182958, 0.01517511, 0.00185673, 0.00081659, 0.03565983, 0.03837553, -0.00053945, 0.01120939, 0.01097513, -0.00547181, 0.00942990, -0.00414562, -0.00249895, 0.00079826, 0.01506098, 0.02196534, -0.00017056, -0.00000977, -0.00000057, -0.00000204, -0.00000023, -0.00003327, -0.00000595, 0.00002491, -0.00000547, 0.00244641, 0.00210695, 0.00396215, 0.02737323, 0.02916298, 0.03026408, 0.06776816, 0.07339416, 0.05339880, 0.02407874, 0.05170137, 0.00598716, 0.02452524, 0.00040116, 0.00181515, 0.00184164, -0.00149392, -0.00181029, -0.00102899, 0.00001047, 0.00000250, -0.00000429, -0.00001102, 0.00000417, -0.00000893, 0.00001303, -0.00000765, -0.00000765, 0.00000797, -0.00000444, -0.00000000, -0.00000170, -0.00033083, -0.00103197, -0.00142002, -0.00038192, -0.00004012, 0.00123482, -0.00024645, -0.00025692, -0.00144888, -0.00104005, 0.00071948, -0.00204520, -0.00316474, -0.00447287, -0.00236480, 0.00000260, 0.00001117, -0.00000170, -0.00000399, 0.00001140, 0.00002881, 0.00003141, 0.00001825, 0.00001303, 0.00000673, -0.00002310, 0.00001788, -0.00000958, 0.00000456, -0.00000585, 0.00000012, 0.00000970, 0.00000696, 0.00000331, 0.00001028, -0.00000116, -0.00000168, 0.00000582, 0.00001026, -0.00000062, -0.00000104, -0.00000340, -0.00000139, -0.00000102, 0.00001145, 0.00002491, 0.00001040, -0.00000673, -0.00001508 },
    { 0.00004312, 0.00000987, -0.00001465, 0.00001310, 0.00001465, 0.00000373, 0.00002025, 0.00001825, -0.00000765, -0.00000118, 0.00000988, 0.00001303, 0.00000118, 0.00000118, -0.00000485, -0.00001254, -0.00000747, -0.00000564, 0.00001340, -0.00002462, 0.00001960, -0.00001078, 0.00001303, 0.00002881, 0.00001258, 0.00004312, -0.00000118, -0.00000227, -0.00000673, -0.00000230, 0.00001960, 0.00001303, 0.00001310, 0.00000896, -0.00000291, -0.00000912, 0.00000295, -0.00001316, -0.00000219, -0.00000559, -0.00001563, 0.00001427, -0.00000312, -0.00000406, -0.00000406, -0.00001955, -0.00002761, -0.00000072, -0.00000647, -0.00001230, -0.00000224, -0.00000800, -0.00001340, -0.00002025, -0.00003142, -0.00000835, -0.00000673, -0.00000609, 0.00000898, 0.00000224, -0.00000290, -0.00000388, 0.00000484, 0.00002076, -0.00000265, 0.00000947, 0.00000037, 0.00000064, -0.00000266, -0.00071846, -0.00011382, -0.00031711, -0.00027076, -0.00028573, -0.00024576, 0.00000293, 0.00000346, -0.00000732, -0.00001100, 0.00002433, 0.00001782, -0.00000549, 0.00001310, -0.00002435, 0.00000497, -0.00001078, -0.00000482, -0.00000087, 0.00000662, 0.00008857, -0.00133852, -0.00105138, -0.00000845, -0.00000088, 0.00102003, 0.00109050, -0.00107532, 0.00038968, 0.01830093, 0.00195569, 0.00211943, 0.00188816, 0.00056939, 0.00010877, 0.00010166, 0.00001233, -0.00000067, 0.00000291, 0.00000236, 0.00000013, 0.00001232, -0.00002514, -0.00002881, 0.00000306, 0.00001602, -0.00000742, -0.00000215, -0.00172315, -0.00128699, -0.00161087, -0.00063647, 0.00084179, 0.00032452, -0.00080330, -0.00356145, -0.00290800, -0.00069737, 0.02526244, 0.02571232, 0.04554199, 0.02274369, -0.00041363, -0.00052534, -0.00041120, -0.00365598, -0.00126978, -0.00178924, -0.00149542, 0.00000685, -0.00000496, 0.00000893, 0.00001078, -0.00001031, 0.00000057, -0.00000314, -0.00117542, -0.00101523, -0.00242746, -0.00029078, 0.00058518, -0.00176006, -0.00616471, -0.01654153, -0.00369592, 0.01673151, 0.00605017, 0.01399113, -0.00098385, 0.00047316, 0.02671203, 0.02383916, 0.00046009, 0.00112957, -0.00038930, -0.00046130, 0.00000144, 0.00000150, 0.00000291, 0.00000852, -0.00002406, -0.00000715, 0.00000681, 0.00000452, -0.00067798, -0.00114699, -0.00263693, -0.00214784, -0.02938424, -0.03129131, -0.00540371, -0.01777711, -0.00683013, -0.01601146, -0.03887735, -0.02971750, -0.01875505, -0.02176421, -0.00325565, -0.01209834, 0.02855571, 0.03263809, 0.00046239, 0.00005059, 0.00137707, 0.00001262, -0.00000959, -0.00001303, 0.00003919, -0.00000342, -0.00000208, -0.00000068, 0.00046999, -0.00170933, -0.00348604, -0.00443595, -0.00199627, -0.00080277, 0.02583548, -0.01507059, -0.00553570, -0.00757599, -0.00835545, -0.02492152, -0.00180340, 0.00847320, -0.02072309, -0.00256406, -0.00219107, 0.02126068, 0.01115524, 0.00123969, 0.00164714, 0.00000359, -0.00001291, -0.00000474, -0.00000787, -0.00000355, -0.00000220, 0.00060610, -0.00199556, -0.00339890, -0.00498059, -0.00469796, -0.00186554, 0.00195609, 0.01700392, 0.02107557, 0.01860622, -0.00007237, -0.00525486, 0.01274823, 0.02946127, -0.00092201, -0.00432159, -0.00271525, -0.00307538, 0.02236677, 0.00033048, -0.00007359, 0.00174912, 0.00000348, -0.00000997, -0.00002494, -0.00000093, -0.00000381, -0.00000267, 0.00000270, -0.00258125, -0.02380231, -0.01247984, -0.01486434, -0.00151861, 0.00200371, -0.01812052, 0.00013409, 0.00510847, 0.02768985, -0.00788893, 0.02002833, 0.01375994, 0.00423127, 0.01854575, -0.00182391, -0.00257340, -0.00140223, 0.04787510, 0.00249128, 0.00061192, -0.00000082, 0.00000246, -0.00000683, -0.00001569, -0.00000170, -0.00000439, 0.00028115, -0.00498613, -0.03034477, -0.00300876, -0.02130129, -0.01465396, -0.00506317, -0.00285805, -0.00170918, 0.00758937, 0.01412460, 0.00204267, 0.00444092, 0.00702778, 0.02466095, 0.00539854, -0.00077343, -0.00192165, 0.00767410, 0.03851830, 0.00000330, 0.00003422, -0.00002659, 0.00000510, 0.00000926, 0.00000145, 0.00000568, 0.00000085, 0.00114512, -0.05161346, -0.01845901, -0.00123020, -0.00757251, -0.00166579, -0.01069804, -0.00322239, 0.00257882, 0.01532491, -0.00056492, 0.00079848, -0.00058766, -0.01003079, -0.00385863, 0.00528865, -0.00664193, -0.00539931, -0.00161551, 0.00063736, 0.00346386, 0.00079089, 0.00096950, 0.00000155, 0.00000484, -0.00000885, -0.00000065, 0.00000286, -0.00523976, -0.01662589, 0.00004742, -0.00116693, -0.03588335, -0.01081127, -0.00093215, 0.01453984, 0.01513842, 0.01309125, -0.01557067, -0.06308243, -0.02875395, -0.00895880, 0.00073833, 0.00046363, -0.00172757, -0.00201761, -0.00315370, -0.00157414, 0.01716008, 0.00007187, 0.00001510, 0.00000967, 0.00002494, -0.00002813, 0.00000607, -0.00000200, -0.03002858, -0.00291203, -0.00058701, -0.00171125, 0.00116642, 0.03982800, -0.00191046, 0.02421707, 0.04764159, -0.00120753, -0.01234989, -0.02603963, -0.04374415, -0.03503258, 0.00880338, 0.00236061, -0.00214354, -0.00042374, -0.00215108, 0.00854670, 0.01825585, 0.00000115, 0.00005274, 0.00000998, -0.00001438, -0.00001788, -0.00000961, 0.00000322, -0.01045679, 0.00432146, 0.00233937, 0.00739673, 0.00104315, 0.02414628, 0.04424550, 0.03490044, 0.02478809, 0.01058424, -0.00347562, -0.06215539, -0.06590197, 0.00048763, 0.00700835, -0.02691030, 0.00538800, 0.03123568, 0.00066637, 0.01574643, 0.06803370, 0.00030846, 0.00000089, -0.00000038, -0.00000955, 0.00000271, 0.00001901, 0.00019542, -0.00397936, 0.02596329, 0.00151088, 0.01792525, 0.00294991, 0.04152033, 0.03245950, 0.03964853, 0.03785331, -0.00445386, -0.03244498, -0.05858082, -0.05077277, 0.00015364, 0.01135612, -0.02885692, 0.01445385, -0.00148788, -0.00276909, 0.04485668, 0.04105563, 0.00148400, -0.00000215, -0.00001009, 0.00000188, -0.00001088, -0.00000750, 0.00004797, 0.00072609, 0.01364017, -0.00079494, 0.00103909, 0.00052645, 0.02091487, 0.04361194, 0.01646065, 0.00861547, -0.01546145, -0.00008407, 0.00459658, -0.01876728, 0.01710694, 0.00352307, -0.00478846, -0.00107450, -0.00272617, -0.00309444, 0.00347290, 0.00139142, 0.00113537, -0.00000529, -0.00000108, -0.00002178, 0.00000274, 0.00000281, -0.00000961, 0.00768575, 0.02087472, 0.00802257, -0.00468372, 0.00063180, 0.03813190, 0.01208073, 0.05991746, 0.02403400, -0.02877796, -0.00746265, -0.01745635, -0.00029445, 0.00515313, -0.03637451, -0.03234642, -0.00345198, 0.00451913, -0.00403347, -0.00054080, 0.00124779, -0.00000023, -0.00000266, -0.00001086, 0.00001966, 0.00000335, -0.00001063, -0.00000887, 0.00561372, 0.02917481, 0.00101592, 0.01303872, -0.00029645, 0.00037540, 0.02072289, 0.00443662, 0.00453148, -0.01142673, -0.05308758, 0.01052456, 0.01696327, -0.00451199, -0.01965990, -0.02039678, -0.00468560, -0.00447163, -0.00501759, -0.00132465, 0.00072708, 0.00004614, -0.00000434, -0.00001011, 0.00000713, 0.00008551, 0.00000471, -0.00000088, 0.00215517, 0.00361527, 0.00180804, -0.00017572, 0.00616642, 0.02312495, 0.04309992, 0.03518370, 0.03256818, 0.02271058, -0.00421431, -0.00365000, -0.01533375, 0.00537751, -0.00343577, -0.02381632, -0.00367110, -0.00398390, -0.00363481, -0.00357080, -0.00184108, -0.00075921, -0.00000500, 0.00000127, -0.00000462, -0.00000173, 0.00000067, -0.00000269, 0.00382996, 0.00978105, 0.00274766, 0.00524870, 0.01101094, 0.03990150, 0.01254565, 0.07251515, 0.02939255, 0.04153473, -0.00882339, 0.00137798, -0.00224790, -0.00154333, -0.00383085, -0.00418416, -0.00322320, -0.00360638, -0.00671421, -0.01881100, -0.00760977, -0.00048080, 0.00003007, 0.00001806, 0.00000546, 0.00002380, 0.00000848, 0.00000136, 0.00081528, -0.00023704, 0.00196850, 0.00372177, -0.00139185, 0.02419959, -0.00174984, 0.02319949, 0.03670112, 0.03041276, -0.00039646, -0.00162012, 0.00173128, 0.01050809, -0.00507711, -0.01242710, -0.02510268, -0.02016708, -0.00390250, -0.00348010, -0.00171000, 0.00000083, 0.00000024, 0.00000140, 0.00001181, 0.00001330, 0.00000489, 0.00000124, -0.00008600, 0.00052043, 0.00248529, 0.00938623, 0.01050863, -0.00146744, 0.01225054, 0.01681697, 0.01724062, 0.06803758, 0.05755890, 0.03325099, -0.00313586, 0.00691148, -0.00442989, -0.00463298, -0.04096465, -0.03295412, -0.00092389, -0.00137182, 0.00000353, 0.00000084, -0.00000733, -0.00002137, -0.00000462, -0.00000462, -0.00000480, 0.00000554, -0.00028993, 0.00048791, 0.00019212, -0.00166339, 0.01481140, 0.02881466, 0.04601835, 0.06181068, 0.02526086, 0.01272206, 0.00607747, -0.00063828, 0.00958051, -0.00213248, -0.00577356, -0.02589200, -0.03134933, -0.01851493, -0.00000022, -0.00000576, -0.00000158, -0.00000966, 0.00000577, -0.00000765, -0.00001140, 0.00000673, -0.00001532, -0.00220120, -0.00079203, 0.00000370, -0.00198629, -0.01613972, -0.00096067, 0.00057664, -0.00267809, -0.00707286, 0.00603310, 0.01907657, 0.02993957, 0.02877711, -0.00214933, -0.01316533, -0.00022236, 0.00053912, 0.00076638, -0.00004111, 0.00000149, 0.00000153, 0.00000363, 0.00001642, 0.00000005, 0.00000893, -0.00002435, 0.00000673, -0.00000622, -0.00253400, -0.00176451, -0.00007665, -0.00000446, -0.00069036, -0.01119612, -0.00985719, -0.00169789, -0.00154330, -0.00178226, -0.00162335, -0.01672205, -0.00198537, -0.00089492, -0.00053234, 0.00000623, -0.00000010, -0.00024778, -0.00054168, -0.00000130, -0.00000051, 0.00000336, -0.00001290, -0.00001825, -0.00003327, 0.00000118, 0.00000652, 0.00001525, 0.00002157, 0.00000097, -0.00000200, -0.00048526, -0.00002826, -0.00091741, -0.00138412, -0.00146503, -0.00094160, -0.00005159, 0.00001044, -0.01836327, -0.00044462, 0.00003116, -0.00000030, -0.00000386, -0.00000509, -0.00046641, -0.00064985, 0.00000073, 0.00000385, 0.00000773, -0.00001511, -0.00002462, -0.00001826, -0.00000988, 0.00001258, 0.00003327, -0.00000207, -0.00002688, 0.00000785, 0.00000242, 0.00000427, 0.00000637, 0.00000616, 0.00000768, 0.00000186, 0.00000114, -0.00001547, -0.00000423, -0.00000236, -0.00000872, 0.00000965, -0.00000028, 0.00000219, 0.00001212, 0.00000319, -0.00000562, 0.00000981, 0.00000082, 0.00003327, -0.00000497, 0.00001781 },
    { -0.00001960, 0.00001960, 0.00001303, -0.00000893, -0.00002411, -0.00000083, 0.00002582, -0.00001825, -0.00000609, -0.00000552, -0.00001310, -0.00000913, 0.00000673, 0.00001303, 0.00000765, -0.00000673, 0.00002491, 0.00000262, 0.00000913, -0.00000373, -0.00000118, 0.00004312, 0.00000227, 0.00000765, 0.00002178, -0.00000549, -0.00002491, 0.00002494, 0.00001636, -0.00001303, -0.00002025, -0.00000893, -0.00001122, -0.00000897, -0.00000765, -0.00000033, 0.00002281, 0.00001710, -0.00000083, 0.00001252, -0.00003315, -0.00001165, 0.00115254, 0.00128311, 0.00000420, 0.00001576, 0.00000719, -0.00002823, 0.00001591, -0.00148377, -0.00184280, 0.00000573, 0.00001140, -0.00001960, -0.00001303, -0.00000227, 0.00002491, 0.00000747, -0.00000667, 0.00000280, -0.00000150, 0.00000048, -0.00000822, -0.00001502, 0.00000119, 0.00108654, 0.00111137, 0.00000027, -0.00000381, 0.01638297, 0.02022816, 0.02367591, 0.00138797, -0.00197937, -0.00234846, -0.00114353, -0.00014676, -0.00000061, -0.00204394, -0.00035489, 0.00000648, -0.00001583, 0.00002462, -0.00001140, 0.00001040, 0.00002178, 0.00000597, 0.00001208, 0.00000489, 0.00192629, 0.00263837, 0.00211591, 0.00086793, 0.00031188, 0.00009181, 0.00088491, -0.01044744, 0.02515621, 0.04434230, 0.02204719, 0.01487929, -0.00587561, -0.03597897, -0.00818302, -0.03070835, -0.00200573, 0.00363717, 0.00247904, 0.00030606, -0.00219300, -0.00000247, -0.00001465, -0.00000083, -0.00001960, 0.00000993, 0.00000482, -0.00000006, 0.00248628, 0.00214963, 0.00148900, 0.00073017, -0.00695621, -0.01740050, -0.04733224, -0.02982043, 0.00851305, -0.01300854, -0.00985456, 0.03239852, -0.00193175, -0.02090602, -0.00065614, 0.02834651, 0.00042187, 0.00146064, -0.00220578, -0.03537164, -0.01239440, 0.00000687, 0.00000434, 0.00000765, 0.00000673, 0.00000988, 0.00000376, 0.00000160, -0.00889056, -0.01653580, -0.01285819, -0.01177632, -0.07733506, -0.04194269, -0.02237605, 0.00388954, 0.00469697, 0.04399111, 0.02367110, 0.00487376, 0.01381071, -0.00704107, -0.02815425, -0.00097989, 0.02567635, 0.03591995, 0.04004076, -0.00294748, -0.00657428, -0.00000224, -0.00000148, 0.00001303, 0.00000893, -0.00265618, -0.00263275, -0.01957668, -0.07821373, -0.07641803, -0.02126347, -0.09984236, -0.05840828, -0.05281743, -0.00377351, 0.03077937, 0.00305178, 0.02866207, 0.03673657, 0.00992784, -0.00351467, -0.00722337, -0.03675284, 0.01070139, 0.00024527, 0.01198459, -0.01017275, -0.00322345, -0.00194369, -0.00000154, 0.00000826, -0.00000774, 0.00001960, -0.00258226, -0.00252936, -0.04605088, -0.08914793, -0.11253476, -0.07926282, -0.06614758, -0.05173909, -0.00424416, 0.01461352, 0.02641514, 0.04105494, 0.03320715, 0.02440208, 0.02823481, 0.03168059, 0.01760834, -0.00691152, 0.00970961, 0.00077630, -0.00101410, -0.00743620, -0.04217401, -0.02006405, -0.00015044, 0.00000309, -0.00002178, 0.00000609, -0.00000064, 0.00000396, -0.04307209, -0.05369756, -0.05748679, -0.02472220, -0.05207817, -0.01694319, -0.00623367, 0.00733812, 0.03840212, 0.06602146, 0.06567015, 0.01686135, 0.01907413, -0.00068731, -0.04541873, 0.00056291, -0.03044522, -0.02794742, -0.02214505, -0.00770440, -0.08623576, -0.03832390, -0.00107696, -0.00000102, -0.00000497, -0.00000057, -0.00000076, 0.00229445, -0.06050669, -0.06556315, -0.03097923, 0.00362913, -0.00583127, 0.00512257, -0.03240782, 0.00369628, 0.01973435, 0.05698789, 0.06941444, 0.07752020, 0.02794038, -0.01431563, -0.06042540, -0.08647717, -0.05794905, -0.02394263, -0.00893257, -0.02509367, -0.06047286, -0.01208428, 0.00000007, -0.00000001, 0.00000227, -0.00000286, 0.00000012, -0.00546605, -0.06143310, -0.05133692, -0.01492624, -0.02034415, -0.02103039, -0.03276335, -0.01606606, 0.00263931, 0.00939339, 0.02322967, 0.07122397, 0.08587702, 0.00634051, -0.05600360, -0.07518346, -0.04183393, -0.05596816, -0.02500204, -0.07871219, -0.07226014, -0.03419540, -0.00481610, 0.00244759, -0.00000283, -0.00000552, -0.00001306, -0.00000093, -0.00340497, -0.02061145, -0.02782479, -0.01341271, 0.00042194, 0.00449763, 0.00346610, 0.00062712, -0.00194897, 0.00765143, 0.01595028, 0.07833981, 0.11060035, 0.05518261, -0.07961643, -0.12306202, -0.04847907, -0.04530769, -0.04896331, -0.03537443, -0.05935318, -0.09487606, -0.04375989, -0.00001018, 0.00000176, 0.00000227, -0.00000652, 0.00000133, -0.00000014, -0.00188052, -0.04972541, -0.03170111, 0.00389042, 0.01976383, -0.00560465, -0.03842948, -0.05035342, -0.00195552, 0.00124491, 0.07567832, 0.07778211, 0.01881148, -0.05498626, -0.09223147, -0.05147844, -0.04203689, -0.03225977, -0.04659266, -0.03069107, -0.00805394, -0.00150040, -0.00037696, 0.00110402, 0.00001430, 0.00000673, -0.00001136, 0.00000046, -0.00086366, -0.02442838, -0.05076238, -0.00794123, 0.04105708, 0.01362465, -0.03264013, -0.05147532, 0.00143815, 0.00890355, 0.07160776, 0.09954701, 0.01353625, -0.04199162, -0.07964433, -0.09633417, -0.00644440, -0.01244065, -0.01032782, -0.00503064, -0.00481562, 0.00096354, 0.00228706, 0.00295151, -0.00000765, 0.00000893, -0.00001565, -0.00000002, -0.00127347, -0.04691701, -0.06546374, -0.03293606, -0.00379777, 0.00958017, -0.00480298, 0.01652257, 0.02737366, 0.00804185, 0.03222118, 0.02871379, 0.02730348, -0.08972073, -0.06108341, -0.05151081, -0.02492614, -0.03617600, -0.00682207, 0.00841832, -0.00316940, 0.03076997, 0.00508165, -0.00000179, -0.00001303, -0.00001078, 0.00000371, 0.00127676, -0.00055916, -0.03844095, -0.05179464, -0.02365719, 0.01726677, 0.04041224, 0.03564400, 0.04244557, 0.06977145, 0.09330472, 0.05779534, 0.00376531, -0.03868682, -0.08324226, -0.11437394, -0.09546315, -0.03466371, -0.03758527, 0.00363363, 0.01772647, 0.01420559, 0.05622625, 0.00562379, 0.00000101, 0.00003327, -0.00001286, 0.00002108, 0.00182902, 0.00251219, -0.01815670, -0.03521765, 0.01895692, 0.06415198, 0.09967345, 0.07789271, 0.04826418, 0.07176499, 0.08704220, 0.05149637, -0.03267210, -0.06867882, -0.09591753, -0.03786230, -0.04174921, -0.02330701, -0.00631101, 0.02463072, 0.00339155, 0.01048052, 0.08842266, 0.02331872, -0.00000090, -0.00002025, 0.00000849, -0.00001840, 0.00163202, 0.00402988, 0.00171457, -0.01694985, 0.00608450, 0.04045720, 0.05192078, 0.07294010, 0.05219981, 0.05324050, 0.02742562, 0.01993046, -0.05656362, -0.10130445, -0.12830696, -0.07108913, -0.01745108, -0.02305317, 0.03557730, 0.03255142, 0.00008025, 0.04801978, 0.09944040, 0.00132993, 0.00218338, -0.00000213, 0.00001307, 0.00003993, 0.00013066, 0.04287197, -0.01391969, -0.02885180, 0.01597105, 0.07654950, 0.08094540, 0.07090084, 0.05425083, 0.06579190, 0.01318994, -0.04043618, -0.04964383, -0.09163813, -0.07558583, -0.00355264, -0.02234204, 0.01561436, 0.05186526, 0.04771050, 0.02302304, 0.07232471, 0.09959187, 0.00301966, 0.00265626, -0.00000626, -0.00001029, 0.00000327, 0.00828951, 0.04056715, -0.02582752, -0.02525449, 0.01352332, 0.00686162, 0.05141784, 0.06596629, 0.05950951, -0.00531351, 0.01180015, -0.01517740, -0.00643900, -0.01344095, -0.02030764, -0.01434467, -0.02626530, 0.01902015, 0.02593226, 0.02895383, 0.05694741, 0.02155825, 0.05287063, 0.00267947, 0.00000103, 0.00003142, 0.00000007, 0.00000012, 0.00000091, 0.03398248, -0.00155894, -0.01608972, 0.00309544, 0.02127284, 0.03652241, 0.02182858, 0.01519073, 0.03207299, -0.04808076, 0.00956893, 0.04708610, 0.01447949, -0.00255183, 0.02653299, -0.00068841, 0.02812022, 0.03974211, 0.01179841, 0.00670975, 0.02145484, 0.00154290, 0.00000845, 0.00001531, -0.00000649, -0.00001352, -0.00000002, -0.00067326, 0.02663212, 0.01268485, 0.00234155, 0.02166440, 0.00041901, 0.01551167, 0.00704839, -0.01161741, 0.01109956, 0.00180459, 0.01565089, 0.00318630, 0.00493728, 0.01168753, 0.00809784, 0.03279434, 0.03231592, 0.02293574, 0.00935123, 0.00570175, 0.00679553, 0.00039052, -0.00000042, -0.00002227, 0.00000490, 0.00001800, 0.00000677, 0.00000082, 0.00394509, 0.07187450, -0.00153418, 0.00269737, 0.02658281, 0.01735296, -0.00612544, -0.03668481, 0.00166542, 0.00827321, -0.00361481, 0.00041922, 0.01993062, -0.02792429, 0.00275324, 0.03249718, 0.02626504, 0.06416685, -0.00004256, 0.00338778, -0.00000164, -0.00000054, 0.00000043, 0.00002398, 0.00000765, 0.00001310, -0.00000162, -0.00085131, -0.00302173, 0.00827622, 0.00679578, -0.00281868, -0.01330642, -0.00449766, -0.02430556, -0.01764274, 0.03991315, 0.01635762, -0.00264047, 0.03852408, 0.03052368, 0.01535115, 0.00598062, 0.02752984, 0.00820881, -0.00182115, -0.00317246, 0.00099830, 0.00000037, 0.00000170, -0.00000117, 0.00001960, -0.00000082, 0.00000673, 0.00001219, 0.00163695, 0.00180187, -0.00009018, -0.00051473, -0.02674074, -0.01014867, -0.06269312, -0.05391173, -0.01396840, -0.00192261, -0.05624070, -0.00137209, -0.02746208, -0.04142037, -0.04037895, -0.02830290, -0.03740351, -0.01956673, -0.00494039, 0.00028552, 0.00143442, 0.00000005, 0.00000063, -0.00000366, 0.00001140, 0.00000497, 0.00001303, 0.00000500, 0.00292805, 0.00128005, 0.00026420, -0.00126809, -0.00389179, -0.02064778, -0.02342878, -0.02920895, -0.01446856, -0.07453363, -0.10101466, -0.03066820, -0.07264195, -0.13068551, -0.14498402, -0.11417741, -0.09137892, -0.01530273, 0.00058357, -0.00073211, -0.00000712, -0.00000690, 0.00000164, -0.00000057, 0.00001258, 0.00002025, 0.00001144, 0.00000497, -0.00001292, 0.00001279, 0.00000079, 0.00000302, -0.00000023, 0.00162752, 0.00119155, 0.00113217, 0.00019954, -0.00011451, -0.01464002, -0.02967418, -0.00064628, -0.00776799, -0.00534453, -0.01874512, -0.00006900, 0.00013743, 0.00010515, 0.00000126, 0.00001887, 0.00000497, 0.00001310, 0.00001781, -0.00000462, 0.00001409, -0.00000462, 0.00000893, -0.00000306, 0.00000227, -0.00000656, 0.00000497, 0.00000988, -0.00000552, -0.00000747, -0.00000935, 0.00001400, -0.00000695, 0.00000168, -0.00000032, 0.00002047, 0.00001223, 0.00000155, 0.00000102, -0.00001014, -0.00000107, 0.00000161, -0.00000023, 0.00000652, 0.00000893, -0.00001078, -0.00000462, -0.00001078 },
    { -0.00000893, 0.00000358, 0.00001310, 0.00004213, 0.00001409, -0.00000552, 0.00000564, 0.00000673, 0.00000497, 0.00001636, 0.00000746, -0.00001781, 0.00001077, 0.00000572, -0.00000057, -0.00000605, 0.00001303, 0.00001303, -0.00000497, -0.00001303, -0.00001960, 0.00000497, -0.00000462, 0.00000552, -0.00000746, 0.00000673, 0.00000673, 0.00000373, -0.00001310, 0.00001106, 0.00001960, -0.00001309, -0.00000497, 0.00000227, -0.00000266, -0.00000623, -0.00000269, -0.00000780, -0.00000780, 0.00000072, -0.00002041, 0.00107660, -0.00010144, -0.00126758, -0.00000461, 0.00003875, -0.00001640, 0.00000530, 0.00000546, -0.00000239, 0.00001129, -0.00002030, -0.00002462, -0.00001826, -0.00000913, 0.00000552, -0.00000083, 0.00000549, -0.00001903, 0.00000809, 0.00001763, 0.00002151, -0.00001026, -0.00000723, 0.00000311, 0.00000356, 0.00000095, -0.00000030, -0.00241937, -0.00300031, -0.00267574, -0.00361208, -0.00180120, -0.00141444, -0.00042096, -0.00231939, -0.00027565, -0.00010735, -0.00041113, -0.00001094, 0.00000100, -0.00000880, 0.00001636, -0.00001409, -0.00000893, -0.00000280, 0.00000150, -0.00002715, -0.00000008, 0.00000386, -0.00000555, 0.00000180, 0.00000085, 0.00000149, -0.00000017, 0.00001602, -0.00413271, -0.02958464, -0.01915185, -0.02375085, -0.00178076, 0.03809434, 0.03740953, 0.06936005, 0.07588413, 0.05427468, 0.00019331, -0.00083962, 0.00000184, 0.00000032, -0.00000515, -0.00000913, 0.00001054, 0.00002178, 0.00000038, -0.00001490, -0.00001221, -0.00000139, -0.00042716, -0.00449221, -0.00331445, -0.01341657, -0.01513328, -0.01870550, -0.05198542, -0.03924319, -0.06188181, -0.01438218, -0.05048695, -0.03127731, -0.02126653, 0.00001920, -0.00002502, -0.00693122, 0.00862613, 0.00031475, 0.00000265, 0.00002044, 0.00000509, 0.00000673, -0.00001303, -0.00003142, -0.00000596, 0.00069609, 0.00297042, 0.00256837, -0.01694187, -0.02814920, -0.04151593, -0.02756840, -0.00661777, -0.00540573, -0.04188196, -0.00070194, 0.00144970, -0.00752101, 0.02296530, 0.03633557, 0.03197810, 0.02132875, 0.00371120, -0.02571581, -0.00161786, 0.00003352, -0.00055868, 0.00085438, -0.00000232, 0.00000683, -0.00000552, -0.00001469, -0.00000926, 0.00308129, 0.00301468, 0.00030139, -0.02349348, -0.03549396, -0.03650731, -0.02056195, -0.01565923, -0.00643886, -0.01540675, -0.01437523, -0.01116748, -0.01042000, 0.01108678, 0.03848919, 0.02687514, 0.02357948, -0.00125964, -0.00729830, -0.00051282, -0.01077023, 0.00703830, 0.01369991, 0.00000309, 0.00000085, 0.00000735, -0.00000896, -0.00004121, 0.00306288, 0.00344039, 0.00136582, -0.00798300, -0.00399168, 0.01373719, -0.02147279, -0.03397771, -0.01408227, -0.00490040, -0.02969018, 0.00668531, -0.00594121, -0.00318493, 0.01180145, 0.01675379, 0.01745366, 0.02694448, -0.01765171, -0.00908810, 0.00039913, 0.00707044, -0.00012838, 0.00000291, -0.00000010, -0.00000672, 0.00001166, -0.00000239, 0.00270577, 0.00384132, 0.00236314, 0.01496476, -0.02176240, 0.00210145, -0.01916400, -0.03267513, -0.00959928, -0.01041671, -0.00271878, 0.03821840, 0.00713243, -0.00525047, -0.00899271, -0.02881824, -0.01496945, 0.01805618, 0.00382977, 0.00411415, 0.00265246, -0.00439884, 0.00062538, -0.00000025, -0.00000219, -0.00000635, 0.00002407, -0.00000068, -0.00000117, 0.00143194, 0.00191073, -0.00036681, 0.00010605, -0.02336237, -0.02450866, -0.01984051, -0.01487983, -0.01230349, -0.00353578, -0.01481139, 0.00582663, -0.03043288, -0.06478146, -0.03066886, -0.05480242, -0.02818978, -0.00849038, -0.00368289, -0.02400668, -0.00027847, -0.00000237, -0.00000230, -0.00001708, 0.00001346, -0.00001643, 0.00126465, 0.00068210, -0.00672177, 0.00019958, -0.01451709, 0.01212986, 0.00034090, -0.02221093, -0.06101641, -0.00619245, 0.00752798, 0.01745057, -0.03652088, -0.01491588, -0.04580769, -0.10090162, -0.12303287, -0.05102623, -0.08561445, -0.07947899, -0.03920349, -0.07648908, -0.05445268, -0.00245194, 0.00000758, 0.00000365, 0.00002339, 0.00000795, 0.00037678, -0.00086993, -0.00321670, -0.00278976, -0.00784444, -0.00062551, -0.01069930, -0.03978781, -0.03106747, -0.02432485, 0.02189993, 0.01729811, 0.00279546, -0.05871480, -0.03477164, -0.06371585, -0.05289344, -0.06566538, -0.14323993, -0.12780799, -0.09318385, -0.06969824, -0.10059713, -0.00057185, 0.00000278, 0.00001706, -0.00000462, 0.00000724, 0.00000301, -0.00409689, -0.01370872, -0.03786243, -0.01877525, -0.02492117, -0.04815096, -0.04777589, 0.00407190, 0.02323856, 0.04263637, 0.06192033, 0.02618416, -0.00934557, -0.02865477, -0.01228319, 0.01142620, -0.04947209, -0.07873920, -0.10254455, -0.08895986, -0.08441668, -0.04171832, -0.00113047, 0.00000016, -0.00007792, 0.00000637, -0.00000515, -0.00000520, -0.00343640, -0.00764038, -0.01588533, -0.01752475, -0.00984505, -0.01787577, -0.04397295, 0.03347471, 0.08084065, 0.08921745, 0.05066874, 0.02347985, 0.03628778, 0.01652596, 0.06324284, 0.03578561, 0.00907971, -0.00799232, -0.02841227, -0.06628016, -0.03765257, -0.00600165, -0.00123809, 0.00135971, 0.00279657, -0.00000889, 0.00000399, 0.00001505, 0.00010620, -0.00058661, -0.00870245, 0.00910088, 0.00618386, -0.00509837, -0.00976998, 0.04024768, 0.05560457, 0.02600236, 0.03448707, 0.04129447, 0.00585625, 0.02689161, 0.03246297, 0.08981451, 0.08487239, 0.00929450, -0.04178106, -0.03215555, -0.00414723, -0.00298913, 0.00219285, 0.00165646, 0.00000906, -0.00001306, -0.00003092, 0.00000909, 0.00016988, -0.00236479, -0.00152118, 0.00463401, -0.00911767, -0.01808927, -0.01106862, 0.01744716, 0.03848112, 0.01603012, -0.00661935, -0.01351214, -0.01488955, 0.03491787, 0.11427961, 0.09866104, 0.06905176, 0.07236712, 0.00525913, -0.00238016, -0.00042570, 0.03222279, 0.00754457, -0.00000026, 0.00001153, 0.00001310, -0.00001278, -0.00001118, -0.00211603, -0.00413743, -0.00977856, -0.00680519, -0.04411047, -0.05720590, -0.06610588, -0.03889250, 0.03726247, 0.00119215, -0.02510611, -0.01973153, 0.02901619, 0.06115546, 0.11915343, 0.04573331, 0.06972757, 0.04224420, 0.05570464, 0.03331390, 0.00812108, 0.01566098, 0.03573630, 0.00376517, 0.00000215, -0.00000227, 0.00001340, -0.00000425, -0.00035690, -0.00112239, -0.01716560, -0.00866589, -0.01654959, -0.03673021, -0.06754354, -0.01294932, -0.03439304, -0.08796611, -0.06384227, -0.03707670, 0.02399931, 0.03771079, 0.06263733, 0.08575781, 0.06270478, 0.01939221, 0.05077717, 0.00130277, -0.00168204, -0.00114370, 0.00408744, 0.00000362, 0.00000375, -0.00001846, 0.00001879, 0.00000182, 0.00020931, 0.00065791, -0.00899066, -0.03544883, -0.00891352, -0.00387479, -0.04864250, -0.03715476, -0.07351062, -0.06435954, -0.04235874, 0.01499696, 0.03937790, 0.08390131, 0.04152133, 0.05050775, -0.00185978, -0.01004873, 0.00323431, -0.00346711, -0.00074102, -0.00008875, 0.00008881, 0.00000500, -0.00000220, -0.00000462, 0.00284349, 0.00004618, -0.00057689, -0.00051256, -0.00891046, -0.01706322, -0.02042788, -0.00470849, -0.01718831, 0.00022192, -0.00210870, 0.01423544, 0.02356150, 0.04448217, 0.03559606, 0.01419731, -0.00878242, -0.00333662, -0.01328489, -0.01269177, -0.03140526, 0.00173734, 0.00584636, -0.00022781, -0.00084111, -0.00001113, 0.00001389, -0.00000227, 0.00000436, -0.00013697, -0.00006276, 0.00071081, 0.00257222, -0.00720130, -0.00006538, 0.03411469, 0.04194213, 0.00517294, 0.02633802, 0.05129881, 0.03193383, 0.06079466, -0.00038141, -0.04213423, -0.07764870, -0.05856654, -0.02844047, -0.00314070, 0.00085238, -0.00396369, 0.00027265, -0.00031492, -0.00000030, 0.00000012, -0.00000887, -0.00000432, 0.00001010, -0.00002291, 0.00054738, -0.00906308, -0.02409220, -0.02998191, 0.02583130, 0.00123740, 0.01019980, 0.05479670, 0.05241525, 0.06009963, 0.03423880, -0.00640342, -0.02359435, -0.05142000, -0.06360697, -0.04656987, -0.02901315, -0.03090049, -0.00357311, -0.00281939, -0.00013737, -0.00415982, 0.00000015, -0.00001535, -0.00004791, 0.00000779, -0.00000921, -0.00000318, 0.00000315, -0.00143385, -0.03116189, -0.01565620, 0.00651679, 0.00999353, 0.05080867, 0.03019617, 0.03684393, 0.02298328, -0.03511404, -0.01524660, -0.04144881, -0.03699668, -0.05231375, -0.02282600, -0.03611767, -0.05474408, -0.01530682, -0.00139133, -0.00129371, -0.00073143, 0.00000065, -0.00000465, -0.00000673, 0.00002881, -0.00001202, 0.00000031, -0.00022077, 0.04191617, 0.03931340, 0.02625751, 0.04401532, 0.03931650, 0.02491225, 0.05068765, 0.02281874, -0.03029918, -0.05134524, -0.02543573, -0.02944927, -0.02865680, -0.04880764, -0.04911594, -0.04039788, -0.01150226, -0.00190071, 0.00149997, 0.00210227, -0.00000005, -0.00000296, -0.00000957, -0.00000462, -0.00000595, 0.00000893, -0.00000159, 0.00000115, -0.00323808, 0.00808399, 0.02210831, 0.03716854, 0.03320497, 0.05761663, -0.00078740, 0.00130405, -0.01905345, 0.00062369, -0.00034373, -0.02208955, -0.03968128, -0.00220787, 0.00099006, -0.00191901, -0.00136203, 0.00083763, 0.00117979, 0.00036368, 0.00000518, 0.00000266, -0.00000019, 0.00001258, 0.00004312, 0.00000765, -0.00001352, -0.00000348, -0.00181286, -0.00186587, 0.00011024, 0.00267608, -0.00073398, 0.01177856, -0.00780644, -0.00882628, 0.00079537, 0.00203993, -0.00603763, 0.00076744, 0.00251828, 0.00292715, 0.00212993, 0.00766832, 0.00071405, -0.00213179, -0.00182412, 0.00000160, 0.00000028, -0.00001636, 0.00000057, 0.00001303, -0.00000609, 0.00000893, 0.00004213, 0.00001257, -0.00000447, 0.00000209, 0.00000209, -0.00001003, 0.00000110, -0.00029133, -0.00294384, -0.00177921, 0.00082577, -0.00000250, -0.00000122, 0.00235140, 0.00353042, 0.00125615, 0.00002648, 0.00000038, -0.00000048, -0.00000153, 0.00000352, 0.00000801, 0.00003142, -0.00000942, -0.00000673, 0.00002025, -0.00001960, -0.00001960, 0.00001258, -0.00001258, 0.00000506, 0.00000220, -0.00001274, 0.00000053, 0.00000798, -0.00000792, -0.00000032, -0.00000870, 0.00000286, 0.00000568, 0.00001111, -0.00000733, 0.00000709, -0.00000153, -0.00000194, 0.00001320, -0.00001191, 0.00001067, -0.00000377, -0.00000673, 0.00000133, -0.00001303, 0.00000373, 0.00000893 },
