// Auto-generated model parameters for Vitis HLS
// Exported from PTH model

// Shape: (64, 72)
static weights_t network_0_weight[64][72] = {{-0.31355559825897217, -0.15500278770923615, 0.00486990250647068, -0.07093217223882675, -0.12846115231513977, -0.1727815419435501, 0.1662103831768036, -0.0363255999982357, 0.02998209372162819, -0.17411085963249207, -0.12113191932439804, -0.24571217596530914, -0.09362927824258804, -0.15662109851837158, -0.023793991655111313, -0.10665485262870789, 0.03667663037776947, -0.1175144761800766, -0.05095387622714043, 0.10827265679836273, -0.0359291210770607, 0.24477985501289368, -0.033250682055950165, -0.16633617877960205, 0.08551157265901566, 0.10855628550052643, 0.1899062991142273, 0.17269830405712128, 0.12424637377262115, 0.14751790463924408, 0.09613243490457535, -0.05627258121967316, 0.17570418119430542, -0.007624526042491198, 0.15162864327430725, 0.04665980860590935, 0.09805619716644287, -0.0044840495102107525, 0.07306650280952454, -0.025818781927227974, 0.06044162064790726, 0.062011122703552246, -0.10808756947517395, -0.14312471449375153, -0.09112748503684998, -0.05426990985870361, -0.16766513884067535, 0.03445494547486305, 0.23266957700252533, 0.013542499393224716, -0.11575683951377869, 0.11505942046642303, 0.13559256494045258, 0.041068755090236664, -0.15080292522907257, 0.05811576172709465, 0.22799359261989594, 0.07849673181772232, 0.38183489441871643, 2.6618225092533976e-05, 0.3445230722427368, -0.1190931648015976, -0.1232961118221283, 0.011329427361488342, -0.07945279031991959, 0.10205338150262833, 0.015279892832040787, 0.23250512778759003, -0.2823491394519806, -0.22757279872894287, 0.23978440463542938, 0.052875444293022156}, {-0.2915636897087097, 0.11691952496767044, -0.17238231003284454, -0.09698706865310669, 0.13585425913333893, -0.1065790206193924, 0.23542165756225586, -0.250979483127594, 0.13593144714832306, 0.22298012673854828, -0.19094005227088928, -0.037232737988233566, -0.03468296676874161, -0.040551912039518356, 0.13101477921009064, 0.04332546517252922, 0.0965077131986618, -0.11941947788000107, 0.042301129549741745, -0.1450987309217453, 0.15149922668933868, 0.12995366752147675, -0.07088065147399902, -0.019978947937488556, 0.17953349649906158, 0.03199231997132301, 0.27411845326423645, 0.023037157952785492, 0.013956665992736816, -0.009059282019734383, 0.09660478681325912, -0.046746283769607544, -0.1498098522424698, -0.0023704031482338905, 0.03048796020448208, -0.23114809393882751, -0.08096842467784882, 0.0419769324362278, 0.07489682734012604, 0.04685591533780098, -0.07378554344177246, 0.09925122559070587, -0.06447885930538177, 0.02850314788520336, 0.11371269077062607, -0.12394551187753677, -0.14477594196796417, -0.06469930708408356, 0.03039218671619892, 0.13118068873882294, -0.14807544648647308, 0.045644085854291916, 0.12823598086833954, -0.01822405681014061, -0.3102995455265045, 0.3359830677509308, 0.11144454777240753, -0.07712554186582565, 0.2690955400466919, 0.04459570348262787, 0.008951344527304173, -0.11965779960155487, 0.09363021701574326, -0.03850683942437172, -0.09033307433128357, 0.01908516138792038, 0.14356762170791626, -0.03726189211010933, -0.1598663330078125, -0.06460629403591156, 0.12370184063911438, -0.04773913323879242}, {0.22517766058444977, -0.27457624673843384, 0.04855911806225777, 0.07342183589935303, -0.1846836805343628, 0.09357196092605591, 0.06264243274927139, 0.2144443541765213, 0.12583132088184357, -0.15596066415309906, 0.10766482353210449, -0.30208128690719604, 0.19540464878082275, -0.2188674658536911, 0.024770276620984077, -0.09296593815088272, -0.16378149390220642, 0.12228255718946457, -0.0013334708055481315, 0.10537117719650269, 0.10328637063503265, -0.01758565381169319, -0.1742272675037384, -0.35167789459228516, 0.036439619958400726, 0.13952437043190002, -0.062488410621881485, -0.06255939602851868, -0.09916576743125916, 0.14992618560791016, -0.13009853661060333, -0.15221969783306122, 0.002537716180086136, 0.14170555770397186, 0.023885400965809822, 0.0919332206249237, -0.12101205438375473, -0.07453911751508713, 0.0424964539706707, -0.04297816753387451, -0.039456188678741455, -0.07163780182600021, -0.025299865752458572, 0.011400637216866016, 0.05607307702302933, -0.08642522245645523, 0.04981314390897751, -0.1731184720993042, -0.1208118200302124, 0.05765528976917267, -0.14590954780578613, 0.046273935586214066, 0.21482329070568085, 0.026414155960083008, -0.0490100122988224, 0.0005363526288419962, 0.26232317090034485, 0.04649650305509567, 0.11261581629514694, 0.22942140698432922, 0.03470325842499733, 0.0018024027813225985, -0.0831485465168953, -0.0024120742455124855, -0.0063056363724172115, 0.016404470428824425, -0.12067720293998718, 0.010973499156534672, 0.1524684578180313, 0.043212324380874634, 0.16554518043994904, 0.015616113319993019}, {0.08051649481058121, 0.19702863693237305, -0.029671097174286842, 0.18081344664096832, 0.03658594936132431, 0.09530788660049438, 0.12113317102193832, -0.4615631699562073, 0.07738146930932999, -0.03340236097574234, -0.2018839567899704, 0.2604278028011322, -0.022808924317359924, 0.039523959159851074, -0.13010957837104797, 0.10273506492376328, -0.009621118195354939, 0.058421697467565536, -0.030307939276099205, -0.03242601454257965, -0.17125645279884338, 0.11835143715143204, 0.10336761176586151, 0.2186446338891983, 0.08842265605926514, 0.0820407122373581, 0.004660905338823795, 0.03622790798544884, 0.03424294292926788, -0.09150625765323639, -0.035633236169815063, -0.0014959804248064756, 0.2145954966545105, -0.07693685591220856, -0.19663861393928528, 0.09719207137823105, 0.2388545125722885, 0.20693187415599823, -0.08543284982442856, 0.10312061756849289, 0.05666976049542427, 0.03215400129556656, -0.0642709955573082, -0.2850728929042816, -0.14982421696186066, 0.03609243035316467, -0.17829114198684692, 0.2666403353214264, -0.04325878620147705, -0.08493544161319733, 0.005699313245713711, -0.13894008100032806, -0.2245883047580719, -0.18403464555740356, -0.03434714302420616, 0.061769016087055206, -0.3071114122867584, 0.03660820052027702, -0.017427902668714523, -0.15294073522090912, -0.003060834249481559, 0.13564161956310272, -0.22154973447322845, -0.08506666123867035, 0.08184420317411423, -0.0472041554749012, -0.12791839241981506, -0.2823522090911865, -0.3024024963378906, -0.21701301634311676, -0.1029890775680542, 0.11528700590133667}, {-0.2546742260456085, -0.006268492434173822, -0.1343236267566681, -0.04602929577231407, 0.10510063916444778, -0.013174381107091904, 0.15738597512245178, -0.41231533885002136, 0.23366615176200867, 0.011302855797111988, -0.2348957359790802, -0.023372752591967583, 0.22006146609783173, -0.0815364345908165, 0.059344857931137085, 0.14046767354011536, 0.07279077917337418, -0.01405677292495966, 5.925752338953316e-05, -0.01742761954665184, 0.014715136028826237, 0.12090661376714706, -0.11679670214653015, -0.08869965374469757, 0.0359448678791523, 0.0652475655078888, 0.06591082364320755, 0.01005367748439312, 0.0049972934648394585, 0.02264648862183094, -0.11472716927528381, -0.052253738045692444, -0.048057638108730316, -0.019329482689499855, 0.06420701742172241, 0.09888967126607895, -0.16457918286323547, -0.08440378308296204, 0.08522924035787582, 0.006507745943963528, 0.07035380601882935, -0.10700951516628265, 0.010721960105001926, 0.02622807025909424, -0.05970395356416702, -0.01055378932505846, -0.2181098312139511, -0.021053902804851532, 0.20019781589508057, 0.05577002093195915, -0.13916818797588348, 0.010827315039932728, 0.29967811703681946, -0.051720283925533295, -0.3820381760597229, 0.4103012979030609, 0.03866196051239967, -0.1473754197359085, 0.21785342693328857, 0.06598252803087234, 0.048260197043418884, 0.05323465168476105, -0.08580878376960754, 0.0037488483358174562, 0.09350291639566422, -0.004010216798633337, -0.0660051554441452, -0.008637766353785992, -0.1656745970249176, -0.02793005481362343, -0.036556269973516464, 0.018770677968859673}, {-0.09524115920066833, -0.264286071062088, -0.00033051546779461205, -0.1175224706530571, 0.0010499508352950215, 0.05527708679437637, -0.10167452692985535, 0.7813237905502319, -0.08296133577823639, -0.13870200514793396, 0.226106658577919, -0.20372045040130615, 0.015117326751351357, 0.10450426489114761, 0.1377636194229126, -0.025287464261054993, 0.04664254188537598, -0.13554199039936066, -0.05779833346605301, 0.29579102993011475, -0.049852803349494934, 0.016659356653690338, 0.18958720564842224, 0.1763218343257904, -0.40402236580848694, 0.06555123627185822, -0.05506177246570587, -0.24764369428157806, -0.13173574209213257, -0.168060302734375, -0.06547340005636215, -0.036946315318346024, 0.05909304320812225, 0.20935466885566711, 0.22162115573883057, 0.22293086349964142, -0.01647043041884899, 0.08699476718902588, 0.021024860441684723, -0.1774115115404129, 0.08419272303581238, -0.06669945269823074, -0.04484854266047478, -0.239872008562088, 0.06992347538471222, 0.13466230034828186, -0.024843238294124603, 0.09091703593730927, 0.47300899028778076, -0.08256303519010544, 0.14605842530727386, 0.07671378552913666, -0.26370230317115784, 0.15151077508926392, 0.13639214634895325, -0.08189605921506882, -0.12657436728477478, 0.0675143152475357, -0.0592225156724453, -0.12068940699100494, 0.22853825986385345, -0.07659077644348145, 0.004179216921329498, 0.05782855302095413, -0.12746837735176086, 0.14866311848163605, 0.08332005143165588, 0.39142194390296936, 0.027705654501914978, -0.06432917714118958, 0.04085038974881172, 0.02067737653851509}, {0.13638494908809662, -0.004614693578332663, -0.08482588827610016, -0.11122146993875504, 0.1031666174530983, 0.16389574110507965, -0.24002106487751007, 0.5137348771095276, -0.11037833988666534, 0.18902099132537842, 0.25196149945259094, -0.019900809973478317, 0.04647722840309143, -0.08620816469192505, 0.35089340806007385, 0.014081140980124474, -0.050040822476148605, -0.23987172544002533, 0.14853723347187042, -0.1416698545217514, 0.21582122147083282, -0.2706492245197296, -0.15828347206115723, -0.15059712529182434, -0.24232879281044006, -0.16399091482162476, -0.017120933160185814, 0.013178784400224686, -0.09745125472545624, -0.14620870351791382, 0.0009886452462524176, -0.015672756358981133, -0.11337548494338989, 0.034489817917346954, 0.09180588275194168, -0.07634889334440231, -0.16880792379379272, -0.03166615590453148, 0.04944181814789772, -0.16468611359596252, -0.07259898632764816, -0.05684467405080795, 0.0607956238090992, 0.13265381753444672, 0.1604202687740326, -0.020061075687408447, 0.04246523976325989, -0.14154218137264252, -0.006598328240215778, 0.025500189512968063, 0.002158096991479397, 0.012941097840666771, 0.0404888316988945, 0.25522759556770325, 0.005990393925458193, -0.23014211654663086, 0.31129470467567444, 0.12914398312568665, -0.20100900530815125, -0.06446004658937454, -0.17724652588367462, 0.054321855306625366, 0.23036667704582214, 0.3061579763889313, -0.08376628905534744, 0.002682415535673499, 0.08805625140666962, -0.14833402633666992, 0.36352041363716125, 0.25842049717903137, -0.07117555290460587, -0.06861195713281631}, {-0.03646427020430565, 0.12700438499450684, -0.057145584374666214, 0.06373549997806549, 0.16118037700653076, -0.11957526952028275, -0.008157969452440739, -0.0017951842164620757, -0.13079938292503357, -0.051553402096033096, 0.20236878097057343, -0.08046223968267441, -0.14331653714179993, -0.3047546148300171, 0.22430157661437988, 0.0798870399594307, -0.08699711412191391, -0.11099662631750107, 0.0674896240234375, 0.19912374019622803, -0.010682080872356892, -0.016187971457839012, 0.0409381240606308, -0.43284717202186584, 0.2791651785373688, -0.12304676324129105, -0.11670029163360596, -0.013159744441509247, -0.07976792752742767, 0.07969369739294052, -0.14288055896759033, 0.20655569434165955, -0.0997321605682373, 0.06171349063515663, 0.23696580529212952, -0.2896721065044403, -0.02896496281027794, 0.01635550893843174, -0.0576704740524292, 0.2054278403520584, 0.1484914869070053, 0.047839537262916565, -0.008351462893188, 0.1255328506231308, 0.1152743250131607, 0.22408835589885712, 0.12765052914619446, -0.044551122933626175, -0.1307251900434494, -0.19147232174873352, -0.019061364233493805, -0.13867908716201782, 0.024546213448047638, -0.10890761017799377, -0.10679116100072861, 0.11245688050985336, 0.0954589694738388, -0.1495920568704605, 0.11731275171041489, -0.15063132345676422, 0.16078872978687286, -0.23516523838043213, 0.09199193865060806, -0.045928437262773514, -0.07170497626066208, 0.12860453128814697, 0.055898331105709076, 0.36992669105529785, -0.23797495663166046, -0.025351567193865776, 0.21107204258441925, -0.27885404229164124}, {-0.032303743064403534, 0.1015024408698082, 0.04641386494040489, 0.07583676278591156, -0.14597608149051666, 0.1541423350572586, -0.07009606808423996, 0.07355134934186935, 0.12156219780445099, -0.011278855614364147, -0.17477965354919434, 0.1199745386838913, 0.09062085300683975, 0.1990451067686081, -0.014384519308805466, 0.054147958755493164, 0.1607261449098587, -0.03704655542969704, -0.04446839913725853, -0.008073982782661915, -0.06055150926113129, -0.10172931104898453, 0.07430699467658997, 0.3678014576435089, -0.41910016536712646, -0.012620199471712112, -0.15954390168190002, -0.1396782398223877, -0.03723049536347389, -0.22093498706817627, 0.10531644523143768, -0.24471940100193024, 0.16735683381557465, 0.058733757585287094, -0.10573642700910568, 0.33515286445617676, 0.07232483476400375, 0.1108916774392128, 0.06444098055362701, 0.037397243082523346, -0.1116868406534195, -0.13015544414520264, -0.0687081590294838, -0.22357700765132904, -0.16812783479690552, -0.0019604372791945934, -0.1662922501564026, 0.0775117576122284, 0.2764028310775757, -0.11959785223007202, 0.01966130919754505, 0.03426932170987129, 0.008826162666082382, 0.01009442564100027, 0.10017631947994232, -0.003176875412464142, -0.3560677766799927, 0.11405765265226364, -0.1909276396036148, -0.1144554391503334, -0.1290711611509323, 0.03967040032148361, -0.19370554387569427, -0.0061138649471104145, 0.022001925855875015, 0.08456828445196152, 0.05284839868545532, -0.3099656403064728, 0.07707837224006653, -0.036139942705631256, -0.19567784667015076, 0.23926477134227753}, {0.19722966849803925, -0.11565949767827988, 0.16056685149669647, -0.0030653837602585554, -0.0544080026447773, 0.19684484601020813, -0.1439480036497116, 0.22940823435783386, -0.13200673460960388, 0.04751123860478401, 0.23961876332759857, 0.047427717596292496, 0.06681974977254868, 0.14715442061424255, 0.04827063903212547, -0.04045695811510086, -0.037659306079149246, 0.04504173994064331, 0.0005649672821164131, -0.16980992257595062, 0.19983845949172974, -0.18271884322166443, -0.03762860223650932, 0.022349216043949127, -0.19165945053100586, -0.19223445653915405, 0.03339181840419769, -0.16140350699424744, -0.08508645743131638, -0.08881121873855591, 0.011969241313636303, 0.09960205107927322, -0.23605577647686005, 0.03176219388842583, -0.14547739923000336, -0.13348104059696198, -0.06085783243179321, -0.21167373657226562, -0.03262992575764656, -0.19344288110733032, 0.033979352563619614, 0.011528635397553444, 0.09878752380609512, 0.006579563487321138, -0.06349379569292068, -0.16188862919807434, 0.08085712045431137, -0.1675359159708023, -0.11287449300289154, 0.043505068868398666, -0.03934979438781738, 0.10935834795236588, -0.06405925005674362, -0.029140589758753777, 0.21914954483509064, -0.21938791871070862, -0.08969729393720627, 0.11768437922000885, -0.3313150107860565, -0.0671401098370552, -0.19118759036064148, 0.1843479722738266, 0.032433174550533295, 0.14631687104701996, -0.038271572440862656, -0.1641533374786377, -0.021748987957835197, -0.20242784917354584, 0.366253137588501, 0.25894010066986084, -0.005394414998590946, 0.023805303499102592}, {0.1501466929912567, 0.030429543927311897, 0.08400131016969681, 0.0400417186319828, -0.019551323726773262, 0.060770124197006226, 0.06695635616779327, -0.05187820643186569, 0.04103882610797882, -0.08146721124649048, 0.021763116121292114, -0.1868615746498108, 0.21498757600784302, -0.2023383527994156, 0.33264732360839844, 0.30379047989845276, 0.10456795990467072, -0.08992847800254822, 0.10311074554920197, 0.31724897027015686, -0.08148830384016037, -0.14156508445739746, -0.19991852343082428, -0.24611546099185944, -0.005435750354081392, 0.019984252750873566, -0.15256397426128387, 0.14902366697788239, 0.07704618573188782, 0.21133017539978027, -0.1628178060054779, -0.15129747986793518, 0.1423168182373047, -0.05721932649612427, 0.10115605592727661, 0.07194369286298752, -0.23421773314476013, -0.14699485898017883, 0.09067172557115555, 0.0981423407793045, -0.05419040843844414, -0.16554749011993408, 0.1264979988336563, 0.136430561542511, 0.0736502856016159, 0.1273195743560791, -0.1447163075208664, -0.22478331625461578, -0.2271602600812912, 0.2511226534843445, -0.2434687614440918, -0.002968393499031663, 0.06828813254833221, -0.025812286883592606, -0.315279096364975, -0.09146473556756973, 0.2279406636953354, -0.13970309495925903, -0.1001899242401123, 0.23044779896736145, -0.07798340916633606, -0.0279125664383173, -0.06442269682884216, 0.19420814514160156, -0.04392174258828163, -0.12425626069307327, 0.0008552850922569633, 0.008086634799838066, 0.15569241344928741, 0.11224397271871567, -0.039479054510593414, 0.051384083926677704}, {-0.1935310959815979, 0.0010257168905809522, -0.11805827915668488, -0.040206313133239746, 0.07076050341129303, -0.014140596613287926, -0.016940655186772346, -0.536390483379364, 0.04627614840865135, 0.0978400781750679, -0.2943671941757202, -0.018052658066153526, 0.13098473846912384, 0.018947487697005272, 0.2149793952703476, 0.05906752869486809, 0.05786493793129921, -0.15059147775173187, 0.11465577036142349, 0.14423644542694092, -0.014130519703030586, 0.08419542759656906, -0.11368806660175323, -0.14799463748931885, 0.007268708664923906, 0.09187167882919312, -0.07521043717861176, 0.19093221426010132, 0.06838734447956085, 0.10645251721143723, 0.04931101202964783, -0.22073784470558167, 0.09656710922718048, -0.06868039071559906, 0.060045719146728516, 0.058146700263023376, -0.03437571972608566, -0.059284988790750504, 0.04375467449426651, 0.1956014335155487, 0.0008552515646442771, 0.017062468454241753, 0.114271380007267, 0.10035206377506256, -0.02753840759396553, 0.01150746364146471, -0.12188480794429779, 0.00407776702195406, 0.020610347390174866, 0.22844603657722473, -0.20410625636577606, -0.15059171617031097, 0.20350775122642517, 0.025765281170606613, -0.3502243161201477, 0.08058676868677139, 0.260404497385025, 0.0673237070441246, 0.028689609840512276, 0.0028486517257988453, -0.10830898582935333, 0.05635244771838188, 0.10001130402088165, 0.009521865285933018, 0.10462171584367752, -0.07572618126869202, -0.06802910566329956, -0.04697725549340248, -0.23585587739944458, -0.16846945881843567, -0.11601808667182922, 0.12330397963523865}, {0.03223983570933342, 0.028046898543834686, 0.0004972536698915064, 0.06246523559093475, -0.03820865973830223, 0.019723214209079742, -0.11282183229923248, -0.2652378976345062, -0.10358589142560959, 0.07536588609218597, -0.11299176514148712, 0.15773829817771912, 0.04637232795357704, 0.07927602529525757, -0.23227646946907043, -0.12228117138147354, -0.08989626169204712, 0.25798922777175903, -0.12265080213546753, -0.30093488097190857, -0.026590215042233467, -0.22148892283439636, 0.01487142127007246, -0.06032540649175644, 0.1547190099954605, -0.010032654739916325, 0.20779643952846527, 0.1222614049911499, -0.07374701648950577, 0.15930849313735962, 0.011341078206896782, -0.03465823084115982, -0.037112630903720856, -0.06730234622955322, -0.2673184275627136, -0.1290961503982544, 0.1280623972415924, 0.0866854190826416, 0.017291344702243805, -0.15296655893325806, -0.014115747064352036, 0.13578131794929504, -0.026657121255993843, -0.08649373054504395, -0.041784919798374176, -0.26003095507621765, 0.06456027179956436, 0.017273087054491043, -0.2959347069263458, -0.02288897894322872, -0.021462606266140938, -0.0018022189615294337, 0.10330221056938171, -0.007438506931066513, 0.00968861486762762, 0.05192873626947403, 0.008599803782999516, 0.13609963655471802, -0.04650593921542168, 0.0750596672296524, -0.08959385007619858, 0.15278638899326324, -0.008663621731102467, 0.045696184039115906, 0.08218412101268768, -0.06366772949695587, -0.04887916147708893, -0.38818106055259705, 0.21041108667850494, 0.04814831167459488, 0.002842408837750554, -0.07380978763103485}, {-0.07039738446474075, -0.03248051926493645, -0.1453087478876114, -0.11911769211292267, -0.08949768543243408, -0.025761982426047325, 0.030580434948205948, -0.1802009642124176, 0.12430817633867264, -0.08333131670951843, -0.12129674106836319, -0.021235935389995575, 0.15169167518615723, -0.06849177926778793, 0.3610341250896454, 0.0707133561372757, -0.06505364924669266, -0.027707180008292198, -0.05203821510076523, 0.2713989317417145, -0.2148766666650772, -0.09542505443096161, -0.2564505636692047, 0.0785306915640831, -0.1065739095211029, 0.03887788578867912, 0.25353139638900757, 0.30026355385780334, -0.09278719127178192, -0.05023321509361267, 0.2524012625217438, -0.323940247297287, 0.3513175845146179, -0.12297225743532181, -0.12266820669174194, 0.3142543435096741, 0.1609460860490799, -0.0033462706487625837, -0.0361667200922966, 0.08065365254878998, 0.09957681596279144, 0.0031549904961138964, -0.11213437467813492, 0.016181129962205887, -0.1740032434463501, 0.13547682762145996, -0.12013270705938339, 0.23851731419563293, 0.05893932655453682, 0.02779368683695793, 0.08511213213205338, -0.03557298704981804, -0.15779340267181396, 0.05851741135120392, -0.10814837366342545, -0.38147488236427307, 0.17565058171749115, 0.15603648126125336, -0.11194371432065964, -0.07905475050210953, 0.18364939093589783, 0.11147989332675934, -0.081685371696949, 0.01973770186305046, 0.017509303987026215, -0.049043528735637665, 0.06031615287065506, 0.04620974138379097, -0.030918318778276443, -0.14934831857681274, -0.04168121516704559, 0.14799249172210693}, {-0.09826724231243134, -0.18958458304405212, -0.1307956725358963, -0.24441775679588318, -0.11172491312026978, -0.19105008244514465, -0.05132224038243294, 0.4274143874645233, 0.08037641644477844, 0.02516770549118519, 0.0004555760242510587, -0.32733193039894104, 0.0862913504242897, -0.05206744745373726, 0.2970391511917114, -0.05268136411905289, -0.15553002059459686, -0.21189287304878235, 0.029075073078274727, 0.14981238543987274, -0.02511335164308548, 0.13519303500652313, 0.011084223166108131, -0.16073140501976013, -0.2613520622253418, 0.005132312420755625, 0.08462876826524734, 0.059371400624513626, 0.033010318875312805, -0.0042279926128685474, 0.06794171035289764, -0.17879022657871246, 0.12855714559555054, 0.17123912274837494, 0.19939646124839783, 0.1870819330215454, -0.20198236405849457, 0.06004368141293526, 0.029658420011401176, -0.1155838593840599, 0.11802276223897934, -0.015400485135614872, -0.13455680012702942, 0.027112357318401337, 0.030398709699511528, 0.1089830994606018, -0.05055997520685196, 0.05775418505072594, 0.2557764947414398, -0.08784012496471405, 0.0485716238617897, -0.05965977907180786, 0.03167194873094559, 0.15584538877010345, 0.05710325762629509, -0.008333790116012096, 0.22153419256210327, 0.042342402040958405, 0.1895698457956314, 0.08379022032022476, 0.3110100030899048, 0.009127992205321789, 0.07667828351259232, 0.02833089977502823, -0.11967065185308456, 0.04173537343740463, -0.056093428283929825, 0.19683171808719635, 0.031726494431495667, -0.010568986646831036, 0.07234565168619156, -0.014782233163714409}, {-0.13415072858333588, 0.2034631371498108, -0.06913399696350098, 0.16881163418293, 0.2570754885673523, 0.047265853732824326, 0.02488521672785282, -0.3300367295742035, -0.0232229083776474, 0.2989640533924103, -0.07660596817731857, 0.1252959817647934, 0.00333178392611444, -0.08482886850833893, -0.12902605533599854, -1.1713316780515015e-05, -0.06434745341539383, -0.01844797097146511, 0.16796644032001495, -0.3820324242115021, 0.2578164339065552, -0.009292819537222385, 0.02448929101228714, -0.07142460346221924, 0.00809149444103241, -0.2638867199420929, 0.0858970507979393, -0.041002627462148666, -0.05409250035881996, -0.06421451270580292, 0.06445737183094025, 0.15657104551792145, -0.29041674733161926, -0.15717439353466034, 0.02000540867447853, -0.2757944166660309, -0.12755249440670013, -0.05072545260190964, -0.06212560087442398, 0.04528935253620148, -0.03652820736169815, 0.11256502568721771, -0.0477098785340786, 0.11891922354698181, 0.06664259731769562, -0.003589906729757786, 0.10654707252979279, -0.10448499768972397, -0.1804209053516388, -0.1630297154188156, 0.07232557237148285, 0.006977212615311146, 0.09324131906032562, 0.0023783929646015167, -0.030082225799560547, 0.07244551181793213, 0.06506631523370743, -0.12699399888515472, -0.046632248908281326, -0.19671183824539185, -0.18427962064743042, -0.1117238700389862, 0.23721210658550262, 0.02027425915002823, 0.021917982026934624, 0.04711347073316574, 0.21805578470230103, -0.21947892010211945, -0.06166871264576912, 0.22575592994689941, 0.01829451322555542, -0.2735552489757538}, {-0.008207566104829311, -0.005811469163745642, -0.07544659823179245, 0.026100467890501022, 0.10334252566099167, -0.021185852587223053, -0.00039905658923089504, -0.01613861694931984, -0.1507737785577774, -0.1764242947101593, 0.0883338525891304, -0.04381348565220833, -0.013412915170192719, -0.2058449685573578, -0.12888763844966888, 0.061260998249053955, 0.15688477456569672, -0.1057882085442543, 0.002681167097762227, 0.14659638702869415, 0.010970477014780045, 0.13886100053787231, 0.16404564678668976, -0.22780181467533112, 0.08893974870443344, -0.045633941888809204, -0.17769917845726013, -0.1441030353307724, 0.010439012199640274, 0.03568733111023903, -0.06438533216714859, 0.15906380116939545, -0.0812990739941597, 0.08896797150373459, 0.009965562261641026, -0.04291311278939247, -0.11898989975452423, 0.07761787623167038, 0.0440385565161705, -0.03194513916969299, 0.06633877009153366, 0.05263654142618179, 0.026562970131635666, -0.1109846755862236, 0.07054703682661057, 0.07400058954954147, 0.036318060010671616, -0.15663380920886993, 0.03027486801147461, 0.16602088510990143, -0.13691699504852295, -0.01682770624756813, 0.24233700335025787, -0.17008134722709656, -0.05884489044547081, 0.16797639429569244, 0.10759973526000977, -0.11680889874696732, 0.22979922592639923, 0.2111414670944214, 0.13555707037448883, -0.18929705023765564, -0.08365116268396378, -0.012922794558107853, 0.040641993284225464, 0.04688568785786629, -0.16805899143218994, 0.37885621190071106, -0.24310249090194702, -0.04656067490577698, 0.2938891351222992, -0.12106361240148544}, {0.34761103987693787, 0.16369706392288208, 0.11383558064699173, 0.18240565061569214, 0.006618523504585028, 0.04913311079144478, -0.16216716170310974, -0.15343143045902252, -0.04385208711028099, -0.0873410776257515, 0.2297694832086563, 0.010031860321760178, 0.039781808853149414, -0.09618447721004486, -0.006705565843731165, 0.14292341470718384, 0.013234998099505901, -0.003783979918807745, 0.09937295317649841, 0.0023183864541351795, 0.0006038882420398295, -0.16620445251464844, -0.21763913333415985, -0.17285284399986267, 0.0542999729514122, 0.01308625377714634, -0.10308001190423965, -0.046100106090307236, 0.009633044712245464, 0.15667861700057983, -0.10755541920661926, 0.10943403095006943, 0.010372196324169636, -0.22046270966529846, -0.10457839071750641, 0.07444621622562408, -0.06317416578531265, -0.0934646800160408, -0.00984058529138565, 0.029071150347590446, 0.12709900736808777, 0.011292350478470325, 0.0673726499080658, 0.2744670808315277, -0.014842395670711994, 0.06441661715507507, 0.021685205399990082, -0.2203870564699173, -0.33579719066619873, 0.1385899931192398, -0.056475766003131866, -0.13684770464897156, 0.06090245768427849, -0.035737864673137665, -0.08926570415496826, -0.20974485576152802, -0.016855278983712196, 0.015913359820842743, -0.14186237752437592, 0.2124764323234558, -0.27556130290031433, 0.020143870264291763, 0.06937425583600998, 0.10749761015176773, -0.023847056552767754, -0.06025466322898865, 0.022682828828692436, -0.1160811260342598, 0.06031370908021927, 0.20923513174057007, -0.1159072071313858, -0.06015808880329132}, {-0.09127339720726013, 0.21314451098442078, 0.03907386213541031, 0.0705651119351387, 0.11396131664514542, 0.024094108492136, 0.05289628729224205, -0.21342696249485016, 0.1653451770544052, 0.113246388733387, -0.3228035867214203, 0.03688451275229454, 0.10948380082845688, 0.14786915481090546, 0.08054884523153305, 0.1057855635881424, 0.16747599840164185, 0.04067005217075348, 0.10083698481321335, -0.055638886988162994, -0.01959086023271084, 0.020020905882120132, -0.11505910754203796, 0.18525330722332, -0.25387710332870483, -0.039794377982616425, -0.14376121759414673, -0.1111207902431488, 0.013988499529659748, 0.023720374330878258, -0.07080882042646408, 0.02079145424067974, 0.001288195257075131, 0.0027383065316826105, -0.07456209510564804, 0.13455908000469208, -0.24680063128471375, 0.05693477392196655, 0.013679731637239456, -0.04625099524855614, 0.04860291630029678, -0.07432306557893753, 0.07036598026752472, -0.06344924122095108, -0.04726925119757652, 0.08135800808668137, -0.10295544564723969, 0.008398134261369705, 0.11504185944795609, 0.04276822507381439, -0.15693561732769012, -0.012174381874501705, 0.16954490542411804, 0.016666356474161148, -0.15577197074890137, 0.36061522364616394, -0.32667118310928345, -0.024549182504415512, 0.021999401971697807, 0.22018267214298248, -0.28924694657325745, 0.0711219534277916, -0.04068306088447571, -0.07075502723455429, 0.033920008689165115, 0.051381804049015045, -0.07770290970802307, -0.18396589159965515, -0.08682598173618317, -0.11867218464612961, -0.1438559889793396, 0.14878974854946136}, {0.2934179902076721, 0.0005402133683674037, 0.1974530816078186, 0.055932220071554184, -0.20180806517601013, 0.011011850088834763, -0.14144672453403473, 0.15267477929592133, 0.019474418833851814, -0.1942804604768753, 0.17047041654586792, -0.0237444918602705, 0.14071765542030334, 0.035095009952783585, -0.012252251617610455, 0.10224658250808716, -0.00019232594058848917, 0.10227439552545547, -0.01889136992394924, 0.1271401345729828, 0.007345076184719801, -0.10897071659564972, -0.045158762484788895, 0.09869123995304108, -0.16376470029354095, 0.19627375900745392, -0.33903586864471436, -0.07303432375192642, 0.053436387330293655, -0.009149489924311638, -0.19176660478115082, -0.16618269681930542, 0.20675185322761536, 0.014811991713941097, -0.011447053402662277, 0.2841450870037079, -0.0034420054871588945, -0.00797276385128498, -0.04886173456907272, 0.0018284182297065854, -0.04317696392536163, -0.13463681936264038, 0.01583719626069069, -0.00014987225586082786, 0.06862162053585052, 0.15753719210624695, 0.005979591514915228, -0.06671839207410812, -0.13641630113124847, 0.08108773827552795, -0.09564041346311569, 0.048769526183605194, 0.11541089415550232, -0.2436566799879074, -0.09256648272275925, -0.0013275654055178165, -0.08443513512611389, -0.024796856567263603, 0.05809543654322624, 0.3752678334712982, -0.17628538608551025, 0.10304031521081924, -0.04095156490802765, -0.11729008704423904, 0.06453729420900345, -0.12743112444877625, -0.07260152697563171, 0.05730346590280533, 0.04645669087767601, 2.4956716515589505e-05, -0.08990573137998581, 0.16431699693202972}, {-0.0902923122048378, 0.014902501367032528, -0.09952841699123383, -0.03641793504357338, 0.092816062271595, -0.2573454976081848, 0.13914886116981506, -0.19663164019584656, -0.0635821670293808, -0.014755094423890114, -0.20014648139476776, -0.04266222566366196, -0.1928158402442932, -0.07750189304351807, -0.23417556285858154, -0.11943972110748291, -0.004687532316893339, -0.10177193582057953, 0.03592671826481819, -0.036290187388658524, -0.035298045724630356, 0.21966375410556793, 0.1768590658903122, 0.0074661653488874435, 0.2788194417953491, 0.06533478200435638, 0.12137467414140701, 0.174178808927536, 0.10635331273078918, 0.10172201693058014, -0.07229068875312805, -0.02095562033355236, 0.1407577246427536, -0.15339204668998718, 0.12304819375276566, -0.1879313737154007, 0.24182243645191193, 0.0901641994714737, -0.009200396947562695, 0.12242001295089722, -0.0652136504650116, 0.17403152585029602, -0.09805847704410553, -0.05857400596141815, -0.02139073796570301, 0.02581106126308441, -0.06265264004468918, 0.14283810555934906, -0.08445341140031815, -0.17753466963768005, 0.11914806813001633, 0.06144210696220398, -0.07535776495933533, 0.0005302026984281838, -0.024859940633177757, 0.1460830122232437, -0.03240688517689705, -0.08317732065916061, 0.09677963703870773, -0.2264375239610672, 0.13843658566474915, -0.02360689826309681, -0.029417524114251137, -0.15415018796920776, 0.02516806125640869, 0.09776075184345245, -0.011247039772570133, 0.12571094930171967, -0.4226290285587311, -0.24082684516906738, 0.21735303103923798, 0.0010555092012509704}, {-0.2023739218711853, -0.21647584438323975, -0.09157797694206238, -0.2083946168422699, -0.06449899077415466, -0.23680534958839417, 0.00025323478621430695, 0.31083422899246216, -0.09866758435964584, -0.1534615010023117, -0.04712904989719391, -0.19269905984401703, 0.07192739099264145, -0.2047484964132309, 0.2688719928264618, -0.12899772822856903, -0.2422751933336258, -0.024402102455496788, 0.06316951662302017, -0.001639415742829442, -0.07204556465148926, -0.04038381576538086, -0.04905496910214424, -0.20056571066379547, -0.0020451031159609556, 0.14787916839122772, 0.08629269897937775, -0.07160024344921112, 0.03836385905742645, -0.06715880334377289, -0.03277801722288132, -0.037642430514097214, 0.12630000710487366, 0.20581625401973724, 0.047126054763793945, 0.09087701886892319, -0.08826295286417007, 0.018536999821662903, -0.0006218361668288708, -0.04483987018465996, -0.032813891768455505, 0.0008463888079859316, 0.09940912574529648, 0.22182373702526093, -0.04472947120666504, 0.026115702465176582, -0.021662667393684387, -0.0028188666328787804, 0.15772220492362976, 0.016164598986506462, 0.0004871817072853446, 0.10505402833223343, 0.00942507479339838, 0.015539939515292645, -0.052899155765771866, 0.09653181582689285, 0.02515569142997265, 0.13265344500541687, 0.1277543008327484, 0.015312638133764267, 0.25265875458717346, -0.23920537531375885, 0.1991618424654007, -0.07929970324039459, -0.17897212505340576, 0.05668505281209946, 0.00866297073662281, 0.1691657453775406, -0.17016051709651947, 0.12395233660936356, 0.03637125715613365, -0.1636461317539215}, {-0.2915278375148773, -0.042238395661115646, -0.183897465467453, -0.08730175346136093, 0.08310901373624802, -0.11712799221277237, 0.06675608456134796, -0.013140808790922165, 0.1735040843486786, -0.07773984968662262, -0.09767954051494598, -0.01150752417743206, 0.07574035972356796, -0.020912298932671547, -0.02766859345138073, -0.04927504062652588, 0.1013491079211235, 0.04842376708984375, 0.17188289761543274, 0.16203871369361877, -0.05968472361564636, 0.1451919972896576, 0.1715477854013443, 0.08024566620588303, -0.08922883868217468, -0.0036054363008588552, -0.15540596842765808, 0.022209111601114273, 0.03718694671988487, -0.04873988404870033, -0.043105900287628174, 0.05232194438576698, 0.10083846747875214, 0.20334385335445404, -0.004763938952237368, -0.007626188453286886, -0.22392942011356354, 0.059775058180093765, 0.06736861169338226, -0.013095214031636715, 0.027014944702386856, -0.04136919602751732, 0.10933072119951248, -0.037154845893383026, 0.004273155238479376, 0.207512766122818, 0.0238705612719059, -0.00653555803000927, 0.23158657550811768, 0.04413141310214996, 0.032086629420518875, 0.0964227095246315, 0.18718715012073517, 0.04819834977388382, -0.14495182037353516, 0.45318084955215454, -0.14775876700878143, -0.12729915976524353, 0.2636348307132721, 0.0015214653685688972, 0.13074283301830292, -0.17333659529685974, -0.08328765630722046, -0.28648611903190613, -0.10480312258005142, 0.12470220774412155, 0.03357868641614914, 0.12415944784879684, -0.2803836762905121, -0.17595075070858002, 0.043013449758291245, -0.14009831845760345}, {-0.02194974012672901, 0.08763153851032257, 0.0020749529357999563, -0.08308610320091248, 0.14621341228485107, 0.02693195268511772, -0.046982474625110626, 0.2881765067577362, -0.026231657713651657, 0.20434431731700897, 0.07110005617141724, 0.22622579336166382, -0.0017384279053658247, 0.03300027549266815, -0.09604945033788681, -0.07646539062261581, 0.048833467066287994, -0.07479026913642883, 0.020363718271255493, -0.07489777356386185, 0.20864491164684296, 0.048544421792030334, 0.13920216262340546, 0.09510187059640884, -0.08309067785739899, -0.24113966524600983, -0.010766109451651573, -0.2357347309589386, 0.0006247920682653785, -0.09688922017812729, 0.06821821630001068, 0.19663988053798676, -0.3276062309741974, -0.004141308832913637, 0.07709444314241409, -0.3445546329021454, -0.14032156765460968, -0.10059057176113129, 0.01804248057305813, -0.1528203934431076, -0.04382866993546486, 0.0166510920971632, -0.07023732364177704, 0.062019042670726776, 0.021701142191886902, -0.1454419493675232, 0.18744446337223053, -0.13903015851974487, 0.15494304895401, -0.1287446767091751, 0.10321890562772751, -0.01800926961004734, -0.11235503107309341, 0.11234160512685776, 0.19412574172019958, 0.2339795082807541, -0.2947728633880615, -0.023351198062300682, -0.1498851776123047, -0.11852748692035675, -0.0862974002957344, -0.03825853765010834, 0.2563159465789795, -0.07629764080047607, -0.07161502540111542, 0.020661303773522377, -0.013239489868283272, 0.00811085570603609, -0.1439339965581894, 0.19286444783210754, -0.03407664969563484, -0.32076165080070496}, {0.12454597651958466, 0.1218266710639, 0.03347858786582947, 0.06065743789076805, 0.09759864211082458, 0.10983725637197495, -0.03340549021959305, -0.13711795210838318, 0.017362117767333984, 0.04180573672056198, -0.04308658838272095, 0.16286654770374298, 0.06850143522024155, 0.10001308470964432, -0.15258312225341797, 0.17162306606769562, 0.010013475082814693, 0.12077782303094864, -0.011504041962325573, -0.05612516775727272, -0.07748061418533325, 0.057927150279283524, 0.01850932277739048, 0.23667602241039276, -0.1874585598707199, 0.02516857534646988, -0.25012314319610596, -0.06545033305883408, 0.022013092413544655, -0.02276269905269146, -0.003407429438084364, 0.13400472700595856, 0.012162803672254086, 0.014140600338578224, -0.01683039404451847, 0.1007029116153717, -0.10658200085163116, 0.018333017826080322, 0.1027100533246994, -0.030970025807619095, -0.1209055483341217, -0.10583373159170151, 0.1136542335152626, -0.14854063093662262, 0.043199438601732254, -0.028079556301236153, -0.07425592094659805, 0.031738847494125366, -0.0704575926065445, 0.026233961805701256, 0.038644466549158096, 0.11146745085716248, 0.028912561014294624, -0.05123317614197731, -0.03789394348859787, 0.2542218565940857, -0.23630672693252563, -0.04477386176586151, -0.07702244073152542, 0.2253570705652237, -0.2168516367673874, 0.16917777061462402, -0.12313215434551239, 0.057662516832351685, 0.12684126198291779, -0.04347270727157593, -0.10351564735174179, -0.11890807747840881, -0.000945115985814482, 0.07571428269147873, -0.08210408687591553, 0.08363255113363266}, {-0.22106939554214478, 0.2775005102157593, 0.08072351664304733, 0.2051430642604828, 0.21447712182998657, -0.05728249251842499, 0.061925940215587616, -0.7177050709724426, 0.13093003630638123, 0.014363025315105915, -0.3480108678340912, 0.2474128007888794, 0.019436612725257874, 0.1286863535642624, -0.008539390750229359, -0.003167984075844288, 0.08612256497144699, 0.08717752993106842, 0.03840146213769913, -0.2061867117881775, -0.04721624776721001, 0.13743746280670166, 0.06001756712794304, -0.03800080716609955, 0.022767001762986183, -0.11882173269987106, 0.11563172936439514, -0.023503966629505157, 0.036581870168447495, 0.1404840350151062, 0.042750030755996704, 0.04896038398146629, -0.06358163058757782, -0.180247962474823, -0.08566077053546906, -0.11555217951536179, -0.008241504430770874, -0.026559744030237198, 0.21890054643154144, 0.03418060764670372, -0.028836745768785477, -0.00971686840057373, -0.02217695116996765, -0.12329202890396118, 0.14054669439792633, -0.09495053440332413, -0.19772933423519135, -0.06618551164865494, -0.03791775926947594, 0.05449086055159569, -0.17768144607543945, 0.001537397620268166, 0.2946169972419739, -0.12173022329807281, -0.30855822563171387, 0.47783318161964417, -0.12983167171478271, -0.20266418159008026, 0.10702906548976898, 0.07788525521755219, -0.08233018964529037, 0.19873134791851044, -0.027650136500597, 0.008244074881076813, 0.09968569874763489, -0.12508878111839294, -0.06395159661769867, -0.2260563224554062, -0.1705228090286255, -0.16611115634441376, -0.12799720466136932, 0.02217278443276882}, {-0.15894083678722382, 0.2092607468366623, -0.06356849521398544, 0.11384328454732895, 0.04960811510682106, 0.11697278171777725, -0.014371324330568314, -0.3545234501361847, 0.19732443988323212, 0.06209748238325119, -0.22286158800125122, 0.14929541945457458, 0.2387462556362152, 0.14120525121688843, 0.2877205014228821, 0.19292546808719635, 0.02678832784295082, 0.0338427796959877, 0.1436605304479599, -0.07291989773511887, -0.11229127645492554, -0.12940524518489838, -0.01952982507646084, 0.015342419035732746, -0.20227184891700745, -0.05324656888842583, -0.12250974774360657, -0.047164998948574066, 0.08699057251214981, -0.044001005589962006, 0.015108640305697918, -0.13277819752693176, 0.05160807818174362, -0.03804253414273262, -0.10367006063461304, 0.06405133008956909, -0.2220039814710617, -0.05014050006866455, 0.002000866224989295, 0.06577275693416595, -0.052058860659599304, -0.08617187291383743, 0.13946524262428284, 0.021361077204346657, 0.004518077243119478, 0.18753544986248016, -0.1883280873298645, -0.04878588765859604, 0.059768058359622955, 0.15347297489643097, -0.02597225084900856, -0.13136984407901764, 0.14727389812469482, 0.06632647663354874, -0.181326761841774, 0.21476316452026367, -0.021781548857688904, 0.015327523462474346, -0.17462219297885895, 0.17710356414318085, -0.23669879138469696, -0.010491205379366875, -0.09918040037155151, -0.020953606814146042, 0.09505274146795273, -0.1420731097459793, 0.000413317495258525, -0.31755128502845764, -0.08966275304555893, 0.06601233780384064, -0.14558292925357819, 0.0380120687186718}, {-0.22643497586250305, 0.046799175441265106, -0.09947894513607025, -0.08806843310594559, 0.10377590358257294, -0.08755598217248917, 0.16104385256767273, -0.08837414532899857, -0.1288796216249466, -0.0029623110312968493, -0.0629272311925888, -0.06122498959302902, 0.10649999976158142, 0.03321770206093788, -0.11141443997621536, 0.07209904491901398, -0.06410641223192215, -0.11126037687063217, 0.053768787533044815, -0.010100030340254307, 0.14169426262378693, 0.056993160396814346, 0.16047115623950958, -0.23559826612472534, 0.3139320909976959, -0.006196797359734774, -0.10913307219743729, 0.09459630399942398, -0.023547573015093803, 0.038715507835149765, -0.1536502242088318, 0.15773741900920868, -0.016006644815206528, 0.12055044621229172, 0.06717600673437119, -0.043395236134529114, -0.05935114994645119, -0.03419962897896767, 0.066827692091465, 0.15257056057453156, 0.06719347834587097, 0.11920276284217834, -0.06757882237434387, 0.007273687049746513, 0.19430691003799438, 0.013587758876383305, -0.03260130435228348, 0.09766874462366104, 0.028874140232801437, 0.012423409149050713, -0.0871884822845459, 0.01918655075132847, 0.19245947897434235, -0.08637178689241409, -0.011250494979321957, 0.2653524875640869, -0.03094402328133583, 0.01260193157941103, 0.21966388821601868, 0.20876500010490417, 0.1391073763370514, -0.1251274049282074, 0.15043595433235168, -0.13965266942977905, -0.14415261149406433, 0.05703025311231613, -0.057605378329753876, 0.14329880475997925, -0.23956653475761414, -0.1578049659729004, 0.20831982791423798, -0.13197074830532074}, {0.3607597351074219, -0.10372408479452133, 0.15057075023651123, -0.08882486075162888, -0.16890951991081238, 0.17158934473991394, -0.22945566475391388, 0.16675637662410736, -0.09827719628810883, -0.232247993350029, 0.09951764345169067, -0.14903192222118378, 0.08236289024353027, -0.1377340704202652, -0.06104036420583725, 0.023670682683587074, -0.09844961762428284, 0.1521988809108734, -0.17036950588226318, 0.05489438772201538, 0.10314170271158218, -0.1799726039171219, -0.11876737326383591, -0.13674768805503845, 0.09942600131034851, 0.13516859710216522, -0.1368405520915985, -0.10922867804765701, 0.00015025174070615321, -0.006061741150915623, -0.08217970281839371, -0.14016810059547424, 0.055467914789915085, -0.05509895086288452, 0.11369247734546661, 0.19003969430923462, 0.12471746653318405, 0.013752439990639687, 0.005714182276278734, 0.07018410414457321, 0.04686129093170166, 0.0637396052479744, -0.0557086244225502, 0.13895569741725922, 0.002532174112275243, 0.007091659586876631, 0.045140691101551056, -0.0387936495244503, -0.1635964810848236, 0.1479659527540207, 0.04616927355527878, -0.03496020659804344, -0.08802853524684906, -0.12530866265296936, 0.08393211662769318, -0.262297123670578, 0.2909763753414154, -0.06360656023025513, 0.0022909818217158318, 0.1885482370853424, -0.01666305400431156, 0.10819311439990997, -0.014698163606226444, 0.22667907178401947, 0.14479930698871613, 0.026569098234176636, -0.07964334636926651, 0.009812410920858383, 0.29469558596611023, 0.08873056620359421, -0.058318644762039185, 0.1575060337781906}, {-0.06654807180166245, 0.09413053095340729, 0.11436934024095535, 0.13000227510929108, 0.0614895261824131, 0.049943652004003525, 0.08496623486280441, -0.4353313148021698, 0.17028994858264923, -0.11214589327573776, -0.16916288435459137, -0.032824885100126266, 0.3104839324951172, 0.03190658614039421, 0.2777838408946991, 0.11480431258678436, -0.04270761087536812, -0.09333210438489914, 0.16866815090179443, 0.12727314233779907, -0.134146049618721, -0.041772738099098206, -0.0033801731187850237, -0.16927994787693024, -0.08846797794103622, 0.07728780061006546, -0.2652736008167267, -0.10015372186899185, 0.019437797367572784, 0.0026555671356618404, -0.019501449540257454, -0.04510645940899849, 0.14222301542758942, 0.01830430142581463, -0.017090724781155586, 0.20916621387004852, -0.3154763877391815, 0.10175267606973648, 0.10363949090242386, 0.0006505655474029481, -0.04558078572154045, -0.0612177774310112, 0.04030345752835274, -0.009814975783228874, 0.05676554515957832, 0.17510175704956055, -0.014783063903450966, 0.041470058262348175, -0.025908056646585464, 0.09111081808805466, -0.1015816256403923, 0.08065500110387802, 0.06673620641231537, -0.03185512125492096, -0.3279400169849396, 0.2494152933359146, -0.1132194995880127, -0.08336136490106583, 0.14607927203178406, 0.2867570221424103, -0.09064377844333649, -0.058689799159765244, -0.058481357991695404, -0.06746161729097366, 0.09351283311843872, -0.0167344119399786, 0.006948873400688171, -0.014700041152536869, -0.07055947184562683, -0.16461344063282013, 0.034719277173280716, 0.020075704902410507}, {-0.09914399683475494, -0.08499867469072342, -0.13528841733932495, -0.037186410278081894, 0.07162085175514221, -0.15458093583583832, -0.0037416950799524784, -0.23560431599617004, -0.12111863493919373, -0.0009534459095448256, -0.10004866868257523, -0.19735345244407654, -0.1997564733028412, -0.1341620534658432, -0.08491432666778564, -0.21940575540065765, 0.000609962095040828, -0.08089805394411087, -0.1177515909075737, -0.009739349596202374, -0.2074529379606247, 0.06337334960699081, -0.10184094309806824, -0.17662329971790314, 0.29779449105262756, 0.07598556578159332, 0.3486817479133606, 0.2550908327102661, -0.16421762108802795, 0.11264753341674805, 0.18879114091396332, -0.25708791613578796, 0.07908282428979874, -0.015537667088210583, 0.09674885123968124, -0.08176974952220917, 0.22221621870994568, 0.04026124253869057, 0.057158954441547394, 0.013428051955997944, 0.06700745970010757, 0.15416768193244934, -0.006376544013619423, 0.011733246967196465, -0.1258264183998108, -0.18196479976177216, 0.07171501219272614, 0.21210825443267822, 0.052094340324401855, -0.04127270728349686, 3.428544368944131e-05, -0.11157433688640594, -0.17443500459194183, 0.051063064485788345, -0.0014185112668201327, -0.37215954065322876, 0.3486679494380951, -0.05628233030438423, 0.07769748568534851, -0.2542087137699127, 0.1824246644973755, -0.042222265154123306, 0.08093609660863876, 0.05141836404800415, -0.03341212868690491, 0.10848377645015717, -0.12942330539226532, -0.0013542510569095612, -0.11039313673973083, -0.11929555982351303, 0.18896381556987762, -0.017192639410495758}, {-0.08808446675539017, 0.1049310639500618, -0.11505772918462753, 0.05839652195572853, 0.25535932183265686, 0.12416417896747589, -0.10944559425115585, 0.032122571021318436, -0.023843130096793175, 0.2937712073326111, 0.01688983477652073, 0.08888160437345505, 0.07861094921827316, -0.050472527742385864, 0.2425849288702011, 0.04206964373588562, 0.14767543971538544, -0.2199135273694992, 0.028715915977954865, -0.196979358792305, 0.07496258616447449, -0.03991151228547096, -0.03175634890794754, -0.0009560591424815357, -0.09667469561100006, -0.22254586219787598, 0.07462674379348755, -0.1265423446893692, -0.06870468705892563, -0.1284133940935135, -0.11690084636211395, 0.26219409704208374, -0.4025624394416809, 0.041546475142240524, 0.17208829522132874, -0.1451028287410736, -0.3382784426212311, -0.056144509464502335, -0.03774562478065491, -0.15817083418369293, 0.03679710999131203, -0.04548191279172897, 0.1261688768863678, 0.010096030309796333, -0.0013553090393543243, 0.14221422374248505, 0.18412980437278748, -0.10968486219644547, 0.05161381885409355, -0.028228171169757843, 0.03726072236895561, 0.02433897741138935, 0.02672835998237133, 0.11321388930082321, -0.04468103125691414, 0.07398844510316849, 0.03693224862217903, -0.10568669438362122, -0.11923138797283173, -0.12286058068275452, -0.2402002066373825, -0.08875501155853271, 0.19671747088432312, 0.21544569730758667, 0.016171831637620926, 0.03466808423399925, 0.1971602439880371, -0.13465842604637146, 0.02281389757990837, 0.20106908679008484, 0.08429527282714844, -0.25314247608184814}, {0.1712513566017151, 0.0032944451086223125, 0.07172655314207077, -0.03158634528517723, -0.17367152869701385, 0.018962539732456207, -0.016171088442206383, -0.5284842252731323, 0.041608262807130814, -0.22333034873008728, -0.008796824142336845, 0.023186536505818367, 0.18073152005672455, -0.0002643875777721405, -0.32718297839164734, -0.12579116225242615, 0.03489750996232033, 0.30556967854499817, -0.21862883865833282, -0.011593606323003769, -0.1421765387058258, 0.10832732915878296, -0.05872460454702377, -0.20535287261009216, 0.16982872784137726, -0.017627403140068054, -0.07369551062583923, 0.04242299869656563, 0.03289208933711052, 0.10529414564371109, -0.0955103188753128, -0.10825581848621368, 0.14374035596847534, 0.02771497145295143, -0.2548825442790985, -0.007460372988134623, 0.12625443935394287, 0.10653398185968399, -0.06792217493057251, 0.013925704173743725, -0.006785370875149965, 0.004276655614376068, -0.005081347655504942, -0.09768132865428925, 0.0373079739511013, -0.012245356105268002, -0.027815958485007286, 0.037500690668821335, -0.22293482720851898, 0.12786667048931122, -0.18347057700157166, 0.020600629970431328, 0.04083911329507828, -0.33426427841186523, -0.18142668902873993, 0.19360587000846863, -0.13289830088615417, 0.015760554000735283, 0.3332923650741577, 0.12458522617816925, 0.15384043753147125, 0.09571670740842819, -0.19197629392147064, -0.09214354306459427, 0.07674704492092133, 0.1536073535680771, -0.23823663592338562, -0.0646778792142868, -0.08489548414945602, -0.2919791340827942, 0.20282012224197388, 0.13070565462112427}, {-0.2901303768157959, -0.0035292706452310085, -0.21665139496326447, -0.050446536391973495, 0.03181774169206619, -0.09804721176624298, 0.13739795982837677, 0.38830429315567017, 0.025045672431588173, 0.19039049744606018, -0.13675621151924133, 0.04211490601301193, 0.005109635181725025, 0.15139096975326538, 0.17085148394107819, 0.06731274724006653, -0.04349596053361893, -0.25072669982910156, 0.19299669563770294, 0.08557435870170593, 0.02538914419710636, 0.020307142287492752, -0.03021395020186901, 0.1662255823612213, -0.42742592096328735, -0.047573212534189224, 0.16249024868011475, 0.025896912440657616, 0.05297791585326195, -0.17375288903713226, 0.00875804666429758, 0.023712527006864548, -0.17367735505104065, 0.26566460728645325, 0.0034300978295505047, -0.0498264916241169, -0.24079014360904694, -0.06787200272083282, 0.06955275684595108, -0.06900002807378769, -0.132468581199646, -0.08128314465284348, -0.0001407012459821999, -0.16568177938461304, 0.0783795416355133, -0.030884217470884323, -0.1743628978729248, 0.10881784558296204, 0.501230776309967, 0.07471276819705963, -0.05570899695158005, -0.0384465791285038, 0.16564323008060455, 0.27138465642929077, -0.1721889227628708, 0.3028039336204529, -0.008124780841171741, -0.07423184812068939, 0.07044809311628342, -0.0161421038210392, 0.12038043141365051, -0.027730364352464676, 0.13471956551074982, -0.06116895750164986, 0.028479039669036865, -0.02236296236515045, 0.18442046642303467, 0.16536645591259003, -0.03719364106655121, -0.044104352593421936, -0.05945388600230217, -0.09075023978948593}, {-0.2084479182958603, -0.012177014723420143, -0.12637218832969666, -0.12414121627807617, 0.03282373026013374, -0.1058998703956604, -0.021770194172859192, 0.05250357836484909, -0.24683716893196106, 0.1739429533481598, -0.08180521428585052, 0.16640500724315643, -0.24279293417930603, 0.1340324580669403, -0.20193061232566833, -0.1714586764574051, -0.016782661899924278, 0.12379879504442215, -0.1373862624168396, -0.19943565130233765, 0.17593789100646973, 0.0819779634475708, 0.16990403831005096, 0.20261289179325104, -0.006877826061099768, -0.07024995982646942, 0.06149876117706299, -0.12115280330181122, -0.08401866257190704, -0.16959749162197113, 0.13070225715637207, 0.1497579962015152, -0.16265137493610382, 0.2507351338863373, 0.11261279881000519, -0.08699338883161545, 0.1653108447790146, -0.016279522329568863, 0.041264865547418594, 0.0044074333272874355, -0.021853577345609665, 0.03809826821088791, -0.030051568523049355, -0.24834409356117249, 0.007846496067941189, -0.2340971976518631, 0.18370093405246735, 0.055096063762903214, 0.315036416053772, -0.14108780026435852, 0.17888401448726654, 0.10402482002973557, -0.026145655661821365, -0.006560653913766146, 0.2001660317182541, 0.30322203040122986, -0.2581007480621338, -0.07181936502456665, 0.09185570478439331, -0.12383969128131866, 0.16613879799842834, 0.03713291510939598, 0.00857345201075077, -0.1877429038286209, -0.06304702162742615, 0.11357372254133224, 0.01398451067507267, 0.1488276720046997, -0.20746493339538574, -0.08667565137147903, 0.013712698593735695, -0.1257847100496292}, {-0.025722533464431763, -0.13951489329338074, -0.15455690026283264, -0.01405849028378725, -0.00021027786715421826, -0.0641612857580185, 0.09174619615077972, 0.29228925704956055, -0.012014796026051044, -0.1355450302362442, -0.06913955509662628, -0.18936185538768768, 0.15299353003501892, 0.027858654037117958, 0.3969317376613617, 0.13493509590625763, 0.031852275133132935, -0.23108451068401337, 0.1640874296426773, 0.25783392786979675, -0.0012198527110740542, -0.05451120436191559, -0.13100218772888184, 0.027780205011367798, -0.22494687139987946, 0.10125404596328735, -0.2035614252090454, 0.049096692353487015, 0.05479491874575615, -0.15550439059734344, -0.004260087385773659, -0.12059277296066284, 0.12910951673984528, 0.13814382255077362, 0.20308053493499756, 0.2933855354785919, -0.2995505928993225, -0.10336025804281235, 0.09340647608041763, -0.025107121095061302, 0.10252673923969269, -0.23867124319076538, 0.09798581898212433, 0.005139050539582968, -0.002107805572450161, 0.2890873849391937, -0.06409936398267746, 0.035208988934755325, 0.2807233929634094, 0.11792544275522232, -0.058607541024684906, -0.08809198439121246, 0.09469300508499146, -0.052232641726732254, -0.17827370762825012, -0.00019442771736066788, 0.11491753160953522, -0.12832629680633545, 0.02718355506658554, 0.019101912155747414, -0.11917461454868317, -0.14713077247142792, 0.11003037542104721, -0.07843839377164841, 0.08035872131586075, -0.010127057321369648, 0.045071158558130264, 0.3859649896621704, -0.08149969577789307, 0.02906913124024868, -0.16043034195899963, 0.0475757010281086}, {-0.024156445637345314, 0.20121031999588013, 0.17861610651016235, 0.21471281349658966, 0.07865258306264877, -0.012465531006455421, 0.14215406775474548, -0.6884656548500061, 0.14368341863155365, 0.23775433003902435, -0.09303154051303864, 0.16786308586597443, 0.046092163771390915, 0.028386134654283524, -0.30395621061325073, -0.2451637238264084, -0.1005948930978775, 0.23628221452236176, -0.03399132937192917, -0.23304149508476257, 0.027373487129807472, -0.15345747768878937, 0.11650563031435013, 0.011447688564658165, 0.27342748641967773, -0.08752849698066711, 0.13175538182258606, -0.0011093681678175926, -5.411086021922529e-05, -0.006843478884547949, -0.016217004507780075, 0.056888435035943985, -0.056735746562480927, -0.17819467186927795, -0.13689152896404266, -0.2009219080209732, 0.22554536163806915, 0.0884990245103836, -0.06551793962717056, 0.1013905480504036, 0.005149897187948227, 0.1565583050251007, -0.08981942385435104, 0.021729862317442894, -0.013513388112187386, -0.23924735188484192, 0.051939692348241806, 0.06435350328683853, -0.3075224459171295, 0.04028116911649704, 0.05486607924103737, -0.02120637707412243, -0.05696592852473259, -0.0529300794005394, -0.07665170729160309, 0.08709991723299026, -0.10301532596349716, 0.008113482967019081, -0.1132613942027092, -0.024500902742147446, -0.08991606533527374, 0.025994280353188515, -0.015257998369634151, -0.054197799414396286, 0.10527565330266953, -0.13768377900123596, -0.11933749169111252, -0.3159642815589905, 0.09786994755268097, 0.12503986060619354, -0.009689386934041977, -0.028766341507434845}, {0.14893431961536407, 0.07616059482097626, 0.12140286713838577, -0.037162911146879196, -0.18022695183753967, 0.15961730480194092, -0.020284738391637802, -0.08807181566953659, 0.1703079789876938, -0.009357297793030739, -0.269297331571579, 0.1425984650850296, 0.008603953756392002, 0.2066861242055893, -0.20576755702495575, -0.07678445428609848, 0.003261060919612646, 0.28622719645500183, -0.1318303793668747, 0.004604217130690813, -0.22243864834308624, -0.018330935388803482, 0.007779449690133333, 0.26824697852134705, -0.16954420506954193, 0.16528774797916412, 0.05573909357190132, 0.13698793947696686, 0.07813233882188797, -0.03087754361331463, 0.0012493875110521913, -0.18743778765201569, 0.1417839229106903, -0.042409926652908325, -0.2615612745285034, 0.2602553963661194, 0.14569637179374695, 0.016256917268037796, -0.03259779140353203, 0.03270273655653, -0.12008219957351685, 0.02620711177587509, -0.04215068742632866, -0.16299211978912354, -0.10443584620952606, -0.1010609120130539, -0.2382400780916214, 0.06806523352861404, 0.028437253087759018, 0.22181765735149384, -0.02758141979575157, 0.10076823085546494, -0.004460792522877455, -0.008141552098095417, -0.18576377630233765, 0.08041354268789291, -0.27075013518333435, 0.1786164492368698, 0.10734453797340393, 0.21460558474063873, -0.017414698377251625, 0.2728040814399719, -0.2320932000875473, -0.13809317350387573, -0.010086927562952042, -0.07985299080610275, -0.13483521342277527, -0.21867592632770538, 0.08307647705078125, -0.05263695493340492, -0.0927550345659256, 0.09330082684755325}, {-0.009744093753397465, -0.16464805603027344, 0.0013267084723338485, -0.08167993277311325, 0.0412151962518692, 0.013014620169997215, -0.058617640286684036, 0.46419280767440796, -0.19993625581264496, -0.06047331541776657, 0.24719621241092682, 0.12225417792797089, -0.24323426187038422, 0.041421886533498764, -0.18823476135730743, -0.10901226103305817, 0.007840726524591446, 0.06128120422363281, -0.1236809492111206, -0.002208523452281952, 0.14322663843631744, 0.08196287602186203, 0.18692973256111145, -0.04489905387163162, -0.038642238825559616, -0.044020041823387146, 0.07153968513011932, -0.2477346807718277, -0.008184561505913734, 0.0036201574839651585, -0.06493594497442245, 0.03950447961688042, -0.2087787240743637, 0.09946317225694656, 0.0250153299421072, -0.01887684129178524, 0.10827872902154922, -0.06188347563147545, -0.06099919229745865, -0.09447965025901794, 0.07900102436542511, -0.06152665615081787, 0.029057439416646957, -0.09026177227497101, 0.19681137800216675, 0.01660124398767948, 0.22457368671894073, -0.004454726353287697, 0.08022335171699524, -0.2317121922969818, 0.08950664103031158, 0.07390765100717545, -0.199625164270401, 0.1306639164686203, 0.3443901538848877, -0.023627111688256264, -0.1030549705028534, -0.06994939595460892, 0.05876348167657852, -0.2603107690811157, 0.19291333854198456, -0.03154997527599335, 0.025518719106912613, 0.06762950867414474, 0.012006263248622417, 0.01387146208435297, 0.10115980356931686, 0.2397410273551941, -0.05103355273604393, 0.01934864930808544, 0.022084787487983704, -0.08744344860315323}, {-0.337245911359787, 0.12925522029399872, -0.24260589480400085, 0.018283570185303688, 0.06722752004861832, -0.10244028270244598, 0.09156502783298492, -0.1488749384880066, -0.21917696297168732, 0.3200366795063019, -0.2980462312698364, 0.1433037519454956, -0.2865598499774933, 0.09365303069353104, -0.07997316122055054, -0.19891521334648132, -0.003961784299463034, -0.08788271248340607, -0.032823387533426285, -0.34567341208457947, -0.01912778988480568, -0.06529474258422852, -0.03646647557616234, 0.037905771285295486, 0.0795513167977333, 0.0822753757238388, 0.19009478390216827, 0.14984066784381866, -0.001336636720225215, -0.040958989411592484, 0.18696783483028412, 0.1353144347667694, 0.007720572408288717, -0.15301671624183655, 0.002074320800602436, -0.20736294984817505, 0.30442801117897034, -0.07564328610897064, 0.020299717783927917, -0.0054472582414746284, -0.1192946583032608, 0.05663301795721054, 0.002776087960228324, -0.029135867953300476, 0.015329768881201744, -0.12019798904657364, -0.12461522221565247, 0.10037574172019958, 0.05463193729519844, 0.004641369916498661, 0.17516513168811798, 0.04444205388426781, -0.1498207300901413, 0.039883531630039215, 0.05272100493311882, -0.1160736009478569, 0.1441396325826645, 0.1341625303030014, -0.1544746309518814, -0.20779426395893097, 0.057188086211681366, -0.07201359421014786, 0.25473496317863464, 0.16873088479042053, 0.03720347210764885, -0.0938543900847435, 0.04935843497514725, 0.03505188599228859, -0.21412275731563568, 0.15330393612384796, 0.07719257473945618, -0.16971926391124725}, {0.16777856647968292, 0.06654752045869827, -0.06415069848299026, 0.14858533442020416, -0.009229375049471855, 0.1289558708667755, 0.011853823438286781, 0.2893247902393341, -0.18875804543495178, -0.016991544514894485, 0.2587375044822693, 0.08669178932905197, -0.07575629651546478, -0.09488563984632492, -0.11770039051771164, -0.021594058722257614, -0.022097162902355194, -0.04817475751042366, 0.05671576038002968, -0.12856443226337433, 0.27302584052085876, -0.01652265340089798, 0.13841599225997925, -0.014971787109971046, 0.07520288974046707, -0.2885192334651947, -0.14625170826911926, -0.1538982391357422, -0.011743834242224693, 0.08532680571079254, -0.15185098350048065, 0.30920201539993286, -0.37730786204338074, 0.05413557589054108, 0.07283490896224976, -0.31485098600387573, -0.09423113614320755, -0.14533497393131256, -0.03202459588646889, -0.22363704442977905, 0.0013994008768349886, -0.08739472925662994, 0.015192718245089054, 0.015579160302877426, 0.16438287496566772, -0.0873822495341301, 0.18668107688426971, -0.15527832508087158, -0.07699233293533325, -0.044209592044353485, 0.09482677280902863, 0.039686527103185654, 0.016513770446181297, 0.00598030025139451, 0.22373902797698975, 0.2402503788471222, -0.029357612133026123, -0.08638667315244675, 0.03095739334821701, 0.006334410514682531, 0.010244694538414478, -0.01486828550696373, 0.06075621023774147, 0.0647934228181839, -0.1043923869729042, -0.005750360898673534, -0.035108041018247604, 0.025617554783821106, 0.009524730034172535, 0.2298285812139511, 0.05140313878655434, -0.27392151951789856}, {0.15295831859111786, -0.04174806922674179, -0.05797746777534485, 0.10405882447957993, -0.09488622099161148, -0.06092381849884987, 0.0010656268568709493, 0.018152352422475815, -0.176469087600708, -0.09858248382806778, 0.11866232752799988, 0.012367946095764637, -0.10256606340408325, -0.15187279880046844, -0.29888516664505005, -0.2638491094112396, 0.0012194240698590875, -0.029090356081724167, -0.13486136496067047, -0.002817210042849183, 0.11760032176971436, -0.050049591809511185, 0.07574059814214706, -0.23005278408527374, 0.439537912607193, -0.04629966616630554, 0.006945150438696146, 0.06386806070804596, -0.0028402889147400856, 0.10998338460922241, 0.009198210202157497, 0.1811373084783554, -0.0351463258266449, 0.022516727447509766, -0.025772860273718834, -0.2544648051261902, 0.19709858298301697, -0.04145502671599388, -0.034828003495931625, 0.01900082267820835, 0.10971160233020782, 0.19272401928901672, 0.030734460800886154, 0.18468308448791504, 0.11540350317955017, -0.171054869890213, 0.032087381929159164, -0.1513669192790985, -0.14272266626358032, -0.06575882434844971, 0.11075221002101898, -0.036488261073827744, -0.2007732093334198, -0.13647927343845367, 0.21940305829048157, -0.03006870299577713, 0.10035886615514755, -0.09655088186264038, 0.07371041923761368, -0.10078945010900497, 0.23048736155033112, -0.03583093732595444, -0.010653398931026459, 0.13814598321914673, -0.10023828595876694, -0.04060240462422371, 0.029279982671141624, 0.15696264803409576, -0.09367929399013519, 0.0584527961909771, 0.2078387588262558, -0.13012628257274628}, {-0.038256268948316574, -0.08688835799694061, -0.13748998939990997, -0.0030924968887120485, 0.002196321729570627, 0.036705005913972855, 0.1146247386932373, -0.06475230306386948, -0.007027633488178253, -0.022394953295588493, 0.019092511385679245, 0.01605520397424698, 0.15917371213436127, -0.23599457740783691, 0.28471097350120544, 0.0054941861890256405, -0.0922013521194458, -0.02599293366074562, 0.09646164625883102, -0.0016370603116229177, 0.0889226421713829, 0.10151113569736481, -0.04162048175930977, -0.21423578262329102, 0.1513333022594452, -0.18886691331863403, 0.0011355428723618388, 0.0461609773337841, 0.04220185801386833, 0.12479809671640396, -0.06232508271932602, 0.11889175325632095, -0.14469392597675323, 0.10150622576475143, 0.0121845044195652, -0.20653219521045685, -0.1832016557455063, -0.07421895861625671, -0.07108736038208008, -0.025204934179782867, -0.028143562376499176, -0.09183388948440552, 0.057071276009082794, 0.3523501455783844, 0.08204976469278336, 0.18476717174053192, 0.008065120317041874, -0.27882248163223267, 0.045804861932992935, 0.14733575284481049, -0.11214062571525574, -0.008451597765088081, 0.2359853982925415, 0.06612422317266464, -0.09386233240365982, 0.3002137243747711, 0.08821803331375122, -0.16280390322208405, 0.14060524106025696, 0.23539535701274872, -0.07410290837287903, -0.1900518238544464, 0.1254958063364029, 0.05837881937623024, -0.0024496696423739195, -0.06519196182489395, 0.13413935899734497, 0.07124485820531845, 0.11591839790344238, -0.02094447799026966, 0.18166349828243256, -0.04537045955657959}, {-0.059128545224666595, 0.11106035113334656, -0.03175592049956322, 0.018999796360731125, 0.08049534261226654, -0.026522411033511162, 0.015034729614853859, -0.10443727672100067, 0.012798844836652279, 0.32178977131843567, -0.16837440431118011, 0.042442359030246735, -0.0739031434059143, 0.11793509870767593, -0.00611652247607708, -0.14134399592876434, -0.1754644513130188, -0.06472618132829666, -0.011355098336935043, -0.3685036301612854, -0.09192553162574768, -0.1023901179432869, -0.10778049379587173, 0.15231451392173767, 0.10207601636648178, -0.1341785490512848, 0.3764035999774933, 0.11463536322116852, -0.14560645818710327, -0.015255071222782135, 0.08327192813158035, -0.14902819693088531, -0.062461040914058685, 0.010916374623775482, -0.1323365718126297, -0.09676269441843033, 0.10130156576633453, 0.02836117520928383, -0.000803460949100554, -0.06421136111021042, -0.1584978848695755, 0.1737036108970642, -0.0822257325053215, -0.05809454619884491, 0.004941643215715885, -0.2772199809551239, -0.1641615331172943, 0.03797062858939171, 0.01077615562826395, -0.03816184401512146, 0.13941186666488647, 0.04671981558203697, -0.18229706585407257, 0.15887948870658875, -0.01350332610309124, -0.27412718534469604, 0.1370764672756195, 0.10189581662416458, -0.25315365195274353, -0.1973167061805725, 0.10187624394893646, 0.15495610237121582, 0.08896981924772263, 0.07918186485767365, -0.0612066425383091, -0.10988034307956696, 0.10071451961994171, -0.39547625184059143, 0.13959239423274994, -0.025743156671524048, -0.18909096717834473, 0.06755723059177399}, {-0.010754133574664593, -0.006492949556559324, -0.11648207902908325, 0.01811305806040764, 0.02542119100689888, 0.0661715567111969, 0.09098495543003082, 0.08725792914628983, 0.09542688727378845, -0.18313324451446533, -0.027434321120381355, -0.04741007089614868, 0.13360388576984406, -0.15921060740947723, 0.2825300097465515, 0.05918223038315773, 0.010979123413562775, -0.05899413302540779, 0.1944517344236374, 0.25132402777671814, 0.033624544739723206, 0.007816827856004238, -0.06155237555503845, -0.019582023844122887, -0.20911623537540436, 0.05060886964201927, -0.263932466506958, 0.07446563243865967, 0.16590158641338348, -0.01941785402595997, -0.14919088780879974, 0.02846529334783554, -0.04366869851946831, 0.0628141313791275, 0.1646871119737625, -0.029973218217492104, -0.36430424451828003, -0.0463770367205143, 0.022826004773378372, 0.06359229981899261, -0.0002693368005566299, -0.23330768942832947, 0.059577275067567825, 0.16811560094356537, 0.030210427939891815, 0.2509578764438629, -0.12015436589717865, -0.0110158771276474, 0.21812032163143158, 0.11875290423631668, -0.0716390535235405, 0.08740431815385818, 0.15381893515586853, 0.057381510734558105, -0.12621603906154633, 0.2477802336215973, -0.06438569724559784, -0.12652862071990967, 0.13878680765628815, 0.12985631823539734, -0.1919141709804535, -0.06699596345424652, 0.10864493250846863, -0.08457133173942566, -0.10170029103755951, -0.04465121775865555, -0.038613516837358475, 0.1726149469614029, -0.002098536118865013, 0.032928988337516785, -0.0683111920952797, 0.03116162121295929}, {-0.0647953525185585, 0.0001108243377530016, -0.022906091064214706, -0.009548679925501347, -0.1835707724094391, -0.14102424681186676, -0.02317289263010025, -0.10752447694540024, -0.0509585477411747, 0.12893910706043243, -0.15759122371673584, -0.0571361742913723, -0.16055786609649658, -0.044243041425943375, -0.24804161489009857, -0.24891702830791473, -0.18025648593902588, 0.1746668517589569, -0.018881363794207573, -0.08167775720357895, -0.05611356347799301, 0.1369355022907257, 0.010181805118918419, 0.029115084558725357, 0.20352664589881897, -0.09926009923219681, 0.34204360842704773, 0.13749438524246216, -0.10197944194078445, 0.04019855335354805, 0.09827200323343277, -0.21947063505649567, 0.020992903038859367, 0.03380277007818222, -0.014977922663092613, -0.09577631205320358, 0.29035109281539917, 0.19255021214485168, 0.049341946840286255, -0.08014446496963501, 0.08412082493305206, 0.07617274671792984, -0.092880979180336, -0.21281591057777405, 0.05493907630443573, -0.15806065499782562, -0.037364281713962555, 0.2990064024925232, 0.11851535737514496, -0.15794363617897034, 0.1808139830827713, -0.008575587533414364, -0.1402481496334076, 0.10346071422100067, 0.1478569209575653, -0.24435967206954956, 0.027446746826171875, 0.15681512653827667, -0.02040802873671055, -0.23357386887073517, 0.1535944938659668, 0.054225996136665344, -0.019282206892967224, -0.20872171223163605, -0.08463836461305618, 0.16408498585224152, -0.10305220633745193, -0.06686519831418991, 0.006859546527266502, -0.15788519382476807, -0.049094002693891525, 0.01082286611199379}, {-0.21758858859539032, -0.06151752546429634, -0.17999118566513062, 0.02104639820754528, -0.09531369060277939, 0.0107122752815485, -0.038910627365112305, -0.005667373538017273, -0.15125297009944916, -0.02314082719385624, -0.08893867582082748, -0.08070439100265503, -0.1689332127571106, -0.17927254736423492, -0.008379939943552017, -0.08723434805870056, -0.1407410353422165, -0.008727086707949638, -0.038129180669784546, -0.09623346477746964, 0.15770895779132843, 0.19328777492046356, 0.07124525308609009, -0.12833081185817719, 0.18173278868198395, -0.13823139667510986, 0.20715336501598358, 0.15753304958343506, -0.14322136342525482, 0.06617186963558197, 0.02517561987042427, 4.80831804452464e-05, -0.04861271381378174, 0.06591276824474335, -0.01654925011098385, -0.06137848645448685, 0.13987664878368378, 0.07236573845148087, -0.03554880619049072, -0.1240062564611435, -0.018056174740195274, -0.0009533879347145557, -0.0012451098300516605, 0.001463499036617577, 0.009312585927546024, -0.0011975131928920746, -0.0980161800980568, 0.08547194302082062, 0.09110401570796967, -0.07694985717535019, -0.09027185291051865, -0.08572633564472198, -0.023714033886790276, 0.1455811858177185, 0.029143821448087692, -0.03913174569606781, 0.2621709108352661, -0.0055633834563195705, 0.15313242375850677, -0.07095473259687424, 0.3635788559913635, -0.10900864005088806, 0.13723449409008026, -0.05285511538386345, -0.1003454402089119, 0.15443415939807892, -0.0899282693862915, 0.07330235838890076, -0.06867578625679016, -0.0723586454987526, 0.133637472987175, 0.06701403856277466}, {-0.2729294002056122, 0.026983071118593216, -0.2950592637062073, -0.10283833742141724, 0.15060794353485107, -0.15210896730422974, -0.06589394807815552, -0.17722256481647491, -0.06611867994070053, 0.1628728061914444, -0.14611104130744934, 0.14140233397483826, 0.07322471588850021, 0.18280494213104248, 0.04747160151600838, 0.07177069783210754, 0.014668142423033714, -0.19109253585338593, 0.028786756098270416, -0.054585766047239304, -0.13352452218532562, 0.18067099153995514, 0.020753098651766777, 0.19934242963790894, -0.1569782942533493, 0.03908822312951088, 0.22151777148246765, 0.20219211280345917, -0.06720047444105148, -0.13428626954555511, 0.10874577611684799, -0.1084166094660759, 0.03396483138203621, 0.02563805878162384, 0.02906564436852932, 0.12500673532485962, -0.011051864363253117, 0.06952762603759766, 0.004583199042826891, -0.05024778097867966, -0.06834639608860016, 0.04498583823442459, -0.12756530940532684, -0.1498376429080963, -0.05341150984168053, -0.07526719570159912, -0.009115787222981453, 0.14194941520690918, 0.25442612171173096, 0.007227645721286535, 0.04422573000192642, -0.1224030926823616, -0.20358411967754364, 0.21247203648090363, 0.00022255998919717968, -0.22222602367401123, 0.020461877807974815, 0.012906350195407867, 0.005894998088479042, -0.2096451371908188, 0.1300293207168579, 0.14388704299926758, 0.013784702867269516, -0.08200053870677948, 0.048245545476675034, 0.0010845247888937593, 0.028347142040729523, -0.045444849878549576, -0.1839577555656433, 0.0005058714305050671, -0.053751714527606964, 0.0369969941675663}, {0.11466053128242493, -0.08498479425907135, -0.023710433393716812, -0.02356013096868992, -0.0615977868437767, 0.13599812984466553, 0.017593586817383766, 0.06101210042834282, 0.16090553998947144, -0.0809280127286911, -0.22889140248298645, -0.004251445177942514, 0.0988406091928482, 0.15909439325332642, 0.12187668681144714, 0.10061860829591751, 0.11042951792478561, -0.03678896650671959, 0.0019030618714168668, 0.2246025949716568, -0.1576392650604248, 0.03351099416613579, 0.027823176234960556, 0.3230932652950287, -0.3371347486972809, 0.11287824809551239, -0.17068123817443848, 0.004237928427755833, 0.12558619678020477, -0.12911458313465118, -0.07706403732299805, -0.22169920802116394, 0.0764496847987175, 0.21012555062770844, -0.14968998730182648, 0.24448636174201965, -0.06141210347414017, 0.11742138862609863, -0.05961134657263756, 0.02784675545990467, -0.07954501360654831, -0.19627824425697327, -0.010418342426419258, -0.164823517203331, -0.17281605303287506, 0.11355570703744888, -0.04382755607366562, 0.2001551389694214, 0.2160331904888153, 0.1292474865913391, -0.11169954389333725, -0.0740755945444107, -0.09455110877752304, 0.1104697436094284, -0.20223216712474823, 0.04916148632764816, -0.12813404202461243, 0.012360755354166031, -0.08929861336946487, 0.0906764566898346, -0.13791027665138245, 0.1686507612466812, -0.197107195854187, -0.11402609199285507, 0.09261219203472137, 0.03204108402132988, -0.04133348912000656, -0.09745416790246964, -0.2055174708366394, -0.12373457849025726, -0.21021965146064758, 0.1358722299337387}, {-0.18723969161510468, 0.22153306007385254, 0.08473503589630127, -0.057372063398361206, 0.02041619084775448, -0.1375819742679596, 0.16758741438388824, -0.7580990791320801, 0.21626035869121552, 0.17890849709510803, -0.35431355237960815, 0.023457614704966545, -0.031010767444968224, 0.12869662046432495, -0.2316102385520935, -0.1593274474143982, -0.009213090874254704, 0.18111863732337952, -0.06043752282857895, -0.017049837857484818, -0.11026637256145477, 0.06293909251689911, -0.006678195670247078, -0.013108056969940662, 0.0760677382349968, 0.18135644495487213, 0.06405752897262573, 0.23915357887744904, -0.018673337996006012, 0.06783899664878845, 0.01967552676796913, -0.13519899547100067, 0.29011771082878113, -0.12974445521831512, -0.24065572023391724, 0.03251063823699951, 0.23845240473747253, 0.06426046788692474, 0.0635903850197792, -0.006328418850898743, -0.00043552799616008997, 0.023599380627274513, 0.08159278333187103, -0.07449841499328613, -0.12242748588323593, -0.09818410873413086, -0.19560104608535767, 0.1191088855266571, -0.1112700030207634, 0.21479511260986328, -0.03328235074877739, -0.025501079857349396, 0.03300116956233978, -0.17492476105690002, -0.2059645652770996, 0.32531821727752686, -0.029292741790413857, -0.10312799364328384, 0.229203999042511, 0.12255125492811203, 0.06683962047100067, 0.12445489317178726, -0.08381478488445282, -0.05503121763467789, -0.04837901517748833, 0.040586866438388824, -0.19026722013950348, -0.08473443984985352, -0.1867164671421051, -0.22336749732494354, -0.008747730404138565, 0.07385154068470001}, {0.18143220245838165, -0.007154671009629965, 0.033326130360364914, 0.11694604158401489, -0.1802540123462677, 0.09288361668586731, 0.05901818722486496, 0.37099432945251465, -0.16925300657749176, -0.05363450571894646, 0.2828633785247803, 0.02025696448981762, -0.008923382498323917, -0.07646045088768005, 0.036070771515369415, -0.17544704675674438, -0.080254927277565, 0.14807437360286713, -0.06889913231134415, 0.15203218162059784, 0.15809907019138336, 0.10449288040399551, 0.1841903030872345, -0.21040746569633484, 0.03200487792491913, -0.09203467518091202, -0.2425057739019394, -0.2660040557384491, 0.007564119063317776, -0.058630913496017456, -0.1569124162197113, 0.20471246540546417, -0.18381668627262115, 0.12157348543405533, 0.02731340005993843, -0.2588348984718323, -0.18369051814079285, -0.10340771079063416, 0.0823727622628212, -0.13962610065937042, -0.0639248713850975, -0.08221998065710068, 0.08575793355703354, 0.22108396887779236, 0.2615671753883362, 0.16297994554042816, 0.1430673599243164, -0.1510593742132187, -0.12048821151256561, 0.06414829194545746, 0.016185319051146507, 0.16088071465492249, 0.12632112205028534, -0.15913616120815277, 0.151847243309021, 0.3708924651145935, 0.025738229975104332, -0.05993759259581566, 0.2336062788963318, 0.10348428040742874, -0.0975867286324501, -0.0552193820476532, -0.05521564185619354, 0.05399416759610176, 0.025670846924185753, 0.09535122662782669, -0.1347312331199646, 0.19949710369110107, -0.00326330354437232, 0.015417560935020447, 0.13744404911994934, -0.15337857604026794}, {-0.20698028802871704, 0.10422146320343018, -0.042768459767103195, 0.0328141488134861, 0.16174398362636566, -0.12060829252004623, 0.009505487978458405, -0.10074543952941895, -0.16563399136066437, -0.045062657445669174, 0.08006522804498672, -0.05911784991621971, -0.010972988791763783, -0.06397853046655655, -0.2638731896877289, -0.0758919045329094, 0.01753275841474533, 0.05644102394580841, -0.016997836530208588, -0.02883487194776535, 0.01116254273802042, 0.021377544850111008, 0.15567432343959808, -0.0023511520121246576, 0.24519044160842896, 0.0008930796175263822, -0.04401718080043793, 0.11948399990797043, -0.03260438144207001, 0.05282547324895859, -0.028375882655382156, 0.11412470787763596, -0.12962834537029266, -0.047716736793518066, 0.20906521379947662, -0.3316074311733246, 0.1957530528306961, -0.03627915307879448, 0.08085782080888748, 0.05107101798057556, -0.021113649010658264, -0.027297722175717354, -0.049794379621744156, 0.00029039030778221786, 0.08887463808059692, -0.029438231140375137, 0.23016871511936188, 0.022686809301376343, 0.009214363992214203, -0.1388051062822342, -0.06892827153205872, 0.09825089573860168, -0.09485356509685516, 0.03781159594655037, 0.12646134197711945, 0.17190852761268616, -0.12507937848567963, 0.009589288383722305, 0.332428514957428, -0.021385671570897102, 0.26451563835144043, -0.19631533324718475, 0.0349050797522068, -0.1293022185564041, 0.03756771981716156, 0.026653505861759186, -0.12058540433645248, 0.1364632546901703, -0.21187853813171387, -0.14021210372447968, 0.25833433866500854, -0.16762609779834747}, {0.0017368814442306757, 0.3143612742424011, 0.044627316296100616, 0.2050466388463974, 0.19201846420764923, 0.19159437716007233, -0.08305676281452179, -0.5372549295425415, 0.018427347764372826, 0.0998232513666153, 0.11582476645708084, 0.18180271983146667, -0.12227901071310043, -0.052473507821559906, -0.13646499812602997, -0.028600001707673073, 0.03659548610448837, -0.024647261947393417, 0.12180735915899277, -0.20770855247974396, 0.043819721788167953, -0.16257119178771973, 0.13292178511619568, -0.041197191923856735, 0.19640007615089417, -0.2537553012371063, -0.1773035228252411, 0.05497349053621292, 0.14580000936985016, 0.17404507100582123, -0.09473414719104767, 0.20316767692565918, -0.17606642842292786, -0.2646351754665375, 0.012490376830101013, -0.25733718276023865, 0.020981015637516975, -0.10214506834745407, 0.013249092735350132, 0.10933993756771088, -0.08762189000844955, -0.06244337558746338, 0.08323463797569275, 0.14956089854240417, 0.0031641481909900904, 0.0033687150571495295, 0.038778819143772125, -0.13286295533180237, -0.2964978814125061, -0.16131578385829926, -0.11744183301925659, -0.06756036728620529, 0.06976643949747086, -0.1305408477783203, -0.10827304422855377, 0.16179972887039185, -0.17237944900989532, -0.21605363488197327, -0.10615038126707077, -0.04584520682692528, -0.1309354156255722, 0.03463412821292877, 0.06381794810295105, -0.0279386043548584, 0.04644690081477165, -0.08185070008039474, 0.13859036564826965, -0.14659403264522552, -0.07190237194299698, 0.1095781996846199, 0.0808631181716919, -0.17269021272659302}, {-0.3800010681152344, 0.15349352359771729, -0.11561064422130585, -0.15344884991645813, 0.037995174527168274, -0.19917896389961243, 0.021345604211091995, -0.19873517751693726, 0.10633137077093124, 0.19846183061599731, -0.27197378873825073, -0.0022611445747315884, 0.039977822452783585, 0.19813062250614166, -0.09882043302059174, -0.005518998019397259, 0.14933127164840698, 0.03672679886221886, -0.01715928502380848, -0.04763675108551979, -0.004801514558494091, 0.17445051670074463, 0.10125470161437988, 0.2726701498031616, -0.11963164806365967, -0.0006056608399376273, 0.22794754803180695, 0.12927910685539246, 0.020454857498407364, -0.06101008132100105, 0.17874276638031006, -0.23620589077472687, 0.14222590625286102, 0.1544039398431778, -0.048273999243974686, -0.012835027649998665, -0.0667945072054863, 0.0006358089740388095, -0.02946430630981922, 0.08456038683652878, -0.06615989655256271, -0.02399807795882225, 0.07311537116765976, -0.3139858841896057, 0.055373866111040115, -0.07670381665229797, -0.05810042843222618, 0.18505774438381195, 0.416084349155426, -0.08375047147274017, 0.009998778812587261, -0.08306023478507996, -0.14334315061569214, 0.03880298510193825, -0.07661711424589157, 0.14451663196086884, -0.1676805317401886, -0.000723890436347574, 0.1529647707939148, -0.10233043879270554, 0.03907296806573868, -0.044996488839387894, -0.1246459111571312, -0.0427742563188076, -0.06877091526985168, 0.12114666402339935, -0.06551189720630646, -0.007222531363368034, -0.31065523624420166, -0.21414995193481445, -0.07553704082965851, -0.024820469319820404}, {-0.12540137767791748, -0.1945662945508957, -0.187323197722435, -0.11439552158117294, -0.14715534448623657, -0.0916336253285408, -0.03977847844362259, 0.41641589999198914, -0.0557258166372776, -0.1677035242319107, 0.02788146771490574, -0.3393799364566803, -0.13043789565563202, -0.06157701089978218, -0.06863836944103241, -0.12179899215698242, -0.0839148536324501, -0.14050912857055664, 0.07176896184682846, 0.23268359899520874, 0.042602576315402985, 0.0924140214920044, 0.13982516527175903, 0.11375461518764496, 0.08812080323696136, 0.1376456618309021, 0.18019554018974304, -0.06012006476521492, -0.0811605378985405, -0.11224665492773056, 0.16305412352085114, -0.02429138496518135, 0.2115297168493271, 0.05143006145954132, 0.03604796901345253, 0.12212212383747101, 0.08829071372747421, 0.11350490897893906, 0.002371783135458827, -0.015409204177558422, 0.05514707788825035, 0.10168340802192688, -0.038633059710264206, -0.015311138704419136, 0.04496290162205696, 0.00021261018991935998, -0.14608611166477203, 0.1948721557855606, 0.2552162706851959, -0.02774590253829956, 0.018335506319999695, 0.037764906883239746, -0.11382059007883072, -0.012446786276996136, 0.10200561583042145, -0.2189253270626068, 0.24133756756782532, 0.08676774799823761, 0.2133014053106308, -0.00477995490655303, 0.2654972970485687, -0.05180439352989197, -0.039404626935720444, -0.019019359722733498, -0.09050450474023819, 0.14624537527561188, -0.019808713346719742, 0.36687690019607544, -0.16561974585056305, -0.11819639801979065, 0.1826322376728058, 0.08588329702615738}, {0.16148558259010315, -0.08009331673383713, 0.05209614709019661, 0.002570545068010688, -0.12170884758234024, 0.09204680472612381, -0.1750538945198059, 0.25603631138801575, 0.14139622449874878, -0.12985429167747498, 0.1333789974451065, -0.24312680959701538, 0.185215562582016, -0.1085507795214653, 0.25477540493011475, -0.06987658888101578, -0.09987731277942657, -0.01886279135942459, 0.0009608700638636947, 0.2576324939727783, 0.0020407368429005146, -0.07277324050664902, -0.26531708240509033, -0.22314108908176422, 0.014918750151991844, 0.10249735414981842, -0.017586763948202133, -0.08060522377490997, -0.023556001484394073, -0.030477561056613922, -0.09580913186073303, -0.13676366209983826, 0.029012901708483696, 0.16703099012374878, -0.05166949704289436, 0.23495765030384064, -0.2228083461523056, -0.10311312973499298, -0.055830784142017365, -0.1660802960395813, -0.12349608540534973, -0.0802011638879776, 0.0005070948391221464, 0.011290096677839756, 0.019984064623713493, 0.05878588184714317, 0.026965750381350517, -0.1411978304386139, 0.08540161699056625, 0.13515636324882507, -0.08325543999671936, 0.032788947224617004, 0.17458003759384155, 0.06787047535181046, 0.015121830627322197, -0.15355491638183594, 0.13755793869495392, 0.046375323086977005, -0.024811169132590294, 0.3507889211177826, 0.07592889666557312, 0.14107577502727509, -0.1048734113574028, 0.13022783398628235, 0.018774688243865967, 0.0007617320516146719, -0.04816610738635063, 0.08973658084869385, 0.3601835370063782, 0.03591165319085121, -0.09805650264024734, 0.2868475615978241}, {-0.1645791083574295, -0.14720860123634338, -0.0024572534020990133, -0.11248863488435745, 0.02417341060936451, -0.17024469375610352, 0.00912115816026926, 0.142024427652359, -0.09961369633674622, -0.020387010648846626, 0.15692274272441864, -0.17335651814937592, 0.07403378933668137, -0.05685748532414436, -0.07370511442422867, -0.06309552490711212, -0.1057564914226532, -0.11060624569654465, 0.03238910809159279, 0.24060820043087006, 0.09336451441049576, 0.18921463191509247, 0.17967404425144196, -0.2723439037799835, 0.14675962924957275, -0.15229526162147522, -0.15624788403511047, -0.1542350798845291, -0.07893645763397217, 0.09138284623622894, -0.17918452620506287, 0.0004529370053205639, -0.025445932522416115, 0.22809042036533356, 0.16301649808883667, -0.10025577247142792, -0.1728789359331131, -0.017199503257870674, 0.025623582303524017, 0.1245097890496254, 0.012741459533572197, 0.03593195229768753, -0.0349421352148056, -0.04340948909521103, 0.23144122958183289, 0.035390742123126984, 0.11224327981472015, -0.06988819688558578, 0.2409239262342453, 0.013044450432062149, 0.03585359454154968, -0.03936665505170822, -0.00012767860607709736, -0.0167168490588665, -0.07439841330051422, 0.07814140617847443, 0.22769208252429962, -0.023311849683523178, 0.26197540760040283, 0.14912782609462738, 0.3339100778102875, -0.2354089766740799, 0.07249373942613602, -0.05246009677648544, -0.06576071679592133, 0.06343553215265274, -0.13567669689655304, 0.37903836369514465, -0.08884792029857635, -0.21107496321201324, 0.4084702432155609, -0.09491898119449615}, {0.022776372730731964, 0.002247145399451256, -0.07044773548841476, 0.012808961793780327, 0.10564587265253067, -0.10535899549722672, 0.013198892585933208, -0.24978312849998474, -0.025164946913719177, -0.0794650986790657, 0.04324550926685333, -0.10666736215353012, 0.06869986653327942, -0.013225151225924492, -0.10861311107873917, -0.07627075165510178, 0.02329421043395996, 0.06680840998888016, 0.0711364597082138, 0.013812133111059666, 0.00030315923504531384, 0.24807733297348022, 0.06969200819730759, -0.17889368534088135, 0.12891413271427155, 0.005361280404031277, -0.1542683094739914, 0.11666397750377655, 0.05666413903236389, 0.16398531198501587, -0.019752850756049156, 0.07833221554756165, -0.042463518679142, -0.01023867167532444, 0.006381770130246878, -0.04410267621278763, -0.031402476131916046, 0.20656974613666534, -0.06805436313152313, 0.15189336240291595, 0.029620207846164703, -0.10191719233989716, -0.11111441999673843, -0.0017397321062162519, 0.004784959368407726, 0.13424980640411377, 0.13507314026355743, 0.2571219801902771, 0.10880531370639801, 0.060056015849113464, -0.11814332753419876, -0.0029480531811714172, 0.02690138667821884, -0.08491270989179611, -0.1268705427646637, 0.2091129869222641, -0.050878237932920456, -0.22298969328403473, 0.4092695116996765, 0.06864793598651886, 0.2310793250799179, -0.14249734580516815, -0.050879813730716705, -0.2571515738964081, 0.010617347434163094, 0.10505328327417374, -0.24890285730361938, 0.24222414195537567, -0.3014622926712036, -0.3731386065483093, 0.35963642597198486, -0.06053415313363075}, {-0.1427735537290573, 0.15917250514030457, -0.20048987865447998, 0.12266268581151962, 0.14760930836200714, -0.03105848841369152, 0.002990920329466462, -0.13875702023506165, -0.1001141294836998, 0.3164708912372589, -0.04708327353000641, 0.062281299382448196, -0.10298903286457062, 0.10678145289421082, -0.11405877768993378, -0.1256241649389267, 0.08468364924192429, -0.1452314257621765, 0.06181521341204643, -0.3192141652107239, 0.08792843669652939, 0.11024510860443115, 0.07279244065284729, -0.07463517040014267, 0.1438494175672531, -0.19082209467887878, 0.22993311285972595, -0.0163441002368927, -0.08220899850130081, 0.08247643709182739, -0.026834655553102493, 0.20098033547401428, -0.2636999785900116, -0.13048312067985535, 0.08960177004337311, -0.34494301676750183, 0.04388151317834854, -0.11414285004138947, 0.0626295804977417, -0.13758030533790588, 0.07673704624176025, 0.09032565355300903, -0.04753774404525757, -0.008122129365801811, 0.08021030575037003, -0.06394709646701813, 0.20019613206386566, -0.12708017230033875, -0.020746715366840363, -0.09396971762180328, 0.008773802779614925, -0.13806863129138947, -0.15522752702236176, -4.822701157536358e-06, 0.04922172427177429, 0.001794122625142336, -0.001863690442405641, -0.0018103900365531445, -0.2236701250076294, -0.2201049029827118, -0.07225556671619415, -0.06795088946819305, 0.0710408091545105, 0.15566110610961914, -0.01475690957158804, 0.04161309823393822, 0.09796924144029617, -0.009993133135139942, -0.1055680364370346, 0.09858060628175735, 0.16484244167804718, -0.22527173161506653}, {-0.0003557149029802531, -0.15108197927474976, 0.11343216896057129, 0.076888807117939, 0.04827284812927246, -0.0001530917943455279, 0.051229193806648254, 0.2649956941604614, -0.0050891004502773285, 0.01390724629163742, 0.1152050644159317, -0.286592572927475, -0.05814334377646446, -0.27637946605682373, 0.22588859498500824, -0.11390827596187592, -0.1720534712076187, -0.19125810265541077, 0.02174624614417553, 0.09493133425712585, 0.05225275456905365, -0.017405327409505844, 0.06893281638622284, -0.36766523122787476, 0.004211533814668655, -0.07495351135730743, -0.003610751358792186, -0.00505464430898428, -0.023364942520856857, 0.0053105540573596954, -0.07945481687784195, 0.00036381007521413267, -0.08181562274694443, 0.09110566973686218, 0.24095803499221802, -0.14095397293567657, -0.05239442363381386, -0.07247841358184814, -0.10026025027036667, -0.05753177031874657, 0.012994008138775826, -0.030949842184782028, -0.020470118150115013, 0.20655572414398193, 0.2027783989906311, 0.015087440609931946, 0.15364275872707367, -0.14256876707077026, 0.07379800826311111, 0.090672068297863, -0.154864102602005, 0.11755117774009705, 0.21361318230628967, 0.09566612541675568, -0.02501407451927662, 0.06899210065603256, 0.17795681953430176, -0.02735244482755661, 0.19003736972808838, 0.05113963410258293, 0.07758259773254395, -0.1938571333885193, 0.15036951005458832, -0.1140204444527626, -0.08373378217220306, 0.07901286333799362, 0.02756328508257866, 0.23012757301330566, -0.0217132568359375, -0.037809498608112335, 0.09430663287639618, -0.25918522477149963}, {-0.04050617665052414, -0.18339821696281433, -0.15234065055847168, -0.04870590567588806, -0.18090243637561798, -0.08290538191795349, -0.11937399208545685, 0.42548269033432007, 0.02942008152604103, -0.10420745611190796, -0.16906796395778656, -0.03000982105731964, -0.11115432530641556, 0.20230986177921295, 0.07271059602499008, -0.0736631378531456, -0.13807708024978638, 0.0156522486358881, -0.11962389945983887, 0.07960858196020126, -0.1342923492193222, 0.15367023646831512, -0.055193934589624405, 0.19469469785690308, -0.23666125535964966, 0.17938323318958282, 0.1565266102552414, -0.02892417460680008, -0.003923356998711824, -0.17114344239234924, 0.11157671362161636, -0.2743440270423889, 0.2590678334236145, 0.15358997881412506, -0.060729049146175385, 0.32898467779159546, 0.08708985149860382, 0.14246471226215363, 0.07594260573387146, -0.07485997676849365, -0.11832908540964127, 0.16017252206802368, -0.0879543125629425, -0.22779057919979095, -0.10747133195400238, -0.07858461141586304, -0.17364659905433655, 0.1106417179107666, 0.40274402499198914, -0.08642894774675369, 0.0265117809176445, -0.01361631415784359, -0.10503572225570679, 0.04976174235343933, 0.20839934051036835, -0.4652702212333679, 0.09757629781961441, 0.19638623297214508, -0.1348278820514679, -0.12974990904331207, 0.250436395406723, 0.08799833059310913, -0.08845173567533493, 0.013868296518921852, 0.03797249123454094, 0.07617897540330887, 0.06846562772989273, 0.007321791257709265, 0.08882790058851242, -0.1681390255689621, -0.015051089227199554, 0.18500611186027527}, {0.16124939918518066, 0.06366074830293655, 0.07290512323379517, 0.10147986561059952, 0.04270759969949722, -0.07834849506616592, 0.0030720580834895372, 0.001280253753066063, -0.28589922189712524, -0.01772380620241165, 0.0593111552298069, -0.033522479236125946, -0.16963304579257965, 0.06879526376724243, -0.41842660307884216, -0.050781361758708954, -0.004453142173588276, 0.17243193089962006, -0.1744634211063385, -0.026485705748200417, 0.07188578695058823, 0.08082181960344315, 0.2947523891925812, 0.10503821074962616, 0.214619442820549, 0.0357854925096035, -0.07179476320743561, 0.0050349426455795765, -0.06778212636709213, -0.10080081969499588, -0.1127859428524971, 0.09183063358068466, 0.0699443370103836, 0.02864554151892662, 0.05227001756429672, -0.1745457798242569, 0.1809392273426056, 0.10087645053863525, 0.0056163291446864605, -0.0470738410949707, -0.09934251010417938, 0.08620615303516388, -0.01593712531030178, -0.1395038664340973, 0.1348479986190796, -0.0008133800001814961, -0.0036345256958156824, -0.07426482439041138, -0.10813144594430923, -0.12856586277484894, 0.0282260961830616, 0.09225958585739136, -0.057696592062711716, -0.17534656822681427, 0.05177319422364235, 0.12604933977127075, -0.04387308657169342, -0.1065637469291687, 0.030284453183412552, -0.07348136603832245, 0.1767289638519287, -0.1373060643672943, -0.1567687839269638, -0.009393355809152126, 0.1188938319683075, -0.09496749192476273, -0.08603637665510178, 0.09184233099222183, -0.1768915355205536, -0.012184894643723965, 0.031779736280441284, -0.0893649160861969}, {0.26036953926086426, -0.039972156286239624, 0.0710495188832283, 0.04024490714073181, -0.03697369620203972, 0.05244293063879013, -0.07503531873226166, 0.25182756781578064, -0.2009650021791458, -0.17938590049743652, 0.2698715627193451, -0.18977783620357513, -0.09905592352151871, -0.028968023136258125, -0.10777176171541214, -0.1410883367061615, -0.129615917801857, 0.07419373095035553, -0.08962111175060272, -0.1297510415315628, 0.09252645820379257, -0.14909112453460693, 0.027013292536139488, -0.3080691397190094, 0.3364746868610382, -0.11549483239650726, -0.13916175067424774, -0.13372142612934113, 0.145228311419487, 0.04950428009033203, -0.17729732394218445, 0.2795427143573761, -0.15320084989070892, -0.057023655623197556, 0.0906938686966896, -0.2641070485115051, 0.1575758010149002, -0.1546599268913269, -0.002992423716932535, 0.08528708666563034, -0.020189788192510605, 0.042337071150541306, -0.02943502552807331, 0.385439395904541, -0.0448002815246582, 0.0692266970872879, 0.12678155303001404, -0.20632126927375793, -0.2979436218738556, 0.1011214628815651, 0.026629531756043434, 0.0038673700764775276, 0.09113025665283203, -0.17349965870380402, 0.23973506689071655, 0.016785861924290657, 0.1571982204914093, -0.042303044348955154, 0.05181020498275757, -0.0005308732506819069, -0.16319750249385834, -0.028541427105665207, 0.15004906058311462, 0.00621411669999361, 0.026251882314682007, -0.06545161455869675, 0.13614054024219513, 0.10641781985759735, 0.21745672821998596, 0.21273131668567657, 0.1752050668001175, -0.23749899864196777}, {0.15768150985240936, -0.23478509485721588, 0.11905541270971298, -0.06513147801160812, -0.22213353216648102, -0.11094444245100021, -0.032067641615867615, 0.3981333076953888, 0.0038930342998355627, -0.030544910579919815, -0.08548688888549805, -0.11548473685979843, 0.06682253628969193, 0.08707238733768463, 0.08406858146190643, 0.09304123371839523, 0.03484436124563217, -0.02834014594554901, 0.06240353360772133, 0.18896298110485077, -0.215060755610466, 0.006786618381738663, -0.19761478900909424, 0.08851701021194458, -0.2612893581390381, 0.0738058090209961, 0.04461343213915825, -0.01736912876367569, -0.04726278781890869, -0.17324073612689972, 0.1295350342988968, -0.18869830667972565, 0.28407835960388184, -0.028877712786197662, -0.11077999323606491, 0.3325531780719757, 0.022524438798427582, 0.0564252994954586, 0.013097363524138927, 0.07488583028316498, 0.01657254807651043, -0.09538552910089493, -0.06485623866319656, -0.017324913293123245, -0.25394466519355774, 0.10493084788322449, -0.14626121520996094, -0.00978190265595913, 0.22147364914417267, 0.09080285578966141, 0.10469219833612442, -0.17683805525302887, -0.2626992464065552, 0.12723670899868011, 0.009662492200732231, -0.32793906331062317, 0.07757514715194702, 0.08235074579715729, -0.25952449440956116, -0.13293161988258362, -0.0756879523396492, 0.11146432906389236, 0.061415065079927444, 0.034504394978284836, 0.07845371216535568, 0.07404444366693497, 0.040380340069532394, 0.02396363765001297, 0.06873218715190887, 0.0023089409805834293, -0.1536618322134018, 0.2299920618534088}};

// Shape: (64,)
