-0.2821808457374573,0.021123291924595833,-0.2236168384552002,-0.0701758936047554,0.026174580678343773,-0.28187063336372375,0.1310502290725708,-0.006473892368376255,0.06033209711313248,0.020905211567878723,-0.3128299117088318,-0.09642894566059113,0.025744393467903137,0.1426999419927597,0.10702559351921082,0.08785352110862732,0.10818412154912949,-0.11796759814023972,-0.02832234464585781,0.08278481662273407,0.03969550132751465,0.05639221519231796,-0.07338560372591019,0.08978822082281113,-0.03376283496618271,0.17624546587467194,0.16346217691898346,0.14633812010288239,0.06055542081594467,-0.19443479180335999,0.1688069850206375,-0.20954608917236328,0.06937482953071594,0.07200705260038376,0.02685798704624176,0.20786282420158386,0.11218473315238953,-0.020074719563126564,0.019743235781788826,0.11879928410053253,-0.035030100494623184,0.002331359079107642,-0.10226544737815857,-0.060328949242830276,0.08860427886247635,0.09740002453327179,-0.14027263224124908,0.07067546248435974,0.33554935455322266,-0.08618360757827759,-0.12850967049598694,0.08764216303825378,0.0855998694896698,0.07155799865722656,-0.1095682680606842,0.06451676040887833,0.16771985590457916,-0.07712022960186005,0.048668064177036285,-0.010818582028150558,0.13735052943229675,-0.18483459949493408,0.09282515197992325,0.006563266739249229,-0.1340177357196808,0.13618388772010803,0.015548737719655037,0.12392790615558624,-0.3522433936595917,-0.11347325146198273,0.09618212282657623,-0.08727869391441345,-0.00693644629791379,-0.19812287390232086,0.09309016913175583,-0.060522597283124924,-0.003189273178577423,-0.14880403876304626,0.10440689325332642,0.18671776354312897,-0.0951651930809021,-0.14706191420555115,0.09511007368564606,-0.2898006737232208,0.12397561222314835,-0.1188325509428978,0.11272407323122025,0.031134534627199173,8.748874824959785e-05,-0.08862818777561188,-0.0033965986222028732,0.03440265357494354,0.14922116696834564,0.02305789850652218,-0.13921226561069489,-0.14134180545806885,-0.16947653889656067,0.04831609129905701,-0.19615019857883453,-0.061395030468702316,0.0007695124368183315,0.09896044433116913,-0.06464656442403793,-0.1342591494321823,0.017155321314930916,0.09643575549125671,0.14407102763652802,0.07686270028352737,-0.06389003992080688,-0.2319640964269638,0.13764861226081848,-0.10602689534425735,-0.1623108983039856,-0.030623270198702812,0.01634599082171917,0.07458090782165527,0.09264563769102097,0.09129264950752258,-0.0924052968621254,-0.36953482031822205,-0.09074198454618454,0.25178974866867065,-0.10617107897996902,0.024713367223739624,0.31615567207336426,-0.12941193580627441,-0.03535042330622673,0.25974932312965393,0.09076374769210815,-0.0605362206697464,0.25754255056381226,0.16155435144901276,0.030654411762952805,0.023555252701044083,0.06170294061303139,0.15183471143245697,0.0006115642609074712,-0.137427419424057,-0.04342341795563698,0.18275032937526703,0.08616992831230164,0.16677440702915192,0.017895154654979706,0.08291000872850418,0.08209729939699173,-0.07928689569234848,-0.11087194085121155,-0.08262427151203156,0.13412076234817505,-0.017055204138159752,0.010236486792564392,0.4518278241157532,-0.2738809585571289,0.07330974191427231,0.31229642033576965,-0.02021799609065056,-0.007555358111858368,-0.19247567653656006,-0.06773786246776581,-0.01962452009320259,-0.02803671918809414,0.014234453439712524,0.04892946034669876,-0.00031859666341915727,0.2861490249633789,-0.08285756409168243,-0.0010751421796157956,-0.0961516797542572,-0.000654194678645581,-0.07349946349859238,-0.08194690942764282,-0.11116456240415573,-0.09085038304328918,-0.05748121440410614,-0.20259633660316467,0.29655101895332336,-0.35950589179992676,0.08692359924316406,0.25442132353782654,-0.21824780106544495,-0.056304931640625,-0.13967575132846832,0.013149232603609562,-0.19900694489479065,-0.10597681999206543,0.000663562910631299,-0.10475059598684311,-0.009833802469074726,0.15461350977420807,0.0899963527917862,0.18559156358242035,-0.06274572759866714,-0.02607356756925583,-0.027137670665979385,-0.0014836667105555534,0.06845726817846298,0.2351151406764984,0.07705521583557129,0.08525720983743668,0.2697586417198181,0.08463294804096222,-0.15785902738571167,0.24691331386566162,0.14434580504894257,0.03258052468299866,-0.14229238033294678,0.1543215662240982,0.0013634208589792252,0.04635114595293999,0.1026376262307167,0.057234201580286026,0.25364822149276733,0.1093122735619545,0.0914088785648346,0.28870922327041626,-0.23931513726711273,-0.08049742877483368,0.17927394807338715,-0.22023813426494598,-0.06149785593152046,0.21623346209526062,-0.08700484782457352,0.12415225058794022,-0.23396144807338715,0.15113131701946259,0.01917349547147751,-0.15950942039489746,0.1386900395154953,0.2699645757675171,0.025699473917484283,0.34165313839912415,0.2612050175666809,0.02827497012913227,-0.18329772353172302,0.1632259488105774,0.1568271368741989,-0.007695609703660011,-0.0570853091776371,-0.10924606770277023,0.022850962355732918,-0.40068110823631287,0.15806974470615387,-0.09352872520685196,0.011212455108761787,-0.004623394925147295,-0.07458712160587311,0.01977563463151455,-0.15898437798023224,0.032255735248327255,-0.053435198962688446,-0.01690417341887951,0.05942019447684288,-0.3305898606777191,-0.14506128430366516,0.15361341834068298,-0.13719668984413147,-0.07982076704502106,-0.23212267458438873,0.1519996076822281,-0.09529068320989609,-0.0077651310712099075,0.1928805559873581,-0.13531218469142914,-0.12855368852615356,0.24505308270454407,0.20355987548828125,-0.1637946218252182,0.009856360033154488,0.3349708318710327,0.010298879817128181,-0.1368102729320526,0.2810851037502289,-0.010240237228572369,-0.06256372481584549,0.004096530843526125,0.23528657853603363,-0.14877666532993317,-0.01057661883533001,0.12918271124362946,-0.03335470333695412,0.08480866998434067,-0.018599089235067368,0.09121211618185043,-0.1583489328622818,0.07349983602762222,0.019454339519143105,-0.20233789086341858,0.06832383573055267,0.09503526240587234,0.270071804523468,-0.04201338067650795,0.09932224452495575,0.14712698757648468,-0.02494966797530651,0.17259842157363892,-0.43813082575798035,0.17671924829483032,-0.016135381534695625,0.006682460196316242,0.1718386560678482,0.27995091676712036,0.06912758201360703,0.1529020220041275,0.18252374231815338,0.04076989367604256,0.05174432694911957,0.16191935539245605,0.04477427154779434,-0.03861149027943611,0.0157233327627182,-0.15680694580078125,0.01032182201743126,-0.013601169921457767,0.014263791963458061,-0.08563739061355591,-0.015437696129083633,0.13858868181705475,0.13295209407806396,-0.17972597479820251,0.3084166347980499,-0.06445178389549255,-0.030960064381361008,-0.05098849907517433,-0.10481245070695877,-0.23895622789859772,-0.1175725907087326,0.1739727258682251,0.028749117627739906,-0.17329992353916168,-0.22697992622852325,0.01290378998965025,-0.020992128178477287,0.03584457188844681,0.11429565399885178,-0.07540152221918106,-0.3412172198295593,-0.09469005465507507,0.1750199943780899,-0.19002094864845276,0.04848897084593773,0.16395506262779236,-0.0017355320742353797,-0.17864596843719482,0.4381474554538727,-0.2323949635028839,0.021038686856627464,-0.032420214265584946,0.12588393688201904,-0.33453139662742615,-0.030915047973394394,-0.022185904905200005,-0.07598475366830826,-0.08500218391418457,-0.08814502507448196,-0.0012849103659391403,-0.2083142250776291,0.07365280389785767,0.16252444684505463,-0.09858428686857224,0.013497624546289444,0.06196863204240799,-0.2818025052547455,0.11748103052377701,-0.18710345029830933,-0.1988319605588913,-0.0234327781945467,-0.044158224016427994,0.30354103446006775,-0.10259894281625748,0.03730577975511551,-0.05444295331835747,-0.4023458957672119,0.056723617017269135,-0.14088094234466553,0.06929457932710648,-0.18530260026454926,-0.1650809645652771,0.05573362857103348,0.07083573192358017,0.025373483076691628,0.09346158802509308,-0.1317364126443863,-0.21404193341732025,-0.08272518217563629,0.18689322471618652,0.024164794012904167,0.13837996125221252,-0.06352943181991577,-0.2469899207353592,0.156052827835083,-0.016576161608099937,-0.12174325436353683,-0.02082110568881035,0.15547722578048706,-0.02874201163649559,-0.005919895600527525,0.0981617420911789,-0.004974690265953541,-0.06295952945947647,-0.15176695585250854,0.013498170301318169,0.12962046265602112,-0.1284775584936142,0.1358427107334137,0.012898927554488182,0.03170403093099594,0.0058925761841237545,-0.04846525937318802,-0.013869820162653923,0.06392067670822144,0.001676878659054637,-0.104176826775074,-0.019781580194830894,0.08210954070091248,0.03406732901930809,-0.33807823061943054,0.3116234242916107,0.07178343832492828,-0.0023208502680063248,0.09860068559646606,0.16593322157859802,0.012292349711060524,0.022119028493762016,0.09126513451337814,-0.13296131789684296,-0.03330490365624428,-0.03100220113992691,0.17895230650901794,0.2625313699245453,0.05291140452027321,0.10715889930725098,-0.05605190992355347,-0.1124815121293068,0.14484858512878418,-0.012872789986431599,0.08354461938142776,-0.030144214630126953,-0.009892098605632782,0.11167233437299728,-0.3637969493865967,0.02550244703888893,0.006253563333302736,-0.07170208543539047,0.1837976574897766,-0.1101221814751625,0.022463945671916008,-0.006759621202945709,0.0069482773542404175,0.049997299909591675,0.07390333712100983,-0.13638950884342194,-0.06803102046251297,-0.12130275368690491,0.1388661414384842,0.2118125855922699,0.06684509664773941,-0.030400797724723816,-0.1533377319574356,0.16405166685581207,0.09455515444278717,0.00510747404769063,0.05005631223320961,0.12521658837795258,0.001170625793747604,-0.03160351514816284,-0.09627579152584076,-0.0915973111987114,-0.07756269723176956,0.04606131836771965,0.13941237330436707,0.09838733077049255,0.1096983551979065,0.07351496815681458,0.056037675589323044,0.020839262753725052,-0.12417738884687424,-0.11276684701442719,-0.06188538298010826,-0.01274789310991764,0.12822489440441132,0.14960284531116486,-0.18788273632526398,0.2013823240995407,-0.09681524336338043,-0.22260291874408722,0.03396600857377052,-0.03587052598595619,-0.04132542386651039,-0.20194464921951294,0.049513932317495346,0.009868128225207329,-0.17640188336372375,0.02563372626900673,-0.10495012998580933,-0.0856151282787323,-0.23828501999378204,-0.02024582028388977,0.013102571479976177,-0.13233405351638794,-0.2110535204410553,-0.12958171963691711,-0.17441314458847046,0.03275133669376373,-0.10082930326461792,-0.2662818133831024,0.12424220889806747,-0.2931900918483734,0.04411572590470314,0.270336389541626,-0.22807994484901428,0.11057594418525696,0.13160911202430725,0.004318164195865393,-0.0029428391717374325,-0.06300830096006393,0.06643853336572647,0.009049119427800179,0.2275669276714325,0.03594326227903366,0.06640370935201645,0.10893455892801285,-0.120254285633564,0.10893887281417847,-0.10977990180253983,0.004521789960563183,-0.0501837283372879,0.03218582272529602,0.1596159189939499,-0.35931047797203064,0.08055117726325989,-0.0032123932614922523,0.06497108936309814,0.19656218588352203,-0.22400617599487305,0.08773142844438553,0.17757803201675415,-0.03853930905461311,0.04024915397167206,0.08836470544338226,-0.12147598713636398,-0.027346517890691757,-0.057753946632146835,0.11890646815299988,-0.14098647236824036,-0.10170167684555054,-0.11503586173057556,0.13579368591308594,-0.008448665961623192,0.01622631400823593,0.06745260953903198,-0.1764272153377533,-0.1069692075252533,0.23004096746444702,-0.1370363086462021,0.11012132465839386,0.11006287485361099,0.015702372416853905,0.12907691299915314,0.08842266350984573,0.264410138130188,-0.2851726710796356,-0.0005432419129647315,-0.018444545567035675,-0.1454971730709076,-0.03928789868950844,-0.16669680178165436,0.1565914750099182,0.011962958611547947,-0.07658469676971436,-0.029164021834731102,0.1147068589925766,0.044950686395168304,-0.4280972480773926,0.139981210231781,-0.14922915399074554,-0.06266243755817413,0.11883210390806198,0.09639548510313034,-0.04273608699440956,0.0885968878865242,-0.007575451396405697,-0.12911751866340637,-0.019195927307009697,-0.02701382525265217,-0.06301568448543549,-0.0157777052372694,0.0670667514204979,0.009329366497695446,0.01963215321302414,-0.2235763669013977,-0.13881689310073853,-0.15883278846740723,0.05422080680727959,0.09989377111196518,-0.11147361993789673,-0.046720799058675766,0.06010998412966728,-0.1717439889907837,0.07980139553546906,-0.25744250416755676,0.3439197540283203,-0.2557460367679596,-0.002756616333499551,0.007560066878795624,-0.05610925331711769,0.21716439723968506,-0.11429085582494736,0.295367956161499,-0.03979644179344177,0.01270592212677002,0.009558132849633694,-0.1955404281616211,-0.03915340080857277,-0.10532505065202713,0.09532325714826584,-0.0036471569910645485,-0.016730567440390587,0.100016288459301,-0.08475078642368317,0.32565537095069885,0.15968215465545654,-0.052506763488054276,0.27773478627204895,-0.0625041201710701,-0.3018357753753662,-0.06772967427968979,0.09074274450540543,-0.06623221933841705,0.09104061126708984,-0.029565168544650078,0.0446307510137558,0.21521103382110596,-0.08169443905353546,-0.08598360419273376,0.08119158446788788,-0.021580960601568222,0.08263205736875534,-0.22749868035316467,0.14168083667755127,-0.017691325396299362,-0.0046387771144509315,-0.06742577999830246,0.007279794663190842,0.03156156837940216,0.11896307021379471,0.17139436304569244,0.15460215508937836,-0.18426017463207245,0.05624435096979141,0.0949842631816864,0.15721720457077026,0.05334491655230522,-0.2215956151485443,0.15812231600284576,0.1066722497344017,0.0008147124899551272,0.14503979682922363,-0.07473956048488617,-0.05622151121497154,0.057022180408239365,0.10618884116411209,0.04779600724577904,-0.07781114429235458,0.06138695776462555,0.09795364737510681,0.0048350137658417225,-0.016995185986161232,-0.0017891856841742992,-0.13859811425209045,-0.23664730787277222,-0.059634625911712646,0.31273576617240906,-0.1611771583557129,0.1149166002869606,-0.08176272362470627,0.05394752323627472,0.007480453234165907,-0.12385468184947968,0.022350378334522247,-0.1520865112543106,0.21648094058036804,-0.1030266135931015,-0.20242160558700562,0.16831567883491516,-0.007732059340924025,0.03809315711259842,0.058773223310709,0.15367743372917175,-0.08742654323577881,-0.10987415164709091,0.1190359815955162,-0.07440357655286789,-0.13892947137355804,-0.04699509218335152,-0.07100888341665268,0.004536840133368969,-0.1557699590921402,0.13574104011058807,0.04045351967215538,-0.11129190027713776,0.0036700170021504164,0.060469526797533035,0.08069274574518204,-0.31972360610961914,-0.10909523069858551,0.06498801708221436,-0.32532060146331787,-0.047693345695734024,-0.3157661557197571,0.021435284987092018,-0.07658863067626953,0.11157193034887314,-0.029654493555426598,-0.009934840723872185,-0.06875300407409668,-0.11969079822301865,0.1164984479546547,0.13479997217655182,-0.18662798404693604,0.0560840405523777,-0.11598797142505646,0.10691841691732407,-0.14434263110160828,0.007413895335048437,0.1755903661251068,0.08607660979032516,-0.16276147961616516,-0.04663950204849243,-0.11960840225219727,0.22893930971622467,-0.12870149314403534,0.21380004286766052,-0.046295031905174255,0.27350834012031555,0.041448336094617844,0.075958751142025,-0.0020751948468387127,-0.05894540622830391,0.07892338931560516,-0.21581289172172546,-0.009950713254511356,-0.09712636470794678,-0.07594811171293259,0.2391289621591568,0.011796597391366959,-0.04317799583077431,0.1494479775428772,0.14890968799591064,0.08027991652488708,-0.1308223158121109,0.025907928124070168,-0.01633409783244133,0.023066403344273567,-0.11782731115818024,-0.04671787843108177,0.07473797351121902,0.11947612464427948,0.05505400523543358,-0.13795088231563568,-0.08158895373344421,0.0015062581514939666,0.14808432757854462,-0.12600280344486237,-0.04664162918925285,-0.19076840579509735,-0.04779403656721115,-0.12722337245941162,0.0854082852602005,-0.12001202255487442,-0.009228693321347237,0.13458187878131866,-0.1590593457221985,-0.08457411825656891,0.09880195558071136,-0.09820307046175003,-0.17142458260059357,0.05884084850549698,0.09104489535093307,-0.3557453453540802,-0.10634948313236237,-0.058667395263910294,0.16273745894432068,0.009954165667295456,0.21334412693977356,0.11419015377759933,-0.09665944427251816,0.1277567446231842,-0.39845898747444153,-0.024432089179754257,0.09295890480279922,-0.30389976501464844,0.14886412024497986,0.10248230397701263,-0.007556673139333725,0.14986465871334076,-0.07792811095714569,-0.2132597714662552,0.10845301300287247,-0.004762729164212942,-0.21269822120666504,0.06351885199546814,-0.08918366581201553,-0.18199928104877472,-0.06967892497777939,0.07495422661304474,0.12350159138441086,-0.08629822731018066,-0.10845823585987091,0.04371435567736626,0.2181931883096695,0.008412901312112808,0.08732625842094421,-0.2547236680984497,0.028593508526682854,-0.16091278195381165,0.19676022231578827,-0.01595040038228035,0.1192927211523056,0.040193989872932434,0.04504995048046112,-0.035220544785261154,0.12740838527679443,0.040310535579919815,-0.2531108558177948,0.24164307117462158,0.12765464186668396,-0.23403804004192352,0.2745932340621948,-0.054841428995132446,0.028375130146741867,0.02539321407675743,0.009403526782989502,-0.05196124315261841,0.02832471951842308,-0.05674339830875397,-0.18204231560230255,-0.004832095932215452,-0.08054105937480927,-0.06419944018125534,0.12165220081806183,0.07907208055257797,0.15767456591129303,-0.14387905597686768,0.018545879051089287,0.15651856362819672,-0.15229439735412598,-0.2453584223985672,0.13966059684753418,0.04212924465537071,0.12395304441452026,0.206282377243042,0.14582470059394836,-0.04595860838890076,0.13229288160800934,-0.3074971139431,-0.1444895714521408,0.1528099775314331,-0.0029560199473053217,-0.08423572778701782,-0.16550637781620026,0.014804240316152573,-0.11217580735683441,0.0028056472074240446,0.19564063847064972,-0.21014779806137085,0.1723393350839615,-0.19034644961357117,0.03130093216896057,0.06008884683251381,0.006150051951408386,0.11118041723966599,-0.12723301351070404,0.08834006637334824,0.21832294762134552,-0.30037471652030945,0.14707879722118378,0.0857575312256813,0.3058449327945709,-0.02011437714099884,0.15806223452091217,0.10914865136146545,-0.06310395151376724,0.11371151357889175,-0.18247383832931519,0.06515420228242874,-0.10912580788135529,0.07878843694925308,0.26796504855155945,-0.16551168262958527,0.04450720548629761,-0.02178424969315529,-0.061146143823862076,-0.03973187878727913,-0.13876277208328247,0.06925581395626068,0.009985432960093021,-0.08020807802677155,-0.029051437973976135,-0.20236167311668396,0.01111103966832161,-0.08172716945409775,0.04060990363359451,0.05763676017522812,-0.16948893666267395,-0.02657056413590908,0.05071064829826355,-0.02307680994272232,-0.11118105053901672,0.009473389945924282,-0.008434525690972805,-0.04741326719522476,0.05319061130285263,0.010896415449678898,0.013070175424218178,0.010577058419585228,0.04686787351965904,0.11659369617700577,0.0706644356250763,-0.10338748246431351,0.19184190034866333,-0.2529691755771637,0.07589292526245117,-0.21823321282863617,-0.05453408136963844,-0.18678025901317596,0.11171634495258331,-0.036087341606616974,-0.12584680318832397,-0.056944504380226135,0.028174148872494698,0.0541192889213562,-0.37765631079673767,-0.011434599757194519,0.039321113377809525,-0.2932504117488861,0.12017711997032166,0.010134786367416382,0.0799773707985878,-0.026086201891303062,0.1509624868631363,0.06316475570201874,-0.029565954580903053,0.00018680661742109805,-0.5662472248077393,0.2965410351753235,0.1774495542049408,-0.2054511308670044,-0.06427892297506332,0.11882369220256805,-0.04457603394985199,0.31182464957237244,0.05616205930709839,0.1247420459985733,-0.06624173372983932,0.1642165631055832,0.024582387879490852,-0.058533936738967896,-0.08046892285346985,-0.2398734986782074,-0.06307755410671234,-0.011872848495841026,0.04086318612098694,0.008463303558528423,0.1800714135169983,0.14405426383018494,0.1753332018852234,-0.04885566979646683,-0.14449839293956757,0.07698117941617966,-0.18582278490066528,-0.03838039189577103,0.13999925553798676,-0.0010908921249210835,-0.014383625239133835,-0.05955019220709801,0.08599936217069626,-0.10062968730926514,-0.11714078485965729,-0.07129722088575363,0.025065166875720024,-0.04674552008509636,-0.04001006484031677,-0.24688327312469482,-0.06996457278728485,-0.08565622568130493,0.24674007296562195,-0.13467688858509064,-0.12815313041210175,0.21784581243991852,-0.07343021780252457,-0.2577954828739166,-0.00015057885320857167,0.15859419107437134,-0.029690247029066086,-0.041627053171396255,0.21381770074367523,-0.11807583272457123,0.03561446815729141,0.07751661539077759,-0.0400397852063179,0.04243338108062744,-0.09197411686182022,0.11867005378007889,-0.3262917697429657,0.015996601432561874,-0.07185831665992737,-0.20593267679214478,0.11264879256486893,0.29165884852409363,-0.192887544631958,0.29941412806510925,0.05884133279323578,-0.2735103964805603,0.055902689695358276,-0.050159115344285965,0.14680467545986176,0.04851354658603668,-0.09980978071689606,0.04361756891012192,-0.1364421844482422,0.19527558982372284,-0.21128565073013306,0.018805505707859993,-0.0909155011177063,0.05416101962327957,0.009468910284340382,0.03527947887778282,0.31139659881591797,-0.06266933679580688,-0.13915474712848663,-0.2119811475276947,-0.18984194099903107,0.05614025145769119,0.05134853348135948,-0.1643223911523819,-0.09473134577274323,-0.005474922712892294,0.10718514025211334,-0.10391293466091156,-0.16770195960998535,0.26767849922180176,-0.017716793343424797,-0.02446102537214756,0.1205017939209938,0.008077043108642101,-0.02311285026371479,0.04887305572628975,0.14444510638713837,0.045002855360507965,-0.10447153449058533,0.020969852805137634,0.12202359735965729,0.007695270702242851,-0.056213535368442535,0.06424412876367569,-0.08306898921728134,-0.08649935573339462,0.14953471720218658,-0.13852982223033905,-0.03562355041503906,0.02253011427819729,-0.22992666065692902,-0.1086837574839592,-0.1907159835100174,0.26422521471977234,0.07518861442804337,0.061816196888685226,0.1811891496181488,-0.19720682501792908,0.06036582589149475,-0.0553361214697361,-0.026738889515399933,0.08050200343132019,0.029385248199105263,-0.0920056477189064,0.0270652174949646,0.3702163100242615,0.04604564607143402,-0.16801902651786804,0.26860636472702026,-0.17510685324668884,0.1471388041973114,-0.03984921798110008,-0.02900298684835434,-0.0365624763071537,-0.18794870376586914,0.1740027219057083,-0.4071092903614044,0.12473706901073456,0.2293427586555481,-0.3453819751739502,0.030846167355775833,-0.09069675952196121,0.02598215825855732,-0.1924220621585846,-0.09373701363801956,-0.1014300137758255,0.06724429130554199,-0.08993510156869888,-0.1014619767665863,0.0023057982325553894,0.13269662857055664,-0.018999451771378517,0.25425004959106445,0.11242459714412689,-0.080605648458004,0.20754051208496094,0.23307424783706665,-0.01105253491550684,0.0999121218919754,0.22697746753692627,-0.20839522778987885,0.1015816405415535,0.003177543170750141,-0.3433961272239685,-0.010343547910451889,0.11944596469402313,0.11884313076734543,0.010036560706794262,0.051184531301259995,-0.012705616652965546,0.22477224469184875,-0.03793438524007797,-0.15825878083705902,0.01282402966171503,-0.26293450593948364,-0.14028924703598022,0.12026334553956985,-0.16223137080669403,-0.0022114827297627926,0.04674290865659714,0.1594349890947342,0.045598216354846954,-0.1437646597623825,-0.22217635810375214,0.16768865287303925,-0.03560148924589157,0.08617503196001053,0.11356181651353836,0.030480697751045227,0.07261885702610016,0.1274358481168747,-0.11477454006671906,-0.21305710077285767,0.02741912379860878,0.14376039803028107,-0.09077528119087219,-0.30923712253570557,-0.07214517146348953,-0.25306466221809387,-0.024208588525652885,0.10248717665672302,0.259198397397995,0.027827667072415352,0.17351962625980377,0.13068805634975433,-0.029246225953102112,0.17530383169651031,-0.03683607280254364,0.2008778601884842,-0.010089452378451824,-0.11616753786802292,0.27423083782196045,0.08502931147813797,0.20180770754814148,-0.07453986257314682,-0.0021254620514810085,-0.09765126556158066,-0.021909773349761963,0.0342915840446949,-0.05274897813796997,0.0054585435427725315,0.1782182902097702,-0.14316652715206146,0.0937090665102005,-0.22179564833641052,-0.03374816104769707,-0.23002634942531586,-0.23761801421642303,-0.17034676671028137,-0.07581613957881927,0.042196884751319885,-0.13001632690429688,0.19843997061252594,-0.05619604513049126,0.1998475044965744,-0.1013106107711792,-0.0968078151345253,-0.2530205547809601,-0.049033112823963165,-0.04654374718666077,-0.11252599954605103,0.048038698732852936,-0.04454421252012253,-0.05856466665863991,-0.038600318133831024,0.03345853462815285,-0.09827491641044617,0.19572485983371735,-0.05951958894729614,-0.15503714978694916,-0.03640960529446602,-0.04677047207951546,-0.032530903816223145,0.16880236566066742,-0.13564205169677734,0.018985671922564507,0.2554396986961365,-0.029374195262789726,-0.03196510300040245,0.21110814809799194,0.2662881910800934,-0.09703247994184494,0.027419043704867363,-0.05136287584900856,-0.08963710069656372,0.09622593224048615,-0.04615882411599159,0.00659850612282753,0.0010188940213993192,0.23802077770233154,0.16524867713451385,0.13496293127536774,-0.050048887729644775,0.034962937235832214,-0.034574754536151886,0.13903003931045532,0.10015617311000824,-0.1602637767791748,-0.016715217381715775,0.05775226280093193,0.10170169174671173,-0.05848359316587448,-0.04423774406313896,-0.13008397817611694,0.013050990179181099,-0.09492777287960052,0.02108869142830372,-0.23906318843364716,-0.22018590569496155,-0.004603257402777672,0.11229801923036575,-0.13484804332256317,0.0025654654018580914,-0.05584916099905968,-0.0048406608402729034,0.06518466025590897,0.26861485838890076,-0.0008221837342716753,0.18277661502361298,-0.16090819239616394,0.09386907517910004,0.10918938368558884,0.006594153121113777,0.06830861419439316,0.000846087234094739,0.14946331083774567,-0.044520050287246704,-0.13001342117786407,0.27903106808662415,0.038668546825647354,0.04671041667461395,0.10011820495128632,-0.09134750813245773,-0.11594787240028381,-0.003738510189577937,-0.08587860316038132,-0.12568069994449615,-0.10593092441558838,-0.06922562420368195,0.000842409033793956,0.13393890857696533,-0.16473007202148438,0.11792999505996704,0.03520377352833748,0.345276802778244,0.22870440781116486,-0.10426406562328339,0.04147930070757866,0.38436976075172424,-0.22405575215816498,0.15549629926681519,0.20679636299610138,0.28877151012420654,-0.0711715817451477,0.1718176305294037,-0.17730273306369781,-0.00213236385025084,0.11997640132904053,-0.08633744716644287,0.01044938899576664,0.0034719686955213547,0.05559122562408447,-0.01137667428702116,-0.2736923396587372,0.12903854250907898,0.0681295171380043,-0.05119239166378975,0.018449004739522934,0.09631010890007019,0.08904475718736649,0.12917442619800568,-0.1964500993490219,0.33665692806243896,0.013555246405303478,0.02989257499575615,-0.026244184002280235,-0.014468737877905369,-0.0790356993675232,-0.04213833436369896,0.3905668258666992,0.16733086109161377,-0.038706012070178986,-0.21039848029613495,0.18901552259922028,-0.013401424512267113,0.09295272827148438,-0.026136066764593124,-0.23816253244876862,0.11363434046506882,-0.274827241897583,-0.06361942738294601,0.2243904322385788,-0.08915889263153076,-0.00906131137162447,-0.07783249020576477,0.10851817578077316,-0.06553252786397934,-0.1009797528386116,0.026931142434477806,-0.08389830589294434,-0.021670853719115257,-0.0877632349729538,-0.15980619192123413,-0.1233149841427803,-0.13354794681072235,-0.14280714094638824,-0.05503090098500252,0.04748301953077316,-0.07932962477207184,0.10656418651342392,-0.09568411856889725,-0.15817870199680328,-0.209043487906456,0.04984363913536072,-0.07233862578868866,-0.09815268963575363,-0.03511345386505127,-0.15361957252025604,0.23863445222377777,0.12463150918483734,-0.4110184907913208,0.07812414318323135,-0.016257282346487045,-0.35724347829818726,-0.025451747700572014,-0.04000164195895195,0.16140030324459076,0.16197016835212708,0.19420211017131805,-0.005134807899594307,-0.1844341903924942,0.16342121362686157,-0.20210379362106323,0.20858220756053925,0.2261967808008194,-0.1639089286327362,0.09059718996286392,0.12220925092697144,0.008033251389861107,-0.01152114849537611,-0.07694301754236221,-0.05307411402463913,0.15184813737869263,-0.08366984128952026,0.06707581132650375,0.0847371518611908,0.14987260103225708,-0.12654821574687958,0.15914323925971985,-0.004508002195507288,0.16795571148395538,-0.09130842983722687,0.1544022262096405,0.031023817136883736,-0.08723539113998413,-0.014304961077868938,-0.042273491621017456,0.035475894808769226,-0.10548358410596848,0.0008341651409864426,0.3400043845176697,-0.12368305772542953,-0.011417530477046967,0.14497289061546326,-0.017119484022259712,-0.006117170676589012,-0.07556848227977753,0.14807358384132385,-0.04870317503809929,0.050981517881155014,-0.02381589263677597,-0.04527846351265907,0.0034818139392882586,0.09214107692241669,0.11424378305673599,-0.11368256062269211,-0.1341875195503235,0.02428114414215088,0.04767365753650665,-0.0911201536655426,-0.06510531902313232,-0.19015716016292572,-0.088572658598423,-0.056652333587408066,0.06631196290254593,0.05175789073109627,-0.1557123064994812,0.12233252078294754,-0.03615417703986168,-0.283746600151062,0.07198383659124374,0.0009225469548255205,-0.303986519575119,-0.10558605939149857,0.07514988631010056,-0.1941218078136444,-0.2303110659122467,-0.05425028130412102,0.2098303735256195,-0.1704329252243042,0.08913417905569077,0.07542233914136887,0.05434880033135414,0.0029928511939942837,-0.21775564551353455,0.18656949698925018,0.09631240367889404,-0.14027084410190582,0.26639285683631897,0.0075621106661856174,-0.09496021270751953,-0.0322476327419281,0.09052439779043198,0.14905287325382233,0.09940819442272186,0.07088074833154678,-0.22066771984100342,0.22817203402519226,-0.0946536585688591,0.040778834372758865,-0.09242815524339676,0.21583934128284454,-0.21878278255462646,0.3374738395214081,0.23387059569358826,0.06229177489876747,0.04005765914916992,-0.008047160692512989,0.346190482378006,-0.17535752058029175,0.11191517859697342,-0.13818112015724182,-0.22314029932022095,-0.22923928499221802,-0.01699783094227314,-0.15459032356739044,-0.12317048758268356,0.08053217828273773,-0.08420733362436295,-0.05309605970978737,-0.016741055995225906,0.11675002425909042,0.19124019145965576,0.08718842267990112,0.14358825981616974,-0.35466599464416504,0.04837815836071968,0.010807347483932972,0.15211649239063263,-0.06800121814012527,-0.3301449716091156,-0.02622886188328266,-0.007318443618714809,-0.033206891268491745,0.15063494443893433,-0.026223018765449524,0.02776286005973816,0.37597784399986267,-0.02196671813726425,-0.06589548289775848,-0.017410799860954285,0.0370023213326931,-0.00011169412755407393,-0.1875249594449997,0.1919708400964737,-0.018057793378829956,-0.038771528750658035,0.2522997260093689,0.009983966127038002,-0.05364812910556793,0.06529928743839264,-0.032785564661026,-0.04107118025422096,0.053509313613176346,0.016655614599585533,-0.04098884388804436,0.14879320561885834,-0.09995196759700775,-0.17397360503673553,0.07977345585823059,0.03936238959431648,0.15141081809997559,0.21490582823753357,0.10020231455564499,0.1128956601023674,0.1326250433921814,0.21484825015068054,-0.03301271051168442,-0.2567378580570221,-0.028431428596377373,-0.0001177207741420716,0.08736874163150787,0.2979607880115509,0.10471495240926743,0.14004941284656525,-0.0011491341283544898,0.18216805160045624,0.09544660896062851,0.08240623772144318,0.03536229208111763,-0.15244346857070923,0.05637433007359505,-0.18857800960540771,0.11382120847702026,-0.004542593378573656,0.04822022095322609,-0.16178812086582184,-0.23701751232147217,-0.11387468874454498,-0.04126551002264023,-0.05277809128165245,-0.1922256499528885,0.24629633128643036,-0.1322043389081955,-0.15783707797527313,0.06262025982141495,-0.07148293405771255,-0.0831594243645668,-0.04038974270224571,-0.04457101970911026,-0.0680617168545723,-0.07929885387420654,-0.11766866594552994,0.13947780430316925,-0.011981317773461342,0.030294956639409065,-0.08072249591350555,0.005041898228228092,-0.07610493898391724,-0.07004206627607346,-0.08263123035430908,0.08602732419967651,-0.0015707464190199971,-0.0751938596367836,0.07870067656040192,0.019531333819031715,0.08745279163122177,-0.20076049864292145,-0.15288133919239044,-0.13735070824623108,0.01828644797205925,-0.2515861690044403,-0.11067460477352142,0.07454074919223785,0.009957934729754925,0.0778338611125946,-0.17115408182144165,-0.07261355966329575,-0.0826556533575058,-0.06436613947153091,0.17612843215465546,-0.0451442189514637,-0.09339319914579391,8.624164911452681e-05,-0.015674518421292305,0.1609976589679718,0.09238890558481216,0.02325078472495079,-0.07914770394563675,-0.02527039125561714,-0.4074339270591736,0.16336064040660858,-0.13393855094909668,-0.10018887370824814,-0.23247100412845612,0.15424592792987823,-0.1890859156847,0.056136395782232285,0.014391856268048286,-0.051424067467451096,0.05210103467106819,-0.014309287071228027,0.055755943059921265,-0.05600570887327194,0.17088644206523895,-0.04035574570298195,-0.2964688241481781,0.23040735721588135,0.03892716020345688,-0.11560280621051788,0.1293184608221054,0.12987887859344482,0.10831734538078308,-0.03609617054462433,-0.1489647775888443,0.10071020573377609,-0.15574219822883606,0.008592304773628712,0.00044539268128573895,-0.04733593016862869,0.08078430593013763,-0.07368426024913788,0.2382720708847046,-0.02370619587600231,-0.12093322724103928,0.06851574778556824,0.005539731588214636,-0.11583522707223892,0.22819606959819794,-0.1838393211364746,0.0019617739599198103,0.001779804122634232,0.07820867002010345,-0.031834643334150314,-0.15647941827774048,0.08290428668260574,-0.009897069074213505,-0.34967002272605896,0.08347128331661224,0.16905686259269714,-0.0526607446372509,0.15249639749526978,0.1410464495420456,0.10841433703899384,0.03597515448927879,-0.031159119680523872,-0.024090509861707687,0.05290678143501282,0.12301541119813919,0.002173617947846651,-0.047511350363492966,-0.002107972977682948,-0.15041691064834595,0.12177987396717072,0.10655152052640915,-0.016028709709644318,0.24629844725131989,0.0017641216982156038,0.0701117068529129,-0.0890612006187439,0.11583692580461502,0.0007279359269887209,-0.21559466421604156,0.14665113389492035,0.012425440363585949,-0.11190354079008102,0.21074026823043823,8.62191227497533e-05,0.21220584213733673,0.016268178820610046,0.10660787671804428,0.054837875068187714,0.003349368693307042,0.093985415995121,-0.08575056493282318,-0.17894305288791656,-0.16235364973545074,0.03163346275687218,0.1506524235010147,-0.19575530290603638,0.010639811865985394,0.021700028330087662,0.04202002286911011,0.14647966623306274,-0.007580346427857876,0.0262448787689209,0.028261179104447365,0.07802536338567734,-0.18649010360240936,-0.11181832104921341,0.1404367983341217,-0.03977963328361511,0.09503232687711716,-0.05548260733485222,-0.05525762215256691,0.08963669091463089,0.028929008170962334,-0.022980526089668274,0.04367520660161972,-0.1499597579240799,-0.027725545689463615,-0.12603501975536346,0.04585020989179611,-0.05917232483625412,-0.02407877892255783,-0.023479092866182327,-0.0890018492937088,-0.19594494998455048,-0.038801487535238266,0.029453178867697716,-0.2560619115829468,-0.100893035531044,0.09083262830972672,-0.39553189277648926,-0.1545054018497467,-0.2174408733844757,0.11136217415332794,-0.09606549143791199,0.1267818659543991,0.0038145738653838634,-0.008138122968375683,0.11936169862747192,-0.30450668931007385,0.17025911808013916,0.101255863904953,-0.23570071160793304,0.20621587336063385,-0.09821170568466187,0.12067432701587677,0.039910897612571716,-0.07604830712080002,0.07059897482395172,-0.14090989530086517,0.08838800340890884,-0.2407887876033783,0.12210981547832489,0.01993841677904129,-0.1759975701570511,0.15367254614830017,-0.11205580085515976,0.10208349674940109,-0.335231214761734,-0.14044083654880524,0.07242359966039658,-0.010370755568146706,-0.01614152453839779,-0.20953159034252167,0.08381998538970947,0.18068446218967438,0.2550758719444275,0.1195615828037262,0.1244395449757576,-0.09931491315364838,-0.061159729957580566,-0.05506829172372818,-0.01934516429901123,0.022408267483115196,0.0005537492106668651,0.20500624179840088,-0.0858931690454483,0.059780318289995193,-0.1428394913673401,-0.17024005949497223,0.05104051157832146,0.14008410274982452,0.025480695068836212,0.11837748438119888,-0.0047208587639033794,0.05708126351237297,-0.04834684729576111,-0.1483759582042694,0.04839428886771202,-0.05303370580077171,0.08309359103441238,0.04766766354441643,0.09256661683320999,-0.01408474799245596,0.052712582051754,0.09280553460121155,0.14122696220874786,-0.04984275624155998,0.01995103619992733,0.6095054149627686,-0.3152722418308258,-0.10993356257677078,0.33078116178512573,-0.03024940937757492,0.009259369224309921,-0.025224218145012856,-0.14026504755020142,-0.26523396372795105,0.030485406517982483,0.12903527915477753,-0.1080022007226944,-0.004592285957187414,-0.2212108075618744,-0.15784986317157745,0.14887619018554688,-0.16052541136741638,-0.10160460323095322,-0.09076768159866333,-0.12930968403816223,0.01654007099568844,-0.11896345019340515,-0.005947761237621307,0.042223334312438965,-0.24591249227523804,0.18623985350131989,-0.09033098816871643,-0.226735919713974,-0.14636951684951782,0.08735013008117676,0.01828140579164028,0.06022508442401886,0.09034935384988785,0.009056642651557922,-0.04386182129383087,0.004234842024743557,0.2559662461280823,-0.20472462475299835,0.15401685237884521,-0.14958807826042175,-0.01565866358578205,-0.26490166783332825,0.23016361892223358,0.13305257260799408,0.1559678614139557,0.08124654740095139,-0.028811702504754066,0.06012237071990967,-0.35029202699661255,0.37243956327438354,-0.01801878586411476,0.0932164192199707,0.33090144395828247,-0.055091552436351776,0.07445243000984192,0.012246464379131794,0.15982115268707275,-0.059396788477897644,-0.03898739442229271,-0.04386031627655029,-0.26146969199180603,-0.006450117100030184,0.14122340083122253,-0.2653348445892334,0.27160391211509705,0.2851259112358093,0.06317628175020218,-0.0908152386546135,-0.034910641610622406,-0.16668476164340973,0.0988825112581253,-0.0572543665766716,-0.18663540482521057,-0.022731054574251175,-0.08979017287492752,0.029443541541695595,-0.12926866114139557,0.14941120147705078,0.11645206063985825,-0.16553746163845062,-0.06521133333444595,0.07245693355798721,0.09985710680484772,0.029272492974996567,0.08196238428354263,-0.23673701286315918,-0.23599839210510254,-0.03838864341378212,0.04497535154223442,0.13491912186145782,0.0018356726504862309,0.07573452591896057,0.06000148132443428,0.08327924460172653,0.08905932307243347,-0.0641985833644867,0.0016738638514652848,-0.026501081883907318,-0.012592514976859093,0.20645858347415924,0.2751809060573578,0.07201880216598511,0.18938568234443665,0.0030201689805835485,0.13608595728874207,-0.006982873659580946,0.026821384206414223,0.06788495928049088,0.009832659736275673,-0.05834570899605751,0.03865718096494675,0.022462980821728706,0.10827744007110596,-0.28294217586517334,-0.23926666378974915,-0.06196216121315956,-0.1469668447971344,-0.10578937083482742,-0.07557809352874756,-0.04375224560499191,0.08608341962099075,-0.009619010612368584,0.18803878128528595,-0.012234234251081944,-0.1105375811457634,-0.2259029895067215,0.02697092853486538,0.015726735815405846,-0.15065158903598785,0.05239100381731987,-0.1970786154270172,0.06381674110889435,-0.32817742228507996,0.02900521084666252,0.09022647887468338,0.13294267654418945,0.004167232196778059,0.31856781244277954,-0.21911032497882843,0.015578020364046097,-0.07055406272411346,-0.10036037862300873,0.1100660040974617,0.11201336234807968,0.13020078837871552,-0.3889443874359131,-0.03900174796581268,-0.05725189298391342,-0.04257557913661003,-0.13613641262054443,-0.025124773383140564,-0.0936165452003479,-0.2513669431209564,0.0826282724738121,-0.03616867586970329,-0.09040061384439468,-0.07439582049846649,0.15749284625053406,-0.006276085041463375,-0.014198962599039078,-0.010506131686270237,-0.05672392249107361,-0.04566372185945511,-0.01478686835616827,0.016816383227705956,-0.05726448819041252,0.029598820954561234,0.13528306782245636,-0.09728711098432541,-0.026696015149354935,0.03521477058529854,0.06224851682782173,-0.10853565484285355,-0.06387271732091904,-0.20811596512794495,-0.270377516746521,-0.22690032422542572,-0.06000063195824623,0.14370641112327576,-0.09918525069952011,-0.009311088360846043,0.05104926601052284,0.1849064975976944,0.21600548923015594,-0.1651800274848938,0.23897431790828705,-0.15645891427993774,-0.09406734257936478,-0.015574664808809757,0.042671337723731995,0.2073098123073578,-0.023726657032966614,0.17046087980270386,-0.17015106976032257,0.003986477851867676,0.003544841194525361,-0.2767232656478882,0.07412578165531158,0.041377026587724686,-0.07462264597415924,0.0505606010556221,0.044872913509607315,0.048168111592531204,-0.04720854014158249,-0.0010571929160505533,0.19679494202136993,-0.0921139344573021,0.10310936719179153,0.1511964052915573,-0.10455989837646484,-0.06698519736528397,0.046134497970342636,0.10382437705993652,0.09051194041967392,-0.13083812594413757,-0.0032188829500228167,0.325336217880249,-0.20460329949855804,-0.02828727290034294,0.30123335123062134,0.07540584355592728,0.256136417388916,-0.037023723125457764,-0.010647840797901154,-0.22027996182441711,-0.02460530586540699,0.15283218026161194,-0.058392710983753204,0.19511419534683228,-0.08197734504938126,-0.1480168253183365,0.16110791265964508,-0.11664505302906036,0.2400868982076645,0.05095775052905083,-0.03845921531319618,0.17886248230934143,0.1298120766878128,0.08832236379384995,0.037202320992946625,-0.37761643528938293,-0.0650767907500267,-0.10359609127044678,0.19914951920509338,0.06875233352184296,-0.0005664775962941349,-0.16717134416103363,-0.003169218311086297,0.014350387267768383,0.06805440038442612,-0.07474656403064728,0.006914303172379732,-0.12781359255313873,0.048026274889707565,-0.15900327265262604,-0.15997225046157837,-0.274929016828537,0.22416098415851593,-0.04981711879372597,-0.13953018188476562,0.04844880476593971,0.16121721267700195,0.1211373433470726,-0.14127103984355927,0.1341780126094818,-0.07239172607660294,-0.20083941519260406,0.08442192524671555,-0.020091867074370384,-0.14052733778953552,-0.16976147890090942,0.03917187452316284,0.09255700558423996,-0.03407086431980133,-0.17163057625293732,0.15480415523052216,0.25471746921539307,-0.08149735629558563,0.07464047521352768,-0.08732522279024124,-0.31811413168907166,-0.5162401795387268,0.07261625677347183,-0.025042235851287842,-0.044501084834337234,0.2708146870136261,-0.2285686880350113,-0.23493102192878723,0.15632186830043793,0.16137363016605377,-0.010639275424182415,-0.0034253334160894156,0.2975172698497772,-0.3075375258922577,0.007616518996655941,0.08339396864175797,0.14871226251125336,0.12658770382404327,-0.22741816937923431,0.05865791067481041,0.008524271659553051,-0.08766093105077744,0.2593800723552704,0.034419357776641846,-0.11714892089366913,0.1730334311723709,0.07497692108154297,0.05958601087331772,-0.035965170711278915,0.1515646129846573,0.12592847645282745,-0.054223354905843735,0.3636396825313568,-0.3115658760070801,0.029617026448249817,0.31852206587791443,0.1428251713514328,-0.16554571688175201,0.004173600114881992,-0.16725996136665344,-0.08908581733703613,-0.011929546482861042,-0.0836825743317604,-0.08197071403265,-0.098509781062603,0.1973901242017746,-0.033527158200740814,0.10932634025812149,0.04660515859723091,-0.014777678065001965,-0.21669837832450867,-0.05674310028553009,-0.07621362060308456,-0.06032084673643112,-0.1353432536125183,-0.09434065967798233,0.3045752942562103,-0.3267041742801666,-0.06428466737270355,0.23675253987312317,-0.20025363564491272,-0.044344037771224976,-0.08717423677444458,-0.13283021748065948,-0.048393093049526215,-0.04749001935124397,-0.10666654258966446,-0.131138876080513,-0.04753341153264046,0.11940867453813553,-0.03382132202386856,0.2856188416481018,-0.0297874566167593,0.004597389604896307,-0.22399255633354187,0.13949549198150635,-0.05247554928064346,-0.13220465183258057,-0.09681388735771179,0.2969573140144348,-0.19880273938179016,-0.07931387424468994,-0.002321460982784629,-0.0820404514670372,-0.23803555965423584,0.03304020315408707,-0.21295873820781708,0.18281827867031097,0.1371690332889557,-0.009805266745388508,0.022091971710324287,-0.09050581604242325,0.06653175503015518,-0.024191519245505333,0.1602831929922104,0.24646355211734772,-0.19014838337898254,0.24072930216789246,-0.05328095331788063,0.021847285330295563,0.03184713050723076,-0.08634082973003387,0.02527451515197754,-0.17545700073242188,0.7192497253417969,-0.1918196827173233,-0.14783211052417755,0.25248995423316956,-0.12101944535970688,0.047211818397045135,0.050826545804739,0.21971720457077026,-0.02596890553832054,0.05724773928523064,-0.045897647738456726,-0.013958808034658432,-0.005151938181370497,0.07487513870000839,-0.12321139872074127,-0.06882280111312866,-0.028561055660247803,-0.2256644070148468,-0.08939167112112045,-0.21761105954647064,-0.15127797424793243,-0.08014104515314102,-0.1733189970254898,0.024856360629200935,0.2256421446800232,-0.20683686435222626,-0.0004554055049084127,0.15853330492973328,-0.11921899765729904,0.01731814444065094,-0.19585005939006805,0.0020761247724294662,-0.14919085800647736,0.08358674496412277,0.06088719889521599,0.026598019525408745,0.12399337440729141,0.14397020637989044,-0.036797262728214264,0.10288991779088974,-0.06484133750200272,-0.12163431197404861,0.026882316917181015,0.17051488161087036,0.025651277974247932,-0.1869330257177353,0.09943225979804993,0.18584799766540527,-0.3273285925388336,0.14414137601852417,0.013130944222211838,-0.38593170046806335,-0.10680566728115082,-0.08157991617918015,0.0019088770495727658,0.2877649962902069,0.21898731589317322,-0.07549966871738434,-0.055131614208221436,0.22109831869602203,0.15528658032417297,0.18670284748077393,0.4299214482307434,-0.015297326259315014,-0.086269810795784,-0.028519105166196823,-0.0018697482300922275,-0.11688275635242462,-0.0058022248558700085,0.03193190321326256,0.04873858019709587,-0.07207508385181427,-0.18832089006900787,-0.014650053344666958,0.011129515245556831,-0.1837020218372345,0.20029471814632416,0.018461603671312332,0.15316110849380493,-0.10057903826236725,0.15154434740543365,0.10866429656744003,-0.013905717059969902,-0.0928373709321022,-0.06442217528820038,-0.09294366091489792,0.13062560558319092,0.039604101330041885,0.332113116979599,-0.20022153854370117,0.15897229313850403,0.1292424499988556,-0.0009549906244501472,-0.08502507954835892,-0.16681936383247375,0.026584753766655922,-0.1630355715751648,0.09837091714143753,0.05487371236085892,-0.15255525708198547,0.2309085726737976,0.047563258558511734,0.17913641035556793,0.10703898966312408,-0.07775870710611343,0.020508097484707832,-0.044367771595716476,-0.013442915864288807,-0.28146281838417053,-0.09573612362146378,-0.07180850952863693,-0.19729000329971313,0.21524395048618317,0.2911125421524048,-0.09011724591255188,-0.09967505186796188,-0.04751443490386009,-0.0569213405251503,0.017093686386942863,-0.11727306246757507,0.10776706039905548,-0.22910402715206146,0.0862479954957962,0.08185527473688126,-0.02863474190235138,-0.08169881999492645,0.08065313845872879,-0.023453237488865852,-0.16092731058597565,0.1284889280796051,-0.016712123528122902,0.04892822727560997,-0.1974664181470871,-0.11590279638767242,-0.19640673696994781,-0.06715800613164902,0.11009219288825989,0.15632912516593933,0.05600389465689659,-0.03857472538948059,0.054539479315280914,-0.08029492944478989,0.11382801085710526,-0.1602429300546646,-0.06653294712305069,0.11754132807254791,-0.03160133212804794,0.00523706478998065,-0.06662367284297943,0.15462592244148254,0.005799784790724516,0.1242169737815857,0.1416839361190796,0.09960877150297165,-0.17772802710533142,0.0711355060338974,0.2289240062236786,-0.18835365772247314,-0.06161746010184288,-0.085439033806324,0.01925787515938282,-0.2154253125190735,0.11269742250442505,-0.14928539097309113,-0.0036062956787645817,0.01375920046120882,-0.1699240505695343,-0.10348626971244812,-0.14476272463798523,0.22902865707874298,-0.10202432423830032,-0.001702165580354631,0.35624852776527405,0.06352799385786057,-0.1208573430776596,0.0905456393957138,0.13967712223529816,0.04602063447237015,-0.10690619796514511,0.1472218781709671,-0.06958836317062378,-0.041312187910079956,0.20644254982471466,-0.2989608645439148,-0.03164679557085037,0.192368745803833,0.024646203964948654,-0.13200080394744873,-0.036535296589136124,-0.07447124272584915,0.16427357494831085,-0.14402975142002106,-0.4034350514411926,-0.01654798910021782,-0.11636228859424591,-0.2933846116065979,-0.04135645925998688,-0.19286110997200012,0.07590629905462265,-0.10324089229106903,-0.0651233121752739,-0.0005265598301775753,-0.10400544106960297,-0.07690364122390747,-0.11206888407468796,-0.0005506004672497511,0.1519014686346054,-0.12139736860990524,0.20347712934017181,-0.09103379398584366,0.16307532787322998,-0.10529658198356628,0.0008199578151106834,0.19068774580955505,-0.0443250946700573,-0.08855382353067398,0.12698796391487122,0.05380909517407417,0.1464061141014099,-0.020014356821775436,0.12747441232204437,-0.053895868360996246,-0.1625656932592392,-0.03927455097436905,-0.21654947102069855,-0.17292654514312744,0.12098804116249084,-0.0898268073797226,-0.20353735983371735,0.12684185802936554,-0.24548323452472687,-0.07856330275535583,-0.18331606686115265,0.38933807611465454,-0.14584451913833618,0.2594955265522003,-0.03368654102087021,-0.10351885855197906,0.03799937292933464,0.00567896431311965,0.28457993268966675,-0.14957015216350555,-0.16512249410152435,-0.06795559823513031,-0.3055158853530884,0.05546412616968155,-0.04820943996310234,0.07816709578037262,-0.12382873892784119,-0.004213068634271622,0.20221227407455444,-0.012463503517210484,0.381979763507843,0.14514285326004028,-0.06526878476142883,0.0708077922463417,-0.1241503581404686,-0.38824328780174255,-0.13445152342319489,0.059299591928720474,-0.14298537373542786,0.018752457574009895,0.05169001221656799,0.04668612778186798,-0.14262455701828003,0.24588052928447723,0.1709481030702591,-0.03792539983987808,-0.14647628366947174,-0.08360598981380463,-0.0031780742574483156,0.21119804680347443,0.0629395917057991,0.03083191066980362,0.021317772567272186,0.18475981056690216,-0.0410371758043766,0.30648425221443176,0.1368619054555893,-0.0018609819235280156,0.012499558739364147,-0.10219773650169373,0.1999656707048416,-0.14233137667179108,-0.04007817432284355,0.07095034420490265,0.07109502702951431,-0.12799163162708282,-0.2138095200061798,0.1460857093334198,0.276786744594574,-0.22821855545043945,0.09878015518188477,-0.06239777058362961,0.08334936201572418,-0.09242704510688782,0.055589813739061356,0.05250782519578934,0.06008685380220413,-0.06642632931470871,-0.08803161978721619,-0.08872195333242416,0.000122774436022155,0.04558882489800453,0.30252283811569214,0.060954395681619644,0.07176120579242706,0.1336968094110489,0.12603282928466797,-0.04274811968207359,-0.12083874642848969,0.045093707740306854,-0.11875493824481964,0.12871365249156952,-0.061497293412685394,-0.08010945469141006,0.1660221815109253,0.21615950763225555,0.0024880864657461643,0.0653989389538765,-0.09829337149858475,-0.1408464014530182,0.15531720221042633,-0.07510094344615936,-0.18752503395080566,-0.21392220258712769,-0.20290794968605042,-0.19821982085704803,0.16358265280723572,0.1095970943570137,0.03793035447597504,-0.11434824019670486,0.05307973548769951,-0.12260346859693527,0.10867772996425629,-0.08413030952215195,-0.10287401080131531,-0.0370207317173481,0.030940232798457146,-0.200164332985878,-0.1427774727344513,-0.141733318567276,0.12325288355350494,-0.012577267363667488,0.04663043096661568,0.06419652700424194,-0.02938113734126091,-0.10838009417057037,-0.3830201327800751,-0.07929670065641403,-0.015616641379892826,-0.27011850476264954,0.04819970205426216,0.060330674052238464,-0.11177708208560944,0.1005726233124733,-0.127206489443779,-0.15249335765838623,0.05295481160283089,0.026325903832912445,0.3920486569404602,0.01652008853852749,-0.24921175837516785,0.022665061056613922,-0.22280701994895935,-0.0005917458329349756,-0.03408730402588844,-0.02467113733291626,-0.026219403371214867,-0.0001806833315640688,-0.03270470350980759,-0.1213093176484108,0.12404347956180573,-0.048094816505908966,-0.13094571232795715,-0.050119612365961075,0.24396376311779022,-0.09929739683866501,0.19499845802783966,-0.21236081421375275,0.0585855208337307,0.022659627720713615,-0.0828535333275795,0.001862248289398849,-0.20457133650779724,0.237384632229805,0.002911642659455538,-0.07484660297632217,0.4821877181529999,0.12041386216878891,-0.06954896450042725,-0.03567864000797272,-0.044283654540777206,-0.029813162982463837,0.15179598331451416,0.10490316152572632,0.09900915622711182,-0.06948138028383255,-0.11063618212938309,-0.10286004841327667,0.09895530343055725,-0.08840324729681015,0.2910459339618683,-0.06854461133480072,0.2514530122280121,0.23185662925243378,-0.0485730804502964,0.12330172955989838,-0.14927195012569427,0.12829895317554474,0.20685763657093048,0.003450709395110607,0.36098963022232056,-0.018087150529026985,0.06622862070798874,-0.08180887997150421,0.21499156951904297,0.02970859222114086,-0.08623583614826202,0.02964557707309723,0.1264583319425583,0.18308484554290771,0.14369700849056244,-0.12676237523555756,0.1521163135766983,0.06507167965173721,0.22710728645324707,-0.0025896760635077953,0.08905978500843048,0.12432962656021118,0.20277710258960724,0.017152028158307076,-0.27815619111061096,0.18451285362243652,0.11597053706645966,0.11894944310188293,0.2858791947364807,0.10387945175170898,0.10285696387290955,0.26250341534614563,0.14130929112434387,-0.049566786736249924,0.049616944044828415,-0.0019503177609294653,-0.10149647295475006,0.029142726212739944,-0.03870227932929993,0.007784585934132338,-0.04698847234249115,-0.20124825835227966,-0.19152231514453888,-0.06367076188325882,-0.08581793308258057,-0.025366585701704025,0.06177687272429466,0.0926717072725296,0.19323791563510895,-0.056599024683237076,-0.1504560112953186,-0.1350620687007904,-0.24260015785694122,-0.07360371947288513,-0.09297452121973038,-0.07883671671152115,0.08401231467723846,0.15450340509414673,-0.1718699336051941,0.050220344215631485,0.08194169402122498,0.07238621264696121,0.019955556839704514,0.029726626351475716,0.10566090792417526,-0.05032387748360634,-0.12013021111488342,0.02399367466568947,-0.1540510505437851,-0.04441966861486435,0.09643086791038513,-0.024967296048998833,-0.2405940443277359,-0.08015800267457962,-0.02330508641898632,-0.3919542729854584,-0.19016863405704498,-0.265656977891922,0.0044209957122802734,-0.0029158557299524546,-0.06866944581270218,-0.12959204614162445,-0.13203741610050201,0.02724425122141838,-0.3290054202079773,0.3266398310661316,0.17951038479804993,-0.03828511759638786,0.0051737818866968155,0.02889542654156685,0.12546654045581818,0.08405213803052902,0.20865148305892944,0.0972759798169136,0.033462610095739365,0.09015630930662155,-0.5331883430480957,0.09517475217580795,0.08262508362531662,0.014735983684659004,0.2225283980369568,0.0014473332557827234,-0.0848613902926445,-0.10623186826705933,-0.022874461486935616,0.13439080119132996,-0.006419047713279724,0.03460633382201195,-0.0017601025756448507,-0.16233661770820618,0.011412374675273895,0.05361710116267204,-0.2509525418281555,0.2114817202091217,0.08310813456773758,-0.17109595239162445,-0.043983351439237595,0.18796619772911072,0.09387931227684021,-0.0643843337893486,0.08928219974040985,-0.02303784340620041,-0.11552229523658752,0.06472381204366684,-0.015832997858524323,-0.2313392609357834,0.033705707639455795,0.18589378893375397,0.07706157863140106,0.09905391931533813,-0.061708543449640274,0.18465258181095123,0.026159742847085,0.06959658861160278,0.15182872116565704,-0.10761279612779617,-0.15986056625843048,-0.2583639621734619,-0.024608977138996124,-0.1847047060728073,-0.06633800268173218,0.11990369856357574,-0.10072773694992065,-0.19782985746860504,0.26343774795532227,-0.18033917248249054,-0.18170350790023804,0.20894458889961243,0.10057142376899719,-0.25392016768455505,-0.1106213927268982,-0.13624490797519684,-0.1254536211490631,-0.0069325510412454605,-0.15563488006591797,0.013609562069177628,-0.17596589028835297,-0.22969532012939453,0.008308361284434795,0.15155963599681854,-0.20016111433506012,-0.19232164323329926,0.11550937592983246,-0.02401808835566044,0.021242080256342888,0.08340639621019363,-0.13002006709575653,0.0009516613208688796,-0.555793285369873,0.1695328652858734,0.16328592598438263,-0.14864066243171692,0.05313875898718834,-0.06335078179836273,-0.07774323225021362,-0.1759682595729828,0.02624761313199997,0.05740172043442726,0.11786046624183655,0.06281044334173203,-0.13895158469676971,-0.14651474356651306,0.03916728124022484,-0.026222342625260353,-0.14967593550682068,0.4866631031036377,-0.034866128116846085,0.03137829899787903,0.3328590393066406,0.05086052417755127,0.08170589059591293,-0.00942766573280096,0.054555293172597885,-0.00552316615357995,-0.3179128170013428,-0.0803408995270729,-0.2646290361881256,0.03325933590531349,0.033625319600105286,-0.07337798178195953,0.2018878310918808,0.10724931210279465,0.13690614700317383,-0.06126184016466141,0.1823870688676834,-0.010001038201153278,0.0029586385935544968,-0.09110911190509796,0.06319794058799744,-0.31798994541168213,0.07947967946529388,-0.006837134249508381,-0.10545523464679718,0.0054744817316532135,-0.1647310107946396,-0.336035817861557,0.028324682265520096,0.11486530303955078,-0.03464857488870621,0.0011426056735217571,0.006091829854995012,0.044710926711559296,0.08806609362363815,-0.07291189581155777,0.014547126367688179,0.09786722809076309,-0.06420434266328812,-0.020342830568552017,-0.17373627424240112,-0.26284584403038025,-0.07660996168851852,0.035102859139442444,-0.13409419357776642,0.09533271938562393,0.05516716092824936,-0.016066240146756172,0.07499806582927704,0.03903888538479805,0.13617122173309326,-0.10297860205173492,0.07642561942338943,-0.2053721845149994,0.02901320904493332,0.2508387565612793,0.0027653006836771965,-0.06757998466491699,0.06845799833536148,-0.21098193526268005,-0.19458650052547455,0.016754742711782455,-0.08640730381011963,0.026417307555675507,-0.2093234658241272,0.19369368255138397,-0.0562051497399807,0.0832049697637558,-0.0904700979590416,0.15304364264011383,-0.2568192780017853,-0.2076636701822281,-0.17502346634864807,0.05665382370352745,0.049307312816381454,-0.044052477926015854,0.3713369071483612,-0.3222823441028595,-0.1630953848361969,-0.03381464257836342,-0.20456179976463318,0.14240510761737823,0.06020544096827507,0.06066448986530304,-0.1060238927602768,0.1366613805294037,0.11414996534585953,0.11983340233564377,0.20297661423683167,-0.016295038163661957,0.04408683627843857,0.24530617892742157,-0.14950668811798096,-0.200180783867836,-0.010752547532320023,0.11175241321325302,0.07165280729532242,-0.10334917902946472,-0.07092394679784775,0.23375773429870605,-0.003952599596232176,-0.13812723755836487,-0.1711905151605606,-0.15319375693798065,-0.07095442712306976,-0.03427534177899361,-0.024885088205337524,0.037703804671764374,0.03916613757610321,-0.010046292096376419,-0.14268797636032104,-0.007160885725170374,0.010380659252405167,-0.11223087459802628,0.18767818808555603,0.039520297199487686,-0.18528589606285095,0.0633445680141449,-0.06546416878700256,-0.006732940208166838,-0.011120657436549664,-0.09845828264951706,0.1738276481628418,-0.14338231086730957,0.2557292878627777,0.11633720993995667,-0.02142108418047428,-0.06115147843956947,0.10141907632350922,0.1062159463763237,0.27179673314094543,-0.04080667346715927,0.0371234156191349,0.031648486852645874,0.09542188793420792,-0.00026103679556399584,-0.0793730616569519,0.11694187670946121,-0.06241316348314285,0.03567440062761307,0.40154415369033813,-0.31026607751846313,-0.06406374275684357,-0.001934064319357276,-0.24810877442359924,-0.02667815610766411,-0.2099309116601944,-0.09550365060567856,0.024327287450432777,-0.20618988573551178,0.19971109926700592,0.0033670738339424133,0.09476800262928009,-0.261335164308548,-0.018469011411070824,0.11388424783945084,-0.18705207109451294,-0.11337355524301529,-0.16053932905197144,0.05718652904033661,-0.22028785943984985,3.980556357419118e-05,-0.05964495241641998,-0.027099154889583588,0.0031194649636745453,0.12170729786157608,0.035516899079084396,0.07600218802690506,0.14063109457492828,0.11671333760023117,0.04760967195034027,-0.02365320734679699,0.3239526152610779,-0.2962961494922638,0.0009119062451645732,-0.024411382153630257,0.07506010681390762,-0.2552332580089569,0.22128897905349731,0.012749329209327698,0.023782292380928993,0.11055974662303925,-0.1865113377571106,0.05695135518908501,-0.1417628526687622,0.1842096596956253,0.11671023815870285,-0.23425424098968506,0.19413067400455475,0.09716422110795975,0.0031074415892362595,0.0021355205681174994,-0.09430966526269913,0.13397113978862762,-0.11620421707630157,-0.028057292103767395,0.13175341486930847,-0.17547687888145447,-0.038062967360019684,0.3178179860115051,0.04904576763510704,-0.13224558532238007,-0.1685178279876709,0.1521792709827423,0.06831053644418716,0.028180543333292007,-0.18024075031280518,0.13553397357463837,-0.043414629995822906,0.15765520930290222,-0.017377318814396858,0.013868621550500393,-0.3389991819858551,0.10232963413000107,-0.13856141269207,-0.029368825256824493,-0.12891711294651031,0.10401049256324768,0.02936657704412937,-0.03739725425839424,0.09818468987941742,-0.0682162195444107,-0.11953684687614441,0.2985225319862366,-0.2574749290943146,-0.09748084098100662,0.015601973980665207,0.03216615319252014,0.02387080527842045,0.025366127490997314,0.0183070357888937,-0.06161925569176674,0.04605163633823395,0.1374812126159668,0.12240413576364517,0.17134101688861847,-0.13392867147922516,-0.11010196805000305,-0.23979459702968597,0.005509615875780582,-0.06563915312290192,-0.17350080609321594,0.13191628456115723,0.12412048131227493,-0.2920050621032715,0.0033886937890201807,-0.12122920900583267,-0.2148071527481079,-0.3095962405204773,0.13441568613052368,-0.27996233105659485,0.15237528085708618,0.17484740912914276,-0.14237335324287415,0.06001235544681549,0.0260347630828619,0.22697339951992035,-0.07929591834545135,0.05885764956474304,0.11466096341609955,-0.21382148563861847,-0.1370495706796646,-0.020192895084619522,-0.0259286817163229,-0.08911141753196716,0.1890367716550827,-0.08445347845554352,0.05426451563835144,0.04478650912642479,-0.06458029896020889,0.08823554217815399,0.01824270375072956,0.12561050057411194,-0.11847494542598724,-0.12208141386508942,0.015644127503037453,-0.06993084400892258,-0.12108610570430756,-0.09907979518175125,0.07657657563686371,-0.22254155576229095,0.17237582802772522,-0.030844658613204956,0.022235307842493057,-0.20103581249713898,0.24504724144935608,-0.2576465606689453,0.2801823914051056,0.09740951657295227,-0.08129237592220306,-0.03023485466837883,0.10759896785020828,0.18587099015712738,-0.16144010424613953,-0.08613947033882141,0.008299707435071468,-0.343309223651886,0.023089541122317314,0.07480477541685104,0.039173420518636703,-0.1695253551006317,0.030975807458162308,0.07933070510625839,0.0028653335757553577,0.12668342888355255,0.05062384903430939,-0.11746185272932053,0.21801091730594635,0.014598031528294086,0.003231438808143139,-0.10740025341510773,0.12692901492118835,0.022986270487308502,-0.03669699281454086,0.15425576269626617,0.11597682535648346,0.035483378916978836,0.02329394221305847,0.03199832886457443,-0.0993657037615776,-0.09371250122785568,0.03155899420380592,-0.16385458409786224,0.14804984629154205,0.040447402745485306,-0.002130154287442565,-0.00419491296634078,0.1625824123620987,-0.004578519146889448,0.1235441043972969,-0.015569617971777916,0.1493297964334488,-0.1831882745027542,-0.016381995752453804,0.018478969112038612,0.20542238652706146,-0.013173219747841358,-0.04910997301340103,0.048259153962135315,-0.0009241572115570307,0.00044324618647806346,0.14550882577896118,-0.24100548028945923,0.1685190498828888,0.040327221155166626,-0.09040223807096481,-0.023384513333439827,-0.01135147362947464,-0.06201281026005745,0.05169188231229782,0.16695526242256165,-0.11214429140090942,0.19574904441833496,-0.2291496992111206,0.2116689383983612,0.09258542954921722,0.04484802484512329,-0.12099573761224747,0.028511613607406616,-0.1356106996536255,-0.12402991950511932,-0.13897469639778137,-0.19293226301670074,0.0016757507110014558,-0.13827691972255707,0.2778976857662201,0.16013042628765106,0.05955517292022705,0.20075100660324097,0.050222381949424744,0.10446938872337341,-0.08292162418365479,0.16561834514141083,0.018081262707710266,-0.030842838808894157,-0.019507212564349174,-0.18885785341262817,-0.003733062883839011,0.13812047243118286,-7.77124660089612e-05,0.25971174240112305,0.2596909701824188,-0.1357581615447998,0.2516224682331085,-0.10540435463190079,-0.3430166244506836,-0.04945126175880432,0.25676465034484863,-0.38709431886672974,-0.1006515622138977,0.006735572125762701,-0.005141010507941246,-0.16052931547164917,0.031190527603030205,0.01307838037610054,-0.1788041889667511,-0.09461048990488052,0.05524980649352074,0.1322154700756073,-0.13030990958213806,0.010405056178569794,-0.07573004066944122,-0.0534658282995224,-0.043022576719522476,-0.11378461122512817,-0.1931513547897339,0.23593322932720184,-0.1841261088848114,0.027212990447878838,0.09434498846530914,-0.03542796149849892,0.027097521349787712,-0.25358644127845764,-0.0030145205091685057,0.08932408690452576,-0.2668209671974182,0.2850354313850403,-0.022043777629733086,0.2626262605190277,0.13062971830368042,0.17301253974437714,0.04887605458498001,0.07849463820457458,0.07961049675941467,-0.08239206671714783,-0.1553618162870407,0.08957765251398087,-0.013436338864266872,0.3806166350841522,-0.3553646206855774,-0.08083363622426987,0.1812334507703781,0.01541886106133461,-0.09200092405080795,-0.10049448907375336,0.0865156352519989,-0.07193367928266525,-0.04050696641206741,0.06814291328191757,-0.19016900658607483,-0.09652885794639587,-0.061933957040309906,0.02298610471189022,-0.0592702217400074,0.048651210963726044,-0.061241161078214645,-0.09211262315511703,0.047913793474435806,-0.16033412516117096,-0.064325712621212,-0.043934669345617294,-0.07681304216384888,0.12503665685653687,0.14405901730060577,-0.04633355885744095,-0.08064420521259308,-0.02554730698466301,-0.08083956688642502,0.143451988697052,-0.12258469313383102,0.10167665034532547,-0.20635443925857544,0.0980159193277359,0.002685146639123559,-0.03980698063969612,-0.07712492346763611,0.20997849106788635,-0.11961644142866135,-0.16488459706306458,-0.026364766061306,-0.10293444991111755,0.04121937230229378,-0.380911648273468,0.09702451527118683,-0.05239533632993698,-0.11404336988925934,0.21344423294067383,0.071625716984272,0.0819886177778244,-0.026323040947318077,0.08695077896118164,0.1739545315504074,-0.023509539663791656,0.0005296131712384522,-0.019261814653873444,0.016967114061117172,-0.04830865561962128,0.025258703157305717,-0.005235638469457626,0.11533921957015991,-0.18434594571590424,0.2827339470386505,0.028172992169857025,0.07706626504659653,-0.09649591892957687,0.03981700539588928,0.08560772985219955,0.1941162347793579,-0.02268628217279911,-0.15679442882537842,-0.21127508580684662,-0.019336789846420288,0.05422772467136383,-0.0536879301071167,-0.040309056639671326,0.013634253293275833,0.027129363268613815,-0.062474656850099564,0.18190528452396393,-0.17973725497722626,-0.03247908502817154,0.12259473651647568,-0.180384561419487,-0.2124609351158142,-0.1820583939552307,0.1397867500782013,-0.11148412525653839,0.001054385444149375,-0.024409376084804535,0.005494740325957537,0.1993183195590973,-0.004751628264784813,0.15063920617103577,-0.012258421629667282,-0.33371856808662415,-0.09662695229053497,0.12990699708461761,-0.21369682252407074,0.01371315959841013,0.2756151854991913,0.06061688810586929,-0.2537814974784851,0.41738051176071167,0.05639822781085968,-0.09026294201612473,0.2887924909591675,0.08122491836547852,-0.1289653182029724,-0.04123381897807121,0.012181942351162434,0.11584914475679398,-0.0433691181242466,-0.03746341913938522,-0.01574750803411007,0.21018965542316437,-0.07707550376653671,-0.03670375794172287,0.12483052164316177,-0.11713618040084839,-0.06246449798345566,0.21825361251831055,-0.03868922218680382,0.08749238401651382,-0.020162539556622505,0.17991898953914642,0.07809381186962128,-0.24233528971672058,0.04884731397032738,0.3024787902832031,-0.07451335340738297,0.16786067187786102,-0.06716278195381165,0.2771647870540619,-0.2033456563949585,0.007968290708959103,-0.0073663052171468735,0.014859426766633987,0.008457084186375141,-0.32858774065971375,-0.04479590430855751,-0.07425558567047119,0.05111534520983696,0.321091890335083,0.14016689360141754,-0.12721136212348938,0.11045216023921967,0.11830969899892807,-0.04952395334839821,0.06542616337537766,0.01642083004117012,0.1879665106534958,-0.04564974457025528,-0.1933830827474594,-0.09017803519964218,-0.10204111039638519,0.12764786183834076,0.00682122353464365,0.15011297166347504,0.024568425491452217,-0.010553831234574318,0.12118322402238846,-0.08920957893133163,-0.07584282010793686,0.05533532798290253,-0.07712941616773605,0.017909931018948555,0.016570519655942917,-0.26769331097602844,-0.015458519570529461,-0.018104780465364456,-0.006005079951137304,0.03176742047071457,0.05223184451460838,-0.06912317126989365,0.07352059334516525,-0.2325514405965805,-0.008264272473752499,-0.15531232953071594,-0.0028697133529931307,-0.2529567778110504,0.1396021991968155,-0.07783403247594833,-0.02629168890416622,-0.05308996140956879,-0.08721816539764404,-0.038734886795282364,-0.3728265166282654,0.0784364566206932,0.041143450886011124,-0.24809035658836365,-0.07514169812202454,0.16793015599250793,-0.050569988787174225,0.24272017180919647,0.09824904054403305,-0.11737928539514542,0.08541934192180634,-0.0402090921998024,0.14490607380867004,0.026410574093461037,0.0053570629097521305,0.146429181098938,0.0018386903684586287,0.07097845524549484,0.02932344563305378,-0.1691865175962448,-0.12161076068878174,0.020486028864979744,0.08141312748193741,-0.08280105888843536,-0.09026144444942474,0.07564085721969604,-0.1374618411064148,0.11887694150209427,0.1787324845790863,-0.06088268756866455,-0.15405674278736115,-0.11539436876773834,-0.03164747357368469,-0.08431143313646317,-0.043379321694374084,0.08949772268533707,0.17375601828098297,-0.09076616913080215,0.07764329016208649,-0.27435025572776794,-0.007163284346461296,0.18740712106227875,-0.15771715342998505,0.10429121553897858,-0.24278081953525543,-0.15676939487457275,0.14869114756584167,-0.0332646407186985,-0.001733413664624095,0.0025886516086757183,-0.14851777255535126,0.09570177644491196,-0.03281603753566742,-0.2221778929233551,-0.10371381789445877,0.09552544355392456,0.19796006381511688,-0.03894471749663353,-0.1083175539970398,0.22109827399253845,0.018375584855675697,-0.24551281332969666,0.10090409964323044,-0.06891410052776337,0.042760126292705536,-0.10279780626296997,0.0754791870713234,-0.06510282307863235,-0.07986118644475937,-0.044138479977846146,-0.06131193786859512,0.021407978609204292,-0.13381683826446533,0.24667854607105255,0.11196193844079971,-0.22873350977897644,0.11845207959413528,0.14656849205493927,0.14463527500629425,0.1935412436723709,0.08678781986236572,-0.004929516930133104,0.017847388982772827,0.022984113544225693,-0.37663769721984863,0.09070777893066406,0.021451536566019058,0.04513509199023247,0.142190620303154,-0.03638579323887825,0.020698484033346176,-0.10954596102237701,-0.17098769545555115,0.0634307712316513,0.0483689084649086,-0.0899074599146843,-0.08705609291791916,-0.18225429952144623,-0.14587166905403137,-0.10327260941267014,-0.00371187343262136,0.2436256855726242,-0.00396557804197073,-0.1063428670167923,0.13107553124427795,0.12358850985765457,0.015590139664709568,0.12124375998973846,0.18993708491325378,0.0011700880713760853,-0.09347599744796753,-0.2514911890029907,-0.14699456095695496,0.1888035237789154,-0.05053764209151268,0.08028355240821838,0.13549788296222687,-0.03180158510804176,0.14584030210971832,-0.03008963353931904,0.10692775994539261,-0.11540861427783966,-0.10634853690862656,-0.0008386457921005785,0.11071932315826416,-0.3245614469051361,-0.023479405790567398,0.03959250822663307,-0.03887445479631424,-0.059575971215963364,-0.16073517501354218,0.20257164537906647,-0.01942835934460163,-0.17467650771141052,0.0949520543217659,-0.20121923089027405,-0.06630624830722809,-0.1998007744550705,0.04381416738033295,0.05927928164601326,-0.1020500585436821,0.00985067617148161,5.9180587413720787e-05,0.09779693186283112,-0.11760424077510834,0.02101733721792698,0.0920550599694252,-0.26416638493537903,-0.055257879197597504,-0.18738989531993866,-0.07752584666013718,0.057585664093494415,-0.05888538807630539,0.007703189272433519,-0.07559771835803986,0.0004907160182483494,-0.04738740622997284,0.11507448554039001,0.057322438806295395,-0.22379934787750244,-0.06468439102172852,0.0009053447283804417,0.012290042825043201,0.016690561547875404,-0.16923490166664124,-0.12618672847747803,0.00018180525512434542,-0.12651345133781433,0.0009590263362042606,0.006480561103671789,-0.10315580666065216,-0.010096429847180843,0.03858692944049835,0.05482296645641327,0.2034621238708496,0.289715975522995,0.24829834699630737,-0.15026985108852386,-0.014769420959055424,0.25687867403030396,-0.2061723917722702,0.17910146713256836,-0.14494723081588745,-0.19760644435882568,0.0850130021572113,0.3344821631908417,-0.024389225989580154,-0.003692297264933586,0.0168832466006279,-0.09000004827976227,0.1320856660604477,-0.011420348659157753,0.04155083745718002,-0.11917820572853088,-0.16819758713245392,-0.05490069091320038,0.21938511729240417,-0.00851526577025652,0.06444164365530014,-0.0005961218848824501,0.01610437221825123,-0.16687195003032684,-0.11245685070753098,-0.10614977031946182,-0.16660523414611816,0.09977149963378906,0.18221421539783478,-0.03166641294956207,0.015116056427359581,0.012315995059907436,0.08480265736579895,0.07175344228744507,0.1253294050693512,0.022676924243569374,-0.03880130127072334,0.04047501087188721,-0.10872393846511841,0.12020005285739899,0.04519885778427124,-0.13875409960746765,0.18207648396492004,0.19709202647209167,-0.028677456080913544,0.2366444170475006,-0.03671078011393547,-0.025251511484384537,0.15958231687545776,-0.06289100646972656,-0.028921499848365784,0.2306857705116272,-0.049506425857543945,0.0342525988817215,0.0014947856543585658,0.16541731357574463,0.018903762102127075,0.224232017993927,0.21105670928955078,-0.022682487964630127,-0.018015462905168533,0.14636556804180145,0.10991793870925903,-0.09305672347545624,-0.2168499082326889,-0.07390628010034561,0.0943399965763092,-0.21471811830997467,-0.11917465925216675,-0.1316649317741394,0.02603907696902752,-0.08763726055622101,0.002444556914269924,0.039929699152708054,0.08963747322559357,-0.08815042674541473,0.06388916820287704,-0.1655983030796051,-0.07086531817913055,-0.11996623873710632,-0.08372338116168976,-0.051313143223524094,-0.08249230682849884,0.060989122837781906,-0.08353227376937866,0.016528330743312836,0.03666093572974205,0.03505963087081909,-0.0049219634383916855,-0.04736802354454994,0.021256400272250175,-0.121754489839077,0.19415654242038727,-0.13342034816741943,0.04977048188447952,0.07124722003936768,-0.13176634907722473,0.02161967009305954,-0.06496477872133255,0.007299001328647137,0.1165958121418953,-0.08204535394906998,0.18030671775341034,-0.3402266800403595,0.10389777272939682,0.09813585877418518,0.03587862104177475,0.10913728922605515,-0.1656295210123062,0.028442244976758957,-0.17323580384254456,0.24745206534862518,0.3405838906764984,-0.1440952867269516,0.1081596314907074,0.19212785363197327,0.12836113572120667,0.18604500591754913,0.019343793392181396,-0.22138847410678864,0.2214561253786087,0.03345524147152901,-0.029782406985759735,-0.0032506482675671577,-0.05640321597456932,-0.10574598610401154,0.1281922459602356,0.08240771293640137,0.08025965094566345,-0.3356912434101105,-0.14538457989692688,-0.05642334744334221,0.28265443444252014,-0.16630923748016357,-0.08463939279317856,-0.034983258694410324,-0.17809449136257172,0.1654263436794281,0.19604261219501495,0.10647164285182953,0.025086065754294395,-0.21148072183132172,-0.08192982524633408,0.06130452826619148,0.013094501569867134,0.0055831968784332275,0.05293205752968788,0.04938824102282524,-0.08075230568647385,-0.19096018373966217,0.13964909315109253,-0.011352729983627796,-0.029229464009404182,0.0679292231798172,0.1390829086303711,-0.007790507283061743,-0.015405326150357723,-0.08059757947921753,-0.07477980852127075,-0.02190477028489113,-0.10796397924423218,0.11805982142686844,4.5868175220675766e-05,-0.1816858947277069,-0.00040007990901358426,-0.047740839421749115,0.19901832938194275,0.06252732127904892,-0.14981867372989655,0.12239842861890793,0.0306656826287508,-0.29583799839019775,-0.08356623351573944,-0.10506533086299896,0.1953435093164444,-0.09007676690816879,0.03131600469350815,-0.20669011771678925,0.007784772664308548,0.11146725714206696,-0.0004562921531032771,-0.06951259076595306,-0.07808001339435577,0.054869163781404495,0.07804647088050842,-0.23827897012233734,0.1270681470632553,0.2280479073524475,0.23469769954681396,0.1142900288105011,0.17735879123210907,0.10061512142419815,0.25939953327178955,-0.042772699147462845,-0.38967159390449524,0.20619164407253265,0.14973242580890656,-0.029231540858745575,0.3012204170227051,-0.04757091403007507,0.12656787037849426,-0.06773839890956879,-0.001913026673719287,0.09680430591106415,0.1765175759792328,0.0011038727825507522,-0.13778069615364075,-0.023311683908104897,-0.0036154817789793015,0.01268561277538538,0.06275909394025803,0.2891773581504822,-0.12034492194652557,0.027214789763092995,0.10938090831041336,-0.018134254962205887,0.1583247184753418,-0.05490618944168091,0.13161543011665344,-0.07489417493343353,-0.22581608593463898,-0.35409092903137207,-0.1638878732919693,0.12303817272186279,0.0005018863012082875,0.08267060667276382,0.01913044974207878,-0.03938004747033119,-0.007026102393865585,0.009711116552352905,-0.07034607976675034,-0.10338596999645233,-0.2385939210653305,0.023857925087213516,0.07183130830526352,-0.2833024561405182,0.08230847865343094,0.05771896243095398,0.016705632209777832,0.03342011570930481,-0.17549830675125122,-0.08909790962934494,-0.05229435861110687,-0.09125345945358276,-0.09761175513267517,-0.190867617726326,-0.012025163508951664,-0.2190007120370865,0.2404858022928238,-0.15399189293384552,-0.10189640522003174,0.17649653553962708,-0.003296476788818836,-0.10071573406457901,-0.31076979637145996,0.12192222476005554,-0.06389308720827103,-0.24282397329807281,0.017084462568163872,-0.18096953630447388,0.0476066917181015,-0.014275666326284409,-0.11545409262180328,-0.051079995930194855,-0.22959452867507935,0.005957822781056166,-0.1952572762966156,0.08510565012693405,0.046956464648246765,-0.3709917962551117,0.1436542570590973,0.006494743283838034,0.17392174899578094,-0.16349220275878906,-0.1564987748861313,0.020960180088877678,0.14960172772407532,0.009340069256722927,-0.13632269203662872,-0.22651809453964233,0.004930571652948856,0.009082266129553318,0.2861376702785492,0.029861824586987495,0.16964136064052582,0.29736560583114624,0.17893418669700623,-0.1426844298839569,-0.02358768694102764,0.23615388572216034,-0.2733292281627655,0.2673429846763611,-0.05763411894440651,-0.12027671933174133,0.13761910796165466,0.3672543168067932,0.15069545805454254,0.09751220792531967,-0.05397574231028557,-0.07363326102495193,0.11031728237867355,-0.050463683903217316,-0.11379624158143997,-0.02186860702931881,-0.08935445547103882,-0.029676487669348717,0.23478204011917114,-0.052565544843673706,-0.010660678148269653,0.19624115526676178,-0.011663897894322872,-0.2459535151720047,-0.006739745382219553,-0.05159023404121399,-0.03314243257045746,-0.1087707057595253,0.14373356103897095,0.0044369990937411785,-0.23666077852249146,0.11469912528991699,-0.04591650515794754,-0.0938325822353363,-0.1509827971458435,-0.05101532116532326,0.06502547115087509,-0.024710429832339287,-0.20150285959243774,-0.2745191752910614,-0.04203637316823006,-0.18885432183742523,0.055297620594501495,-0.25843653082847595,-0.1220380961894989,-0.23078332841396332,-0.04506758973002434,0.00640259450301528,-0.05496165528893471,-0.01937989518046379,0.023162005469202995,-0.10419993847608566,0.04989098012447357,-0.296784371137619,-0.087518610060215,-0.15258628129959106,-0.13835331797599792,0.08771760761737823,-0.01339704915881157,-0.11524375528097153,-0.19387024641036987,0.10416297614574432,0.027348406612873077,-0.03519154340028763,0.23016583919525146,-0.02776138298213482,-0.01889224164187908,0.10303603857755661,0.12488078325986862,0.36015191674232483,0.17891772091388702,-0.1377650797367096,5.6790006055962294e-05,0.04615116864442825,-0.427766352891922,0.055332764983177185,0.0030938182026147842,0.1628306806087494,-0.01825454831123352,0.15929046273231506,0.03295326605439186,-0.1129114031791687,-0.006590808741748333,0.03511861339211464,0.11983765661716461,-0.05942631885409355,-0.00656657200306654,-0.08182518184185028,0.10687849670648575,-0.11190920323133469,0.25659483671188354,0.27652931213378906,-0.038634512573480606,-0.027786260470747948,0.00884042214602232,-0.08116348087787628,0.12859947979450226,-0.13047613203525543,-0.3763820230960846,0.19814814627170563,0.17589162290096283,-0.03701535239815712,-0.23588410019874573,0.22892431914806366,-0.08266518265008926,0.10689177364110947,0.09504983574151993,0.04421854764223099,0.0013047519605606794,0.06398646533489227,-0.06363986432552338,-0.01660199649631977,-0.28066524863243103,0.13235020637512207,-0.04704417288303375,0.11533692479133606,0.1725325584411621,0.19053034484386444,0.03968227282166481,-0.025629378855228424,0.18505682051181793,-0.0764007642865181,-0.02575075440108776,0.0564112663269043,0.05745206028223038,-0.10453055053949356,0.2700716257095337,-0.10255059599876404,0.26499176025390625,-0.1774512678384781,0.13534387946128845,0.01520903967320919,0.13079774379730225,-0.015188043937087059,-0.2177066057920456,0.1185564249753952,-0.15606006979942322,0.09938953071832657,0.35421547293663025,-0.10245808213949203,-0.03552446886897087,-0.03847669064998627,-0.042133208364248276,0.0312972217798233,0.0073336465284228325,-0.038920808583498,0.15516607463359833,0.08889439702033997,-0.11932066828012466,-0.11534426361322403,-0.012176847085356712,0.15552614629268646,-0.07672982662916183,0.04610632359981537,-0.07499472051858902,-0.018789950758218765,0.0009083664626814425,0.04341507330536842,-0.05421621352434158,-0.10258516669273376,-0.11167164891958237,-0.1324096918106079,-0.09310287982225418,-0.10090509802103043,-0.06698083132505417,-0.043551940470933914,0.10661303997039795,0.004493816755712032,-0.09877729415893555,0.0742812231183052,-0.008823609910905361,-0.24719443917274475,0.09206317365169525,-0.27893683314323425,0.08846603333950043,-0.22359474003314972,0.19087588787078857,-0.0683530643582344,-0.025644943118095398,0.148421049118042,-0.21037717163562775,0.12434284389019012,-0.2894391715526581,-0.04936099424958229,0.2147984653711319,-0.341813325881958,0.16172119975090027,0.13710691034793854,0.17921988666057587,0.20762787759304047,0.1834525316953659,0.061735253781080246,0.14234353601932526,0.12479940056800842,-0.36876314878463745,0.10154001414775848,-0.042227745056152344,0.08812219649553299,0.1607525497674942,0.1663583368062973,-0.020207740366458893,0.016603177413344383,0.1680223047733307,-0.06152632459998131,0.025825446471571922,0.09291142970323563,0.040008705109357834,0.029704377055168152,0.08188473433256149,0.014221500605344772,-0.044787559658288956,-0.08215363323688507,0.05485884100198746,-0.26465535163879395,-0.015611919574439526,0.17914645373821259,0.1509089469909668,-0.1431729644536972,0.18337497115135193,-0.045527443289756775,0.05801112577319145,-0.15116025507450104,-0.13012288510799408,-0.29948484897613525,-0.10243692249059677,0.057939641177654266,0.12524592876434326,-0.06274169683456421,-0.18192331492900848,0.020821118727326393,-0.0018237957265228033,0.006516904104501009,0.12317685782909393,-0.05792585015296936,-0.1941651999950409,-0.13964766263961792,0.14557071030139923,-0.1849246621131897,-0.09075651317834854,0.12568892538547516,-0.19836357235908508,-0.19524003565311432,0.40802431106567383,-0.09242493659257889,-0.22034449875354767,0.05754804238677025,0.20259219408035278,-0.24595840275287628,0.09047485142946243,-0.05008215829730034,-0.19194118678569794,-0.004527720157057047,-0.1358853578567505,-0.12863676249980927,-0.12596175074577332,0.03510924056172371,-0.014566999860107899,-0.013312928378582,0.03557417169213295,0.04103069007396698,-0.02192007005214691,0.18018801510334015,0.059116002172231674,-0.08581794798374176,-0.015022114850580692,-0.10913597047328949,-0.1980590671300888,0.21442458033561707,-0.0012327850563451648,-0.1995125561952591,-0.06945377588272095,0.10504157096147537,-0.05073656141757965,0.2587713301181793,-0.10895448923110962,-0.20447184145450592,0.04382381588220596,-0.09883501380681992,0.1055968701839447,-0.23054571449756622,-0.22684091329574585,-0.26050034165382385,-0.12243007123470306,-0.03196127712726593,0.14961537718772888,0.05695196986198425,0.16215643286705017,0.021358784288167953,-0.04433249682188034,0.06819123029708862,-0.23698993027210236,0.2739413380622864,0.04268884286284447,-0.28302812576293945,0.19377970695495605,0.10758709907531738,-0.02289639040827751,-0.10702231526374817,0.11380347609519958,0.14375735819339752,-0.009370130486786366,-0.08126594126224518,0.12029165774583817,-0.19478033483028412,-0.016423828899860382,-0.03963172063231468,0.2264544516801834,-0.01251809112727642,0.11463618278503418,0.05878560617566109,-0.06848685443401337,-0.12997816503047943,-0.10613822191953659,0.023390144109725952,-0.5081458687782288,0.17227290570735931,0.20739887654781342,-0.25722047686576843,0.04056580737233162,-0.012828318402171135,0.21120917797088623,-0.1803026795387268,-0.01646946743130684,0.053777992725372314,0.11123472452163696,-0.02171183191239834,-0.11320363730192184,0.30298593640327454,0.08969123661518097,-0.2786482870578766,0.21586883068084717,0.12455076724290848,0.02902146242558956,-0.01900850608944893,-0.128652885556221,-0.062090277671813965,-0.03318719565868378,-0.012208879925310612,0.5387261509895325,-0.08101914823055267,0.12283166497945786,0.11205323785543442,-0.018814807757735252,0.028438016772270203,0.07396688312292099,-0.17651920020580292,-0.11933435499668121,0.03065844066441059,0.08405793458223343,-0.01247046235948801,-0.08028236031532288,0.23942431807518005,-0.09861258417367935,0.09816014021635056,-0.005315690767019987,-0.03469829261302948,-0.21881438791751862,0.07686293870210648,-0.26469525694847107,-0.13860611617565155,-0.0884375274181366,-0.08290084451436996,0.32155752182006836,-0.40489646792411804,0.2512355148792267,0.0068686893209815025,-0.330176442861557,-0.0423077791929245,-0.04398534446954727,-0.04738094285130501,-0.2155793458223343,0.0016566553385928273,0.03540531173348427,0.028712088242173195,0.04629926010966301,0.23589541018009186,-0.04943358898162842,0.1570664793252945,-0.10833244770765305,0.04269617795944214,-0.0196591354906559,-0.03201395273208618,0.16385045647621155,0.03502931818366051,0.0314275324344635,0.2312106043100357,0.2178974598646164,-0.06361106038093567,0.11930406093597412,0.01376327034085989,0.09914842247962952,0.006242294795811176,-0.09446614235639572,0.15566441416740417,0.017841041088104248,-0.0947813093662262,-0.043200984597206116,-0.003312870394438505,0.08918432146310806,0.18086831271648407,0.2161029726266861,0.11181498318910599,-0.02462795376777649,-0.3660546839237213,0.1377146691083908,-0.3167080879211426,-0.027664845809340477,0.21582838892936707,-0.07539226114749908,0.0425519160926342,-0.13318775594234467,-0.04608163982629776,0.1210903748869896,0.0662422627210617,-0.08722351491451263,0.038331832736730576,-0.15997488796710968,0.047662798315286636,0.10304029285907745,0.04501495137810707,-0.05285189300775528,0.06640168279409409,0.06815934181213379,-0.073272705078125,0.101664237678051,0.11052904278039932,-0.1616349220275879,-0.005162697285413742,0.11151042580604553,-0.021414361894130707,0.17747563123703003,0.158913254737854,-0.027548106387257576,0.11769117414951324,-0.018328767269849777,0.04385397583246231,0.01086748018860817,0.3379957973957062,-0.13788612186908722,-0.20108534395694733,0.16093795001506805,-0.1108924075961113,0.06465757638216019,0.10377981513738632,0.0279440525919199,0.04117613285779953,0.059933219105005264,-0.02964664436876774,0.23942425847053528,-0.10271474719047546,0.12510879337787628,0.12396354228258133,0.001934618572704494,-0.08843749016523361,-0.1538953185081482,-0.08818063884973526,0.15307162702083588,-0.08185413479804993,0.22338461875915527,-0.0243669580668211,-0.11083205789327621,0.28489750623703003,-0.22728118300437927,0.13624724745750427,-0.0905805379152298,0.03523195907473564,-0.03301221504807472,-0.17785602807998657,0.024505987763404846,-0.002302745124325156,0.13180652260780334,-0.4573890268802643,-0.11592008173465729,0.1794762760400772,-0.11673329025506973,0.07586353272199631,-0.14532901346683502,-0.051102906465530396,-0.11152768135070801,0.01689751073718071,-0.09671929478645325,-0.10990652441978455,0.7520098686218262,-0.15415911376476288,-0.08949592709541321,0.29118824005126953,-0.16961555182933807,0.0071297152899205685,0.07823736220598221,0.19072099030017853,0.073208287358284,-0.000640848302282393,-0.25595518946647644,0.15559086203575134,0.10405706614255905,0.015849420800805092,-0.192253977060318,-0.11331169307231903,0.053994979709386826,-0.40840840339660645,0.015872471034526825,-0.14325936138629913,-0.04784521460533142,-0.17140451073646545,-0.20364435017108917,0.02592725306749344,-0.010980862192809582,-0.10835418850183487,0.1932886689901352,0.13762402534484863,-0.01213531568646431,-0.1819581836462021,-0.07054782658815384,-0.144954651594162,-0.12282261252403259,-0.04285106435418129,-0.053623661398887634,0.08603264391422272,0.1306738555431366,0.03974016010761261,0.1376221626996994,0.04808336868882179,-0.08286618441343307,0.2402414083480835,0.04331141710281372,0.13742247223854065,-0.14410503208637238,-0.14397309720516205,0.20787690579891205,0.26623931527137756,-0.27852025628089905,0.19214904308319092,0.15519976615905762,-0.267794668674469,0.018118958920240402,0.09330907464027405,-0.15619248151779175,0.13859689235687256,0.187604621052742,0.0073727830313146114,-0.01825553923845291,0.11273892223834991,0.336414635181427,0.31284433603286743,0.3077242970466614,-0.017501724883913994,-0.007263003382831812,0.11324312537908554,0.15868954360485077,0.024115506559610367,0.07431665807962418,0.14584492146968842,0.1169634610414505,-0.0021129983942955732,-0.2873976528644562,0.14353668689727783,0.21467095613479614,0.009349914267659187,0.30890342593193054,-0.11048669368028641,-0.0021336276549845934,-0.21803870797157288,-0.027958201244473457,-0.08644843101501465,0.16879092156887054,-0.10926639288663864,-0.33545103669166565,0.1352938413619995,-0.24652934074401855,0.003440677188336849,-0.0823698416352272,0.09221810847520828,-0.23446527123451233,0.06447705626487732,0.09762503951787949,-0.020985068753361702,-0.0366378128528595,-0.05453753098845482,0.20824815332889557,-0.2531449794769287,-0.16541513800621033,-0.28475049138069153,-0.24996593594551086,0.00046484608901664615,0.015854498371481895,-0.02257375232875347,-0.04445182532072067,0.019062252715229988,0.18163059651851654,0.030381260439753532,0.0751904621720314,0.08072564005851746,-0.08717380464076996,0.10642237216234207,0.1134084016084671,-0.33874407410621643,-0.10060327500104904,0.12360908836126328,0.07151037454605103,-0.03450797125697136,-0.07017277926206589,0.13547781109809875,0.10227183997631073,-0.09891028702259064,0.08251434564590454,-0.14295896887779236,0.0005263745551928878,-0.09521473199129105,0.039288975298404694,-0.0019492654828354716,-0.07337231189012527,0.02168368175625801,-0.030788006260991096,0.08211516588926315,-0.39799755811691284,0.12825608253479004,0.13059665262699127,-0.16099272668361664,-0.12967097759246826,-0.008628611452877522,0.00047663674922659993,0.058846574276685715,-0.04379023239016533,-0.16583117842674255,-0.10402386635541916,-0.0890008956193924,0.08618246018886566,-0.10394672304391861,0.04076603427529335,0.026540784165263176,-0.0285496786236763,-0.29268336296081543,-0.018928179517388344,-0.12756289541721344,-0.1756291687488556,-0.018212903290987015,0.17840203642845154,-0.1630556285381317,-0.18526695668697357,-0.008847999386489391,0.039580926299095154,0.17222073674201965,0.15423940122127533,0.2425028532743454,-0.08907380700111389,0.13031364977359772,-0.0008571920916438103,0.006726342253386974,0.07891352474689484,0.06391244381666183,-0.01252993568778038,0.028530944138765335,-0.098147451877594,-0.047478970140218735,-0.06171915680170059,0.3065735101699829,0.0372040793299675,-0.031359363347291946,-0.08502961695194244,-0.024442672729492188,0.34418225288391113,-0.035766784101724625,-0.0828419029712677,-0.0815202072262764,-0.17235106229782104,0.0866389200091362,0.24412575364112854,-0.20704250037670135,-0.13964875042438507,0.2860654294490814,0.16072610020637512,-0.3077159821987152,0.014083296060562134,0.17634207010269165,-0.1849893033504486,-0.025718439370393753,0.026022830978035927,-0.11111895740032196,-0.17653512954711914,0.1598024070262909,-0.014809973537921906,-0.0240088552236557,-0.02475358359515667,-0.02558491937816143,0.15255582332611084,-0.023976529017090797,-0.028179114684462547,-0.01280798390507698,0.04685930907726288,-0.11981501430273056,0.021078279241919518,0.16303251683712006,-0.1429131031036377,0.13231202960014343,-0.12226256728172302,-0.21681077778339386,0.08019667118787766,-0.10999780893325806,0.03093194216489792,0.1447412073612213,-0.16736924648284912,0.06307897716760635,-0.29908233880996704,0.1461106389760971,-0.016279546543955803,0.19606821238994598,0.080545574426651,-0.14945459365844727,0.043332092463970184,-0.08782683312892914,0.24532492458820343,-0.05691223591566086,-0.020005496218800545,-0.20419898629188538,-0.1877678483724594,-0.11802639812231064,0.14361627399921417,0.1183728352189064,0.07671011984348297,-0.14910106360912323,0.12195687741041183,0.017491156235337257,-0.17140911519527435,0.26325756311416626,0.16798362135887146,0.03582846745848656,0.35009512305259705,-0.11467970162630081,0.07587849348783493,-0.012649108655750751,-0.03219187632203102,-0.034227386116981506,-0.055078331381082535,-0.01151563972234726,0.06544560939073563,0.10594187676906586,0.051969464868307114,-2.0303668861743063e-05,0.0003038199502043426,-0.03258819505572319,0.15333259105682373,-0.03199620172381401,-0.0681559219956398,0.09051347523927689,-0.001500339130870998,-0.17683503031730652,-0.17457573115825653,0.18982566893100739,0.006754863075911999,0.14056091010570526,0.17765624821186066,0.13103793561458588,0.0022430650424212217,-0.09389235079288483,0.019234180450439453,0.0014879130758345127,0.12108781933784485,-0.10298825800418854,0.146981880068779,0.36843356490135193,-0.08469096571207047,-0.06459745764732361,0.13951343297958374,0.02519713155925274,0.024607505649328232,0.0741453692317009,-0.08184797316789627,-0.018557678908109665,-0.04346486181020737,0.034302182495594025,0.016401978209614754,0.11252947896718979,0.03505481034517288,-0.06524474918842316,-0.015095426701009274,0.031325701624155045,0.0019154816400259733,0.019331349059939384,-0.020791837945580482,0.07398887723684311,-0.13955476880073547,0.09369159489870071,0.028010545298457146,0.013130147010087967,0.08777470886707306,-0.09949570149183273,0.05884210765361786,-0.06573724746704102,-0.007949210703372955,0.04683651402592659,0.10221630334854126,0.09377548843622208,-0.09303369373083115,0.06843862682580948,-0.11403482407331467,0.0282956101000309,-0.03003101795911789,-0.00975770689547062,-0.006760298740118742,0.07022814452648163,0.009095583111047745,0.061073191463947296,0.0011796392500400543,-0.008223941549658775,0.14146390557289124,0.00748203881084919,-0.06515196710824966,0.0459190271794796,0.13596120476722717,0.03395557403564453,-0.05403139814734459,-0.04057985544204712,-0.07237356901168823,-0.055261656641960144,-0.057593632489442825,-0.10251567512750626,0.056098587810993195,-0.014720488339662552,-0.08682501316070557,0.05334756523370743,0.027078211307525635,0.043405961245298386,0.02792574279010296,0.10258829593658447,0.07848525047302246,0.015939539298415184,-0.12042922526597977,0.0012684670509770513,0.12571275234222412,-0.18887843191623688,0.002468810183927417,0.002483644289895892,-0.002315742429345846,-0.18031753599643707,-0.08340272307395935,-0.13591185212135315,0.17831085622310638,0.0031090998090803623,0.25133249163627625,-0.012805884703993797,0.22241179645061493,0.24714919924736023,0.05213671550154686,-0.03570812568068504,0.38517311215400696,-0.04036809876561165,-0.07797753065824509,-0.12201060354709625,-0.11072275787591934,0.14425316452980042,0.01565360836684704,-0.09198931604623795,0.13360357284545898,-0.21075420081615448,-0.019583454355597496,0.2867002487182617,-0.2215045690536499,-0.13358695805072784,0.005482690408825874,0.1065739244222641,-0.12761077284812927,0.15711282193660736,0.3522987961769104,-0.28193217515945435,0.08187302201986313,0.04626472666859627,-0.10013872385025024,8.037398220039904e-05,-0.20005814731121063,-0.2661585211753845,-0.08597610145807266,-0.16284477710723877,0.0070899114944040775,0.0021549994125962257,0.0014525916194543242,0.053242363035678864,0.13878704607486725,-1.168645394500345e-05,0.2571897506713867,0.03205277770757675,0.05363316088914871,0.0007034239242784679,0.10197431594133377,0.0007903508376330137,0.14929650723934174,-0.28473347425460815,-0.10129643231630325,-0.2406500279903412,-0.06048513203859329,-0.004053014796227217,0.10569498687982559,-0.18291519582271576,-0.10122419148683548,0.3075607120990753,-0.30282872915267944,-0.23010410368442535,0.09196515381336212,-0.026501618325710297,0.11380112916231155,0.12198540568351746,-0.043273959308862686,-0.16458472609519958,-0.29753217101097107,-0.3062995970249176,-0.37406304478645325,0.050110917538404465,-0.6144522428512573,0.0015259691281244159,-0.22488564252853394,0.08548802882432938,0.003980222158133984,-0.034126847982406616,0.23801378905773163,-0.162326842546463,0.07043727487325668,-0.12337346374988556,-0.16531674563884735,0.035437148064374924,-0.08929698914289474,0.070323146879673,0.5086580514907837,0.5336779356002808,-0.2417258322238922,0.0021113925613462925,0.05355622619390488,-0.2252109944820404,0.010604484006762505,0.10297403484582901,-0.024655070155858994,-0.2009957879781723,0.41299188137054443,-0.045976005494594574,0.5531229972839355,-0.00041997910011559725,0.20882244408130646,-0.40395984053611755,-0.12950332462787628,-0.21953803300857544,0.002810611156746745,0.00802210159599781,-0.2597388029098511,0.009406160563230515,-0.037854261696338654,-0.10784808546304703,-0.13500773906707764,-0.21717914938926697,-0.018195031210780144,-0.16343365609645844,-0.005772769916802645,0.0720566138625145,-0.12040598690509796,0.5375108122825623,0.05686001852154732,0.13281437754631042,0.019066179171204567,-0.05982884019613266,-0.1606472134590149,0.0066877491772174835,-0.04223032668232918,0.2756860852241516,-0.1818132996559143,0.039683420211076736,0.12313850224018097,0.10666857659816742,0.0848192498087883,0.44562503695487976,-0.18149027228355408,0.23213496804237366,0.214774027466774,-0.20929335057735443,-0.029951727017760277,-0.12074314802885056,-0.04913673922419548,0.24480921030044556,0.19224794209003448,-0.26289644837379456,0.45324453711509705,-0.09117349982261658,0.2816658914089203,-0.05670804902911186,-0.3084372580051422,-0.03842325508594513,-0.23005282878875732,0.2980530858039856,0.10239741951227188,0.3098534643650055,-0.11188997328281403,0.12370727956295013,0.18819871544837952,0.11322656273841858,-0.09809034317731857,0.26780715584754944,0.09026678651571274,0.24610790610313416,0.18846704065799713,-0.0022964002564549446,0.03462313488125801,0.05110709369182587,-0.2173142433166504,-0.026238689199090004,0.1735152304172516,0.34469497203826904,-0.003107446013018489,0.1927558332681656,-0.00147954688873142,0.05348013713955879,0.1071854904294014,0.22386568784713745,-0.01275652926415205,-0.046256549656391144,0.32480716705322266,0.09213121235370636,-0.117848701775074,-0.07160922139883041,-0.012797982431948185,-0.018371257930994034,0.35327574610710144,-0.0070663318037986755,-0.3252679109573364,